tree
version=v4
num_class=1
num_tree_per_iteration=1
label_index=0
max_feature_idx=279
objective=binary sigmoid:1
feature_names=Open High Low Close Volume hour_sin hour_cos valid_hour SMA_9 SMA_9_pct_distance SMA_9_slope_diff5 SMA_9_slope_diff SMA_9_slope_grad SMA_9_direction SMA_9_cross SMA_9_percentile SMA_9_up_ratio_5 SMA_20 SMA_20_pct_distance SMA_20_slope_diff5 SMA_20_slope_diff SMA_20_slope_grad SMA_20_direction SMA_20_cross SMA_20_percentile SMA_20_up_ratio_5 SMA_50 SMA_50_pct_distance SMA_50_slope_diff5 SMA_50_slope_diff SMA_50_slope_grad SMA_50_direction SMA_50_cross SMA_50_percentile SMA_50_up_ratio_5 SMA_100 SMA_100_pct_distance SMA_100_slope_diff5 SMA_100_slope_diff SMA_100_slope_grad SMA_100_direction SMA_100_cross SMA_100_percentile SMA_100_up_ratio_5 SMA_200 SMA_200_pct_distance SMA_200_slope_diff5 SMA_200_slope_diff SMA_200_slope_grad SMA_200_direction SMA_200_cross SMA_200_percentile SMA_200_up_ratio_5 RSI rsi_change rsi_slope rsi_slope_std_5 rsi_slope_std_10 rsi_rolling_mean rsi_std rsi_zscore rsi_above_65_duration rsi_below_45_duration CCI cci_change cci_slope cci_slope_std_5 cci_slope_std_10 cci_rolling_mean cci_std cci_zscore cci_above_100_duration cci_below_minus100_duration cci_to_100 MACD_Line MACD_Signal MACD_Histogram macd_line_pct_change macd_hist_pct_change macd_line_zscore macd_hist_zscore macd_cross_signal macd_hist_direction macd_hist_slope macd_hist_slope_std_10 macd_hist_slope_std_5 MACD_Line_Slope MACD_Line_Slope_std_10 MACD_Line_Slope_std_5 adx adx_slope adx_slope_std_10 adx_slope_std_5 OBV obv_change obv_pct_change obv_slope pain_ratio gain_ratio feat_c1_lt_pre_s9 feat_c0_gt_s9 feat_o1_gt_c1 feat_o0_lt_c0 feat_c1_lt_pre_s20 feat_c0_gt_s20 feat_cross_above_s9 feat_cross_above_s20 feat_cross_below_s9 feat_cross_below_s20 gk pn MACD_Histogram1 MACD_Signal1 MACD_Line1 MACD_Histogram2 MACD_Signal2 MACD_Line2 MACD_Histogram3 MACD_Signal3 MACD_Line3 MACD_Histogram4 MACD_Signal4 MACD_Line4 OC_ratio OC_ratio_1 OC_ratio_2 OC_ratio_3 OC_ratio_4 Close_Change_1 RSI_Change_1 Close_Change_2 RSI_Change_2 Close_Change_3 RSI_Change_3 Close_Change_4 RSI_Change_4 volume_z volume_slope RSI_Slope_15min MACD_Slope_15min RSI_Mean_15min MACD_Mean_15min RSI_Std_15min MACD_Std_15min RSI_Slope_1hr MACD_Slope_1hr RSI_Mean_1hr MACD_Mean_1hr RSI_Std_1hr MACD_Std_1hr RSI_Slope_4hr MACD_Slope_4hr RSI_Mean_4hr MACD_Mean_4hr RSI_Std_4hr MACD_Std_4hr RSI_Slope_1day MACD_Slope_1day RSI_Mean_1day MACD_Mean_1day RSI_Std_1day MACD_Std_1day BB_Lower BB_Upper BB_Mid BB_Width BB_Percent BB_Close_Dist_Mid BB_Close_Dist_Lower BB_Close_Dist_Upper BB_Mid_Slope BB_Is_Squeeze BB_Expansion BB_Width_shift_1 BB_Pct_Width_shift_1 BB_Close_Dist_Mid_shift_1 candle_body upper_wick lower_wick candle_range momentum_unbalance wick_dominance range_spike price_surge PGI_alt BB_Width_shift_2 BB_Pct_Width_shift_2 BB_Close_Dist_Mid_shift_2 BB_Width_shift_3 BB_Pct_Width_shift_3 BB_Close_Dist_Mid_shift_3 BB_Width_shift_4 BB_Pct_Width_shift_4 BB_Close_Dist_Mid_shift_4 log_returns volatility_5 skewness kurtosis volatility_20 skewness_20 kurtosis_20 volatility_10 skewness_10 kurtosis_10 price_slope price_slope_std_20 price_slope_std_1 drawdown max_drawdown velocity xtopher acceleration smoothed_velocity_5 smoothed_acceleration_5 cum_log_returns returns rolling_std god_oscillator range_5 range_10 bullish_engulf bearish_engulf pin_bar inside_bar outside_bar cluster_10 range_5_lag1 range_5_lag2 range_5_lag3 range_5_lag4 range_5_lag5 range_10_lag1 range_10_lag2 range_10_lag3 range_10_lag4 range_10_lag5 bullish_engulf_lag1 bullish_engulf_lag2 bullish_engulf_lag3 bullish_engulf_lag4 bullish_engulf_lag5 bearish_engulf_lag1 bearish_engulf_lag2 bearish_engulf_lag3 bearish_engulf_lag4 bearish_engulf_lag5 pin_bar_lag1 pin_bar_lag2 pin_bar_lag3 pin_bar_lag4 pin_bar_lag5 inside_bar_lag1 inside_bar_lag2 inside_bar_lag3 inside_bar_lag4 inside_bar_lag5 outside_bar_lag1 outside_bar_lag2 outside_bar_lag3 outside_bar_lag4 outside_bar_lag5 cluster_10_lag1 cluster_10_lag2 cluster_10_lag3 cluster_10_lag4 cluster_10_lag5 SMA_9_lt_SMA_20 BoS_Up BoS_Down Double_Top Double_Bottom Candles_Since_BB_Upper Candles_Since_BB_Lower entry_price stop_loss_price stop_loss_distance sl_ratio_to_entry side volatility pair
feature_infos=[1.2047600000000001:1.4790300000000001] [1.2049700000000001:1.4793400000000001] [1.2037100000000001:1.4788300000000001] [1.2047600000000001:1.4789600000000001] [7:6200] [-1:1] [-1:0.86602540378443871] none [1.20546:1.4787044444444446] [-0.56739417776202949:0.31895153512407071] [-0.0053588888888889:0.0077944444444442004] [-0.00098416382790470001:0.0011522146591693] [-0.0012049999999999999:0.0014783333333332001] [-1:1] [-1:1] [0:80] [0:1] [1.2061774999999999:1.4782569999999999] [-0.74027231014684247:0.69231309096260329] [-0.0031154999999997999:0.0035795000000000002] [-0.00049642999892040001:0.00052147492928170005] [-0.0006384999999999:0.00069999999999999999] [-1:1] [-1:1] [0:80] [0:1] [1.2067825999999999:1.4763573999999999] [-0.86721500449252509:0.91899700856440525] [-0.0015394000000001:0.0017491999999994] [-0.00024720646662489999:0.00022085370384959999] [-0.00030739999999989997:0.00030010000000020001] [-1:1] [-1:1] [0:80] [0:1] [1.2070607:1.4744546999999999] [-1.0260700191169485:0.97426013775999165] [-0.00095039999999970001:0.0018248999999999] [-0.00015328136349749999:0.00025912111803610001] [-0.00019534999999989999:0.00035649999999989997] [-1:1] [-1:1] [0:80] [0:1] [1.2074058999999999:1.47141235] [-1.0972913723634714:1.5516630676443848] [-0.00066990000000010004:0.00076144999999990003] [-9.8328828854471736e-05:0.0001042917263683] [-0.00013679999999999999:0.00015239999999999999] [-1:1] [-1:1] [0:80] [0:1] [4.7008102137995991:91.009049084041962] [-48.467244134879223:9.2267779772985232] [-25.935343947503451:23.416819144847778] [0.029885439319813401:14.242737991151069] [0.3933313640787291:12.536074779518652] [7.18530096489327:91.422424119575481] [0:27.551059910296104] [-3.9662696139921945:3.061933617991305] [0:400] [0:200] [-655.29705573051729:412.76123654458638] [-648.27012822501217:267.47747747701999] [-352.83952913696402:366.70893751052148] [0.50620257878038621:240.14467593716989] [2.5744720599098421:172.39901820242235] [-343.12660512819173:343.98967426839107] [0.74149996714809407:329.70108763493943] [-1.7886054119497428:1.7855017798588648] [0:204] [0:201] [0:755.29705573051729] [-0.0030529645961493998:0.0039480794539387999] [-0.0026889164115543002:0.0028016211546769] [-0.001098034971941:0.0014276084438942999] [-12182.965286558829:4613.7246900124519] [-4371.0064724828908:5410.7460071408459] [-1.7783589004250082:1.6067932988141478] [-1.7766087997810689:1.6406296134637477] [0:1] [-1:1] [-0.00043682884884159998:0.00030983245431340001] [5.1750785245095666e-07:0.00021748389489360001] [1.4769125294247284e-07:0.00020983830408679999] [-0.00053158905344260002:0.0003634258535205] [9.8985682849337777e-07:0.0002147661900868] [1.7089535870965119e-07:0.00025987259460169998] [5.3388872391182458:78.694505346045872] [-4.0567010863257034:4.9714270091458506] [0.054721940873851203:2.6875926165771427] [0.010567819263234701:2.6807189089240686] [-7675:925111] [-6200:3882] [-15.266666666666667:4.3855421686746991] [-3830.5:3650] [-4897.5739924176369:5113.6406553315974] [-4533.9470655927362:1192.3576226222644] [0:1] [0:1] [0:1] [0:1] [0:1] [0:1] [0:1] [0:1] [0:1] [0:1] [0:1] [0:1] [-0.0010495192549168999:0.0016020797363615999] [-0.0027128895310385998:0.0025150065798614] [-0.0030524980045270001:0.0039426150237558003] [-0.0010495192549168999:0.0016020797363615999] [-0.0027217585539696999:0.0024228092451162001] [-0.0030529645961493998:0.0037601842052494001] [-0.001098034971941:0.0014146943827548001] [-0.0027128895310385998:0.0024290298152003999] [-0.0030529645961493998:0.0031722789175522999] [-0.0010423674809753999:0.0013119175360728] [-0.0027217585539696999:0.0024290298152003999] [-0.0030529645961493998:0.0027263294787216001] [-0.0048531129701209:0.0017166091826725] [-0.0048531129701209:0.0045218434210419003] [-0.0046672296000613003:0.0053413822155694004] [-0.0048531129701209:0.0059586581219903002] [-0.0048531129701209:0.0044681834523136003] [-0.0048453107114296004:0.0001049953559746] [-48.467244134879223:9.2267779772985232] [-0.0050615012573411002:0.0044408068005931996] [-51.87068789500691:36.934833708044138] [-0.0062178552237660001:0.0048717854653508004] [-52.023771619368631:46.660677747724478] [-0.0065939970829812997:0.0056931313697436] [-55.131153099992481:46.440925262547879] [-1.7879953057436684:1.7888543819995542] [-1757.5:3399] [-17.341257206456209:15.553559249241491] [-0.00044880000013790001:0.00040892884952470002] [5.8433225741969181:91.857610825729793] [-0.0030374274855563001:0.0038836262276480001] [0:28.236408650988249] [3.3839529319739402e-08:0.0004806288756001] [-5.0097184046263896:5.3048165791503159] [-0.0002617657762795:0.00032459100662460001] [11.263070243933155:87.884986777470132] [-0.0028094580731971002:0.0024925900778380999] [0.74342588102254881:24.685763123570617] [2.7441908648450312e-06:0.0015199954382070001] [-1.4576481282856255:1.2825101981689311] [-9.65854898163689e-05:9.599248845816126e-05] [20.039934013837179:77.717332147128673] [-0.0016477397163535:0.0027743118068170002] [3.0904354298954058:24.557085265182138] [1.5586055455362426e-05:0.0019772192750822002] [-0.24489203307795279:0.23785066287551909] [-1.5925431361522085e-05:1.6190521251168804e-05] [38.914998851324917:62.202077696108027] [-0.00075152022949530003:0.00069151035590940004] [6.5324621486895165:17.695470648609717] [8.0669253516504931e-05:0.0016912327062176] [1.2042595263753979:1.4770514942832871] [1.206831040691156:1.480241228852595] [1.2061774999999999:1.4782569999999999] [0.00015184201959599999:0.025504150565315499] [-0.58061889868833383:1.2715428426193225] [-0.0092010000000002003:0.0097165000000001001] [-0.0034755938641839001:0.022142046708874399] [-0.0014311429820612:0.017208607585561701] [-0.0006474999999999:0.00073149999999980002] [0:1] [-0.72482418064740828:6.2262680582557293] [0.0001604493656039:0.024851093417748601] [0.0001184066116122:0.0177067228918249] [-0.0092010000000002003:0.013398] [0:0.0061900000000000999] [0:0.0048999999999999001] [0:0.0039399999999998004] [1.0000000000065512e-05:0.0077299999999999999] [-5:5] [0:4729999.9999999003] [0.032102728732152697:12.342079689018458] [-5.7345890410963394:4.783613445377541] [-18.821488042025603:5676008.351296124] [0.00015184201959599999:0.023511721673603599] [0.0001118633417807:0.016761139298752399] [-0.0082679999999999004:0.013398] [0.00015184201959599999:0.020274061853910501] [0.0001120549903407:0.0146323997479873] [-0.0088059999999998001:0.010939000000000001] [0.00015184201959599999:0.019372616859747002] [0.0001118633417807:0.0146323997479873] [-0.0092010000000002003:0.0092774999999999993] [-0.0048570872855484004:0.000104989844348] [0:0.0027528584044037002] [-2.2360679774997747:2.2360679775559111] [-3.3333333038383799:5.00000002294815] [3.5862765203839362e-05:0.0013510315596937999] [-4.3595865572466339:4.221607456603838] [-1.7499181017387302:19.317743925693293] [1.5483337116013443e-05:0.0019267584395730999] [-3.1235455413958282:3.1053778822350377] [-2.3404091611655846:9.8232641424412019] [-0.0044708003017200999:0.0042322854462617] [2.3144181762404407e-05:0.0010597923796678999] [8.5412505072142426e-06:0.0015092935170676999] [-0.0065939970829812997:0] [-0.0065939970829812997:0] [-0.0062799999999997996:0.00014999999999999999] [-11165.378440772254:11821.07672883932] [-0.0073000000000000001:0.0061300000000000998] [-0.0017479999999999:0.0014679999999998999] [-0.0013240000000000001:0.0012319999999999001] [-0.055166639230965701:0.1114221358855257] [-0.0048453107114296004:0.0001049953559746] [0:0.0027605667869461999] [-21720767.423143558:31502623.849462703] none none [0:1] [0:1] [0:1] [0:1] [0:1] none none none none none none none none none none none [0:1] [0:1] [0:1] [0:1] [0:1] [0:1] [0:1] [0:1] [0:1] [0:1] [0:1] [0:1] [0:1] [0:1] [0:1] [0:1] [0:1] [0:1] [0:1] [0:1] [0:1] [0:1] [0:1] [0:1] [0:1] none none none none none [0:1] [0:1] [0:1] [0:1] [0:1] [0:198] [0:177] [1.2037100000000001:1.4788300000000001] [1.2045563349016375:1.4814371480580155] [0.00050000280183380003:0.0034977151344879002] [0.00034623340294140002:0.0028184341631357999] none [0.0001250007004584:0.00087442878362199998] -1:0:1
tree_sizes=4498 4508 4440 4515 4466 4443 4505 4367 4464 4446 4489 4456 4419 4437 4436 4487 4496 4472 4482 4511 4340 4553 4268 4463 4244 4252 4389 4453 4464 4547 4446 4485 4557 4400 4516 4451 4244 4354 4231 4399 4365 4369 4512 4453 4530 4275 4427 4400 4425 4432 4492 4442 4419 4507 4411 4485 4463 4194 4301 4398 4124 4426 4493 4515 4247 4398 4255 4454 4498 4465 4350 4349 4307 4350 4573 4463 4324 4412 4299 4421 4481 4584 4398 4418 4366 4221 4433 4162 4360 4244 4463 4346 4374 4374 4267 4364 4350 4159 4471 4169

Tree=0
num_leaves=41
num_cat=0
split_feature=55 6 6 5 5 276 205 163 55 46 275 55 17 55 276 276 214 214 55 35 209 93 158 96 153 160 62 161 159 160 93 161 276 37 72 276 123 205 188 70
split_gain=1041.28 555.975 373.689 360.775 326.061 256.779 202.012 154.237 92.512 78.36 71.0212 70.66 65.8607 64.863 63.5782 60.3752 56.7771 55.8479 53.2614 52.1086 49.0415 41.3865 49.1918 40.6317 38.965 38.3754 34.0606 33.0994 30.6936 30.5881 40.9067 29.998 34.2435 33.8632 29.1681 28.3235 27.2853 26.7622 26.7407 26.5716
threshold=-1.6081792589088033 -0.37940952255126009 -0.37940952255126009 0.91597561503675362 0.91597561503675362 0.00069405662830905016 0.00012601224229165004 1.3270374461430301 1.8987785794181333 -2.114999999991429e-05 0.00069836929362425014 -3.2588943431626176 1.3149277500000003 1.1777045936582715 0.00056148455928340009 0.00066624703181835017 0.044019850934415357 0.034974026411073757 -5.4168589705253689 1.4405210000000002 -0.00037000000000004992 589219.50000000012 49.86132886273105 -244.74999999999997 -0.00020027106431944999 10.191323198936269 54.500000000000007 0.00039453289661330005 0.00017866862848560001 10.63436745436581 414373.50000000006 0.00079250719024550004 0.0013270947403188002 0.00013950000000025002 73.500000000000014 0.0010961156322121001 -0.00032319728830089992 0.00017174637536210001 0.0006088924525158001 -1.3156718727204837
decision_type=2 2 2 2 2 2 2 2 2 2 2 2 2 2 2 2 2 2 2 2 2 2 2 2 2 2 2 2 2 2 2 2 2 2 2 2 2 2 2 2
left_child=1 5 6 10 14 11 13 9 15 26 -4 34 24 28 23 -8 -9 -16 -7 -14 -13 22 -11 -3 -6 -19 29 -24 39 30 -5 32 33 -17 36 -20 -1 -26 -38 -2
right_child=2 4 3 7 12 18 8 16 -10 21 -12 20 19 -15 17 31 -18 25 35 -21 -22 -23 27 -25 37 -27 -28 -29 -30 -31 -32 -33 -34 -35 -36 -37 38 -39 -40 -41
leaf_value=-1.2167960562126365 -1.2970767889206036 -1.2491848663410576 -1.3559444267752598 -1.3281973174559654 -1.3003998152499681 -1.2082370058770491 -1.2813633565331377 -1.3840515696549616 -1.3604720660244516 -1.2970767889206036 -1.4093532125110053 -1.2970767889206036 -1.29599415735616 -1.2970767889206036 -1.3830726634313462 -1.3305812044719236 -1.3041587893525526 -1.2496854091983352 -1.2689181840595523 -1.1049453999821837 -1.2106586783340287 -1.3060001766094955 -1.233064438182093 -1.3245877841736156 -1.1714079037235461 -1.3422603408979037 -1.1604010344550475 -1.1131303354031168 -1.1222453454109698 -1.3631988380232041 -1.1804385432006395 -1.2262435644375711 -1.3970856076003901 -1.2745474593384651 -1.2970767889206036 -1.3174514252369043 -1.2970767889206036 -1.2970767889206036 -1.1433781241188232 -1.2358840486458431
leaf_weight=258.0953573435545 117.3313969373703 156.4418625831604 844.41518284380436 78.895249664783478 29.670008420944214 223.53654071688652 909.14974667131901 390.76749727129936 761.47402293980122 92.887355908751488 1474.9028617888689 108.90241727232933 339.51930090785027 521.75384126603603 623.07017683982849 988.38215552270412 315.91815784573555 97.439004927873611 850.14688901603222 19.723812416195869 800.92164777219296 72.489225119352341 191.00067920982838 445.8930242806673 322.32418239116669 229.77398566901684 12.306310310959814 90.021502822637558 41.133420765399933 175.15419743955135 38.773306459188461 36.24461255967617 119.18577246367931 195.04658944904804 21.578187942504883 237.02290818095207 21.409608349204063 17.026538923382759 782.209312915802 658.30331183969975
leaf_count=1531 696 928 5009 468 176 1326 5393 2318 4517 551 8749 646 2014 3095 3696 5863 1874 578 5043 117 4751 430 1133 2645 1912 1363 73 534 244 1039 230 215 707 1157 128 1406 127 101 4640 3905
internal_value=-1.2981 -1.25448 -1.32826 -1.35852 -1.30395 -1.22001 -1.3016 -1.30614 -1.32077 -1.26586 -1.39075 -1.19006 -1.23242 -1.25957 -1.33849 -1.30656 -1.35065 -1.35971 -1.26692 -1.27783 -1.22186 -1.23058 -1.2127 -1.3025 -1.19305 -1.31035 -1.31375 -1.18595 -1.23659 -1.32812 -1.28523 -1.32463 -1.32879 -1.32017 -1.16532 -1.28075 -1.16223 -1.18009 -1.14731 -1.24612
internal_weight=13710.2 5584.7 8125.54 3777.53 2280.88 3303.82 4348 1458.21 3009.48 751.528 2319.32 1993.12 728.264 1338.52 1552.62 2248.01 706.686 950.283 1310.71 359.243 909.824 446.399 373.91 602.335 369.021 327.213 305.129 281.022 816.768 292.823 117.669 1338.86 1302.61 1183.43 1083.29 1087.17 1061.71 339.351 803.619 775.635
internal_count=81328 33128 48200 22408 13530 19598 25792 8650 17852 4458 13758 11823 4320 7940 9210 13335 4192 5637 7775 2131 5397 2648 2218 3573 2189 1941 1810 1667 4845 1737 698 7942 7727 7020 6426 6449 6298 2013 4767 4601
is_linear=0
shrinkage=1


Tree=1
num_leaves=41
num_cat=0
split_feature=6 55 5 35 35 276 35 276 55 55 205 163 162 161 158 275 204 214 160 46 270 214 55 159 61 158 214 161 4 214 160 154 157 153 152 46 275 154 93 214
split_gain=808.37 561.2 528.445 158.966 158.795 154.078 147.804 144.919 124.243 110.313 91.3974 105.782 82.508 118.155 82.2437 71.2027 59.8478 58.9208 60.7556 56.5711 52.1469 49.3797 45.9889 40.0783 39.78 55.9661 36.4546 36.0511 33.5817 33.5583 40.8528 41.7969 39.0424 38.6155 33.273 39.1875 32.6357 29.8209 29.6922 28.9664
threshold=-0.37940952255126009 -1.0541010915998308 0.91597561503675362 1.3146813500000005 1.4429894000000003 0.00065585188012960011 1.4405210000000002 0.00066624703181835017 -3.3434114304309115 2.613687465390941 0.00017174637536210001 1.2963901857505897 1.236675580271821 0.00035689218157050005 50.011775060794129 0.00067506930556945021 -0.00016581450296849996 0.034974026411073757 10.314102682346379 -2.584999999999393e-05 1.0000000180025095e-35 0.038965727817910356 -2.6280916777702532 -0.00013757399268294997 96.500000000000014 50.102622110262452 0.034974026411073757 0.00039255176599920004 190.50000000000003 0.019387270103033805 9.9718676679141858 12.613717670920325 -4.4421451015838604e-07 0.00028234242739170009 52.528949104682368 -9.762500000010109e-05 0.00061322640782265003 6.2633129838263999 73483.500000000015 0.066586178942916963
decision_type=2 2 2 2 2 2 2 2 2 2 2 2 2 2 2 2 2 2 2 2 2 2 2 2 2 2 2 2 2 2 2 2 2 2 2 2 2 2 2 2
left_child=1 4 8 10 5 22 21 9 26 20 11 12 13 -4 23 28 -7 -17 -19 -16 34 29 -1 -14 39 -26 36 -8 -10 30 32 -32 -5 -31 35 -3 -2 -29 -15 -23
right_child=2 7 3 6 -6 16 27 -9 15 -11 -12 -13 14 38 19 17 -18 18 -20 -21 -22 24 -24 -25 25 -27 -28 37 -30 33 31 -33 -34 -35 -36 -37 -38 -39 -40 -41
leaf_value=0.098939766436944077 0.014877652152346479 -0.012602590246562604 0 -0.016307651268003903 0.28425122295490179 0.060105403638212318 0 -0.039535301432111279 -0.067796927463853324 -0.042695210558668768 -0.080238624324507984 0.18274472478505335 0.036513912438227637 0 -0.039808506774940564 -0.11037677716244924 0.0081251758976834468 0 -0.083954683626080204 0.084471010642558533 -0.068025984395892025 0.0007916015695298217 0.054719150093457916 -0.053939743771274723 -0.0020313357900202619 0.19066761476182958 0.024513472080669483 0 -0.014037514647306534 -0.094740599271927101 -0.088034777999551644 0.10944523936032494 0.15816932105586842 0.046418461691334199 0.0085456205578822823 0.058547151814443879 -0.056319781622436643 0.28091165271126495 0.24148749494993688 -0.063733499419835415
leaf_weight=1338.703379124403 119.29118058085442 120.57526250183582 72.727603867650032 20.9366365224123 50.399634078145027 647.54243054986 17.084445908665657 1504.7057488411665 552.13258288800716 463.14914062619209 70.453779086470604 110.04766498506069 106.40905100107193 3.8782464265823355 56.684139654040337 1328.8567393273115 1105.2652388513088 232.21275410056114 455.87596723437309 344.58106359839439 76.519811570644379 338.28418286144733 903.6256341189146 235.18120060861111 37.479248449206352 33.108748868107796 233.66432744264603 5.5248037576675406 434.32544356584549 337.17559751868248 101.71036806702614 9.6163501590490323 32.845626249909401 19.344803422689438 679.8810121268034 902.77371740341187 361.54579542577267 30.37692303955555 83.568450123071671 152.16548334062099
leaf_count=7439 710 708 420 127 288 3762 97 9109 3374 2800 417 625 624 23 334 8367 6478 1436 2850 1938 451 2029 5174 1374 225 198 1393 32 2643 2066 618 58 198 118 3979 5283 2230 173 475 905
internal_value=0.000606172 0.0285632 -0.0358619 0.0144636 0.0625442 0.0588332 -0.0190749 -0.00783309 -0.0662124 0.0129293 0.0506751 0.0616304 0.0439025 0.128926 0.0226113 -0.0780323 0.0282575 -0.0929298 -0.0564541 0.0633033 0.0282601 -0.0311354 0.0819648 -0.0218696 -0.0014821 0.0826705 -0.0144099 0.176815 -0.0457452 -0.0600611 -0.00220222 -0.0536931 0.0764483 -0.0826465 0.033654 0.048877 -0.0360627 0.23961 0.224922 -0.0173741
internal_weight=13730.2 7793.14 5937.09 2219.18 4045.54 3995.14 1135.65 3747.6 3717.9 2242.9 1083.53 1013.08 903.03 160.174 742.855 3003.4 1752.81 2016.95 688.089 401.265 1779.75 1082.67 2242.33 341.59 561.038 70.588 714.501 52.9862 986.458 521.629 165.109 111.327 53.7823 356.52 1703.23 1023.35 480.837 35.9017 87.4467 490.45
internal_count=81548 45471 36077 13074 23141 22853 6844 22330 23003 13221 6230 5813 5188 918 4270 18670 10240 12653 4286 2272 10421 6542 12613 1998 3357 423 4333 302 6017 3185 1001 676 325 2184 9970 5991 2940 205 498 2934
is_linear=0
shrinkage=0.13163


Tree=2
num_leaves=41
num_cat=0
split_feature=55 6 276 5 6 35 276 6 55 55 214 5 94 161 46 162 159 17 179 275 276 6 46 46 5 158 48 3 38 28 93 57 160 63 276 44 214 62 160 162
split_gain=634.544 359.213 260.013 225.962 173.697 141.988 129.029 99.7538 94.2617 88.4256 76.1486 64.5914 47.3962 46.3698 45.9525 40.1209 35.7042 47.8974 35.0091 34.9201 34.0697 33.7171 32.9639 39.5782 56.093 32.3668 32.1614 31.7158 29.2326 26.3153 25.8482 24.7801 27.4266 28.4813 24.5175 23.1978 35.8613 22.2143 26.7379 25.8599
threshold=-1.0813450139670449 -0.37940952255126009 0.00065957911620725008 0.78656609248549325 0.37940952255126043 1.4405210000000002 0.00051330311401235013 -0.37940952255126009 2.0459010212934481 -3.5631135783488594 0.034974026411073757 -0.3794095225512602 -162.49999999999997 0.00024250125533470003 1.779999999984572e-05 1.236675580271821 1.9754559047217005e-05 1.2630647500000003 0.00040999999999985005 0.00067273511113245018 0.0012965923133886003 -0.37940952255126009 -8.215000000000304e-05 1.3850000000092956e-05 0.60355339059327384 54.618850827870588 -7.1749999999703987e-06 1.3488150000000003 1.982606996706218e-05 -0.00014760000000009997 538220.00000000012 2.7405639443773717 10.191323198936269 28.826390284971421 0.0012295835649416002 1.2717014250000003 0.0076208092277107514 58.500000000000007 10.604574290282775 1.238276112776856
decision_type=2 2 2 2 2 2 2 2 2 2 2 2 2 2 2 2 2 2 2 2 2 2 2 2 2 2 2 2 2 2 2 2 2 2 2 2 2 2 2 2
left_child=1 5 4 10 8 6 11 28 13 20 19 -1 -11 21 37 29 17 -17 -18 26 -8 -2 -13 -24 -25 -16 -3 -23 -4 -15 34 -12 33 -33 -30 -14 -37 38 -5 -40
right_child=2 3 7 14 -6 -7 9 -9 -10 12 31 22 35 15 25 16 18 -19 -20 -21 -22 27 23 24 -26 -27 -28 -29 30 -31 -32 32 -34 -35 -36 36 -38 -39 39 -41
leaf_value=0.13512568969603767 0.010351577402305934 0.031444582495691084 -0.047622163333125127 0.031953812250996229 -0.061047575317722792 0.21711081735938018 0.065988775805651378 -0.096241553815099454 -0.031095689653751767 -0.00057921478938980384 -0.039059905649002052 0 0 0 0.071739163962880756 -0.073407781643486658 0.059105223327274345 0.017461494048714176 -0.0045297463375153181 -0.083057084902897232 -0.018981534032704979 0 0.10305612591324226 0 0.092265952473253934 0 -0.055873093594491954 -0.083149356625324133 0.065191974616837733 0.15080319923660918 -0.045596176887704079 0.13269736561381998 -0.00014841353698310958 0 -0.046564162177889758 0.17132522978753756 0.035962184924495703 0.13651412324540479 0.072126100516515676 -0.035203122671826084
leaf_weight=343.17548604309559 656.18016119301319 98.863706052303314 1244.0870938748121 258.8481676876545 875.6342618316412 85.731980219483376 1042.9504549205303 968.67777566611767 944.58800187706947 1264.4237594455481 182.39994065463543 127.66153931617737 129.22458364069462 15.416422083973883 490.82792639732361 106.66798909008503 606.12770231068134 711.28861692547798 148.5420864969492 676.65325857698917 60.168078050017357 150.66636875271797 405.18719051778316 264.77028185129166 185.21875536441803 119.75582164525986 166.79810991883278 148.5315226316452 122.24071775376797 69.118652984499931 108.86473712325096 54.451399862766266 203.52499760687351 36.057192221283913 25.521916314959526 52.055485397577286 189.41853100061417 12.914261758327482 29.17186738550663 349.0118573307991
leaf_count=1845 3765 605 7724 1529 5619 442 5723 6385 5763 7240 1124 689 739 87 2829 633 3503 4195 860 4459 345 888 2181 1424 994 699 1020 958 741 380 662 318 1252 211 161 296 1061 71 162 2088
internal_value=0 0.0283734 -0.0281852 -0.0087756 -0.00873756 0.0526373 0.0484093 -0.0624254 0.00389042 0.0311613 -0.0450565 0.0826373 0.0106557 0.0170923 0.0310687 0.0304721 0.0243122 0.00342091 0.0449744 -0.0665972 0.0600829 -0.00483833 0.0620151 0.0712444 0.0384152 0.0569634 -0.0186953 -0.0417253 -0.0393268 0.118592 0 0 0.021379 0.0787489 0.0361456 0.0515487 0.0750995 0.00436221 0 -0.0221919
internal_weight=13731.4 6829.26 6902.15 2679.28 4432.76 4149.99 4064.25 2469.39 3557.13 2738.24 1418.75 1326.01 1635.12 2612.54 1260.53 1657.16 1572.63 817.957 754.67 942.315 1103.12 955.378 982.838 855.176 449.989 610.584 265.662 299.198 1500.71 84.5351 256.627 476.434 294.034 90.5086 147.763 370.699 241.474 649.946 637.032 378.184
internal_count=81670 39346 42324 16367 26651 22979 22537 15673 21032 15404 8989 7133 9336 15269 7378 9658 9191 4828 4363 6084 6068 5611 5288 4599 2418 3528 1625 1846 9288 467 1564 2905 1781 529 902 2096 1357 3850 3779 2250
is_linear=0
shrinkage=0.13163


Tree=3
num_leaves=41
num_cat=0
split_feature=6 5 55 276 163 275 163 161 214 55 205 205 214 93 44 160 96 160 71 26 161 276 55 54 158 93 159 160 214 158 46 153 44 152 161 160 214 157 45 161
split_gain=488.224 383.87 263.551 150.882 110.719 104.733 91.7717 93.0912 76.9498 68.1359 67.9564 67.3283 63.4715 86.8122 98.5573 57.9885 56.766 55.2855 55.1966 51.0991 49.5406 47.0787 43.9562 56.3154 39.3196 37.8158 49.6043 55.5444 40.6826 37.2258 38.594 36.0094 35.1045 34.7225 41.9542 33.1781 41.563 37.2514 32.7608 32.7531
threshold=-0.37940952255126009 0.91597561503675362 0.028731759947460103 0.00057538459202155013 1.3270374461430301 0.00069836929362425014 1.3835510175194783 0.00039060449818025005 0.03465283273582561 -5.1194050931481252 0.00017571563840825002 0.00012319400442035002 -0.0011081552708393499 75106.000000000015 1.2410164250000002 10.191323198936269 -148.74999999999997 12.079018250421287 39.500000000000007 1.2484639000000002 0.00029986327208245009 0.0012707485376291002 -4.7170987271283407 -5.9645053444186571 51.626514856924651 244018.50000000003 0.00013076698821355001 12.214396728675188 0.069714696232589871 53.567277353428203 -0.00012529999999969998 6.6334374438257112e-05 1.4415542000000001 56.897755502379177 0.00036362338113320002 10.730694991137605 0.044678339835585258 -1.0435369725666746e-07 0.097361864843654902 0.00079250719024550004
decision_type=2 2 2 2 2 2 2 2 2 2 2 2 2 2 2 2 2 2 2 2 2 2 2 2 2 2 2 2 2 2 2 2 2 2 2 2 2 2 2 2
left_child=2 5 3 22 10 16 35 31 -7 -5 12 20 13 -3 18 -10 -2 29 -15 -16 -4 25 -1 -24 -9 26 27 -11 -27 30 -14 -8 -13 34 -25 36 37 -6 -19 -23
right_child=1 4 11 9 6 8 7 24 15 21 -12 32 17 14 19 -17 -18 38 -20 -21 -22 39 23 33 -26 28 -28 -29 -30 -31 -32 -33 -34 -35 -36 -37 -38 -39 -40 -41
leaf_value=0.10064761946794983 0.02548914568163874 -0.062940718462228804 -0.0040844322756798633 0.064547528261869574 -0.085792105002750696 -0.095200068702043089 -0.064299452662966106 0.16244427520055682 0.0095386689819673218 0 -0.078915482935295739 -0.031214893057449376 0 0.15695665816110185 -0.090344338131327459 -0.06316843089801899 -0.040317578254691851 -0.065801466919245669 -0.029307065408483397 0.02971486161728459 0.063682308214797742 -0.069615400493848595 0 0.056213883466927426 0 -0.0098809683403990115 0.10388249091437486 0.079371311670577108 0.060282498171068614 0 0.14442135696398345 0.037451431356589356 0.086349946685727846 0.014171580142075009 0.12493738901990682 -0.073897278183552656 0.082261491540711593 0.0043435919955462981 0.076158212413602697 0.076612160481537947
leaf_weight=474.6006710678339 258.87286338210106 149.2330523878336 511.6867078691721 436.11094541847706 125.02147091925144 1365.4926647245884 115.81301034986973 92.950118154287338 242.7168792784214 685.92662484943867 64.433829009532928 1762.6116857379675 17.351741343736649 146.76860821247101 63.222268298268318 548.29873916506767 1032.7854815125465 52.159070953726768 17.192168578505516 357.74504798650742 260.43834108114243 191.09035712480545 297.98947210609913 1109.449628457427 26.684785768389702 1161.221821859479 143.73396323621273 191.77833904325962 154.18052406609058 49.147126421332359 261.85904268920422 95.63807637989521 31.674439251422882 303.25395068526268 235.65612073242664 374.83318784832954 52.639998465776443 134.44690054655075 44.238348752260208 15.451089128851889
leaf_count=2404 1546 870 2995 2313 795 9620 691 534 1502 3941 406 10895 101 756 363 3642 6650 306 96 2025 1513 1165 1582 5933 146 6691 823 1108 848 266 1425 572 195 1634 1258 2352 313 842 233 87
internal_value=-0.000394499 -0.0299136 0.0205339 0.037085 0.0119984 -0.057494 -0.0191485 0.0350105 -0.0755533 0.0165794 0.0389206 -0.0137997 0.0471007 0.0208838 0.0450372 -0.0393766 -0.026055 0.0881458 0.129451 0.00725749 0.0175575 0.00766227 0.0616447 0.0510809 0.124773 0.0134795 0.0324012 0.0183619 -0.000349957 0.113305 0.131432 -0.0127278 -0.0280294 0.06056 0.0699103 -0.0472179 -0.0100462 -0.0355927 0 -0.050094
internal_weight=13656.4 5689.54 7966.85 5400.44 2241.38 3448.17 1018.03 331.086 2156.51 2979.49 1223.35 2566.41 1158.92 734.161 584.928 791.016 1291.66 424.755 163.961 420.967 772.125 2543.38 2420.95 1946.35 119.635 2336.84 1021.44 877.705 1315.4 328.358 279.211 211.451 1794.29 1648.36 1345.11 686.942 312.108 259.468 96.3974 206.541
internal_count=81437 36052 45385 29787 13092 22960 6245 1943 14764 16976 6847 15598 6441 4110 3240 5144 8196 2331 852 2388 4508 14663 12811 10407 680 13411 5872 5049 7539 1792 1526 1263 11090 8825 7191 4302 1950 1637 539 1252
is_linear=0
shrinkage=0.13163


Tree=4
num_leaves=41
num_cat=0
split_feature=55 6 6 204 5 276 3 5 17 161 276 178 275 204 159 159 214 157 61 61 86 159 158 269 17 160 276 71 158 205 161 160 119 2 154 163 274 204 158 93
split_gain=429.319 178.235 156.841 132.455 130.077 111.223 77.2502 73.6035 64.1752 62.874 61.389 59.2921 46.7712 43.3336 36.6921 32.2254 32.6717 31.8511 43.5162 31.7258 30.9113 28.8574 28.6587 28.104 26.5918 26.5007 26.3325 25.6577 25.7558 24.8567 24.7062 24.641 25.3171 22.9279 22.8832 22.4875 31.388 24.5795 24.4053 30.0534
threshold=-1.6362031902897625 -0.12940952255126034 -0.12940952255126034 0.00016065472746520001 0.91597561503675362 0.00055897382878370013 1.4427350000000001 0.78656609248549325 1.3260537500000003 0.0007539818898634501 0.0012965923133886003 0.00015499999999995002 0.00069836929362425014 -0.00014973756605624996 0.00016482988319455004 -0.00016767936487314996 0.033761710300919158 -8.4725694654640901e-07 9.5000000000000018 10.500000000000002 -4.8987692892854533e-05 -9.5687121643413069e-06 47.201681655448262 1.0000000180025095e-35 1.3832512500000003 8.6367779734970735 0.00070559124746800018 25.500000000000004 54.618850827870588 0.00013788171662680002 0.00014488764519850002 10.314102682346379 9.2701030940722809e-05 1.2554150000000002 11.867546250685196 1.4406517960610989 1.3986814074564557 -0.00013285357724584999 50.550935074494546 787555.00000000012
decision_type=2 2 2 2 2 2 2 2 2 2 2 2 2 2 2 2 2 2 2 2 2 2 2 2 2 2 2 2 2 2 2 2 2 2 2 2 2 2 2 2
left_child=2 3 5 6 12 25 11 15 21 10 13 14 -3 20 19 -4 -17 -16 -19 -2 -7 22 29 -22 -10 -1 27 28 -23 -6 -21 32 -9 -11 -15 36 37 -27 39 -38
right_child=1 4 7 -5 8 9 -8 31 24 33 -12 -13 -14 34 17 16 -18 18 -20 30 23 26 -24 -25 -26 35 -28 -29 -30 -31 -32 -33 -34 -35 -36 -37 38 -39 -40 -41
leaf_value=0 0.03557932360013899 -0.044506080910189691 0.040360328584373446 -0.043468570501183808 0.085135620757719216 0.088944375662130037 0.17105508326844629 0.079611544204551354 -0.068852636283133442 0 -0.056387899727184908 -0.020657570961787851 -0.096197697050482714 0.014709062270644486 0 -0.069023698363489136 -0.0046416512248313923 0 0.15342481997965562 0.088927603655919188 0.015671755545187318 0.099788322636269688 -0.047201578137703946 0.10531785520810649 0 0.10142154255108912 -0.052905823654727242 -0.00036626312561102253 0 -0.035800236601417262 -0.0018982529280464646 0 0 0.17129580810750872 -0.02943823827356926 0.16529618692127587 -0.0075240022878516532 0.055638759486108497 -0.032989281872298111 0.10880526167677292
leaf_weight=76.447969928383827 585.2183823287487 727.57449114322662 59.190607503056526 1256.8306106626987 66.387863680720329 225.07126273214817 40.005299538373947 170.78604811429977 307.71185691654682 12.994598045945166 168.83652171492577 1216.6640407294035 821.06231328845024 1105.3703489303589 65.116010338068008 438.49675844609737 264.34341195225716 48.687228187918663 88.340110301971436 44.87812228500843 635.30927611887455 184.64916051924229 157.87125420570374 69.916910111904144 155.14863176643848 428.37255436182022 21.65766952931881 52.615532323718071 33.266612648963928 24.380086049437523 1838.1961558014154 519.58971872925758 97.776804700493813 56.832469791173935 227.92549949884415 51.965117737650871 42.603644490242004 1043.5083236843348 93.971332281827927 62.387065857648849
leaf_count=390 3443 4871 385 8042 380 1234 221 965 2032 72 1062 7453 6096 6261 379 3022 1641 285 493 258 3516 978 925 387 911 2131 131 287 179 153 10875 3031 555 297 1302 243 216 5368 483 318
internal_value=-0.000212263 -0.0206462 0.0265729 -0.00631338 -0.0491361 0.0395448 0.00531687 -0.00861225 -0.0105627 0.0207176 0.0163172 0.0029137 -0.0731138 0.0224976 0.0141665 -0.0381402 -0.0469675 0.0679297 0.102347 0.00902591 0.0444114 0.0184498 -0.0103274 0.0275069 -0.046929 0.0647951 0.0468411 0.0608141 0.080761 0.0393403 0 0.0184159 0.0501679 0.139252 0.00606165 0.0681838 0.063581 0.0703369 0.00654416 0.0531473
internal_weight=13588 7736.26 5851.7 5183.94 2552.33 4301.51 3927.11 1550.18 1003.69 2502.26 2432.43 3887.1 1548.64 2263.59 2670.44 762.031 702.84 202.143 137.027 2468.29 930.297 540.828 248.639 705.226 462.86 1799.26 292.189 270.531 217.916 90.7679 1883.07 788.153 268.563 69.8271 1333.3 1722.81 1670.84 1471.88 198.962 104.991
internal_count=81271 48392 32879 31449 16943 23280 23407 9599 5976 14131 13762 23186 10967 12700 15733 5048 4663 1157 778 14576 5137 3033 1458 3903 2943 9149 1575 1444 1157 533 11133 4551 1520 369 7563 8759 8516 7499 1017 534
is_linear=0
shrinkage=0.13163


Tree=5
num_leaves=41
num_cat=0
split_feature=55 5 6 35 275 55 6 276 275 54 55 54 55 276 93 5 3 35 5 154 6 198 160 150 160 182 62 45 26 159 159 159 214 275 156 271 2 274 161 158
split_gain=318.259 181.981 172.415 116.514 109.257 102.167 75.4742 69.8976 46.941 41.7406 39.8526 48.0282 35.4392 34.3833 40.2019 34.0762 32.7639 39.3166 31.4053 30.3726 29.494 29.4383 28.4896 27.9926 26.0945 25.4987 25.3575 24.1984 23.8444 23.8396 22.1632 22.0171 21.9529 21.5357 20.6447 19.1553 18.6781 18.2409 16.6468 19.569
threshold=-2.1468540904894051 -0.91597561503675329 0.1294095225512604 1.4405210000000002 0.0011940244517151001 2.823926770399487 -0.12940952255126034 0.00066319288810250013 0.00066807711137835011 -3.1974077268549403 -6.5373893155916845 -8.3745457593656791 0.7167876146967701 0.0013270947403188002 538220.00000000012 0.78656609248549325 1.3701450000000002 1.3728059000000004 1.0000000180025095e-35 5.899283087652651 -0.60355339059327384 0.00016191093848600001 12.238833624601151 0.23296043848000086 11.789101905330105 2.1615469583054892 53.500000000000007 -0.23591259311820226 1.4382408000000002 -0.00011632834034314999 -0.00016767936487314996 0.00015917122181725003 0.033761710300919158 0.0012176260361801002 -0.068117870071246187 53.500000000000007 1.2451050000000004 1.4319847966896886 0.00048690260612425002 50.822648415427672
decision_type=2 2 2 2 2 2 2 2 2 2 2 2 2 2 2 2 2 2 2 2 2 2 2 2 2 2 2 2 2 2 2 2 2 2 2 2 2 2 2 2
left_child=4 16 3 5 6 7 10 9 12 -3 25 -12 -4 14 -9 30 -2 -18 -11 -5 29 -13 24 -24 -23 -1 27 -10 -22 -6 -8 -31 -32 34 -21 -36 -14 -19 39 -17
right_child=1 2 8 19 20 -7 15 13 26 18 11 21 36 -15 -16 38 17 37 -20 33 28 22 23 -25 -26 -27 -28 -29 -30 31 32 -33 -34 -35 35 -37 -38 -39 -40 -41
leaf_value=0.10274330473902404 -0.088293549796256185 -0.011015620346150588 0 0 0.067987175483981574 -0.048195625215239755 0.058951443636667399 0.0039903180729102417 0 0.045910408668176778 -0.006800548653209287 0.07049738973127638 0.0099602391416657703 -0.07557891414876737 -0.03961913560360926 -0.005331804212496738 0.1037492836872093 -0.067478444746164004 0.013526960581198146 0 -0.050260834263707047 0.030533222557014877 0.090908084659937174 0 -0.024540590686015024 0 0.016624661834761873 -0.083806422695108129 0.055433587664520265 -0.032436854157894088 -0.053528856690999049 0.043697663419169724 0.00024822479897428681 0 0.21554851284075266 0 -0.061936348590175008 0.0020574371364168497 0.082522799205180797 0.042292666596148457
leaf_weight=327.49135315418243 638.0246497541666 698.08362455666065 565.89786519110203 16.429408386349678 82.576076373457909 693.3002897799015 36.566800460219383 1125.3665094077587 79.496066451072693 824.05348235368729 296.28240968286991 688.13028299808502 36.877954259514809 148.44173048436642 506.42511636018753 292.67230241000652 24.12807796895504 157.21370148658752 1919.5024431347847 20.24478442966938 399.60263483226299 1164.8077835589647 254.61847953498363 79.485381811857224 138.04546117782593 64.001543536782265 28.48923184722662 654.45785174518824 22.381539717316628 210.64325486123562 274.83496341109276 77.988513991236687 160.13407827913761 17.240740597248077 69.543397054076195 8.1108811944723112 378.20548935234547 51.688191741704941 79.11503954231739 231.55171540379524
leaf_count=1613 4984 3921 3655 91 464 4484 227 6983 574 4602 1546 3430 234 997 3179 1693 164 1123 10949 107 2606 6165 1332 418 736 318 193 4730 124 1174 1933 429 986 96 360 44 2539 372 444 1306
internal_value=0 -0.0151919 -0.00858562 0.00174137 0.0268065 -0.000849538 0.0355744 0.00525683 -0.044977 0.016381 0.0462836 0.0392849 -0.023576 -0.0155023 -0.00888966 0.00423727 -0.0721577 -0.021089 0.0238339 0.12051 -0.0166658 0.0457147 0.0342041 0.0702168 0.0235922 0.0881021 -0.0702779 -0.0755422 -0.0406783 0.00752333 -0.0205933 -0.00685955 -0.0311868 0.143921 0.166079 0.195516 -0.052426 -0.0449125 0.0257724 0.0136134
internal_weight=13542.2 8661.22 7790.17 6046.74 4880.93 5915.17 4087.74 5221.87 1743.42 3441.64 3012.86 2621.37 980.981 1780.23 1631.79 1074.87 871.055 233.03 2743.56 131.569 793.192 2325.09 1636.96 334.104 1302.85 391.493 762.443 733.954 421.984 371.208 471.536 288.632 434.969 115.14 97.8991 77.6543 415.083 208.902 603.339 524.224
internal_count=81325 54381 47738 35813 26944 35115 22147 30631 11925 19472 15558 13627 6428 11159 10162 6589 6643 1659 15551 698 4797 12081 8651 1750 6901 1931 5497 5304 2730 2067 3146 1603 2919 607 511 404 2773 1495 3443 2999
is_linear=0
shrinkage=0.13163


Tree=6
num_leaves=41
num_cat=0
split_feature=55 276 5 6 6 35 6 55 54 270 1 5 45 160 46 211 55 93 158 151 8 159 93 61 160 44 214 2 93 93 178 214 204 214 214 68 93 159 160 159
split_gain=266.144 142.277 117.307 89.7234 74.4065 70.2885 61.6615 57.3999 67.9635 55.2414 42.8065 37.9114 32.4792 36.5553 35.9323 32.0021 31.6535 29.0291 35.5218 30.82 28.1364 28.1254 26.6488 25.6324 24.7629 34.7177 42.1722 26.76 21.8126 24.6193 21.3885 20.7184 20.5653 20.4272 40.0088 20.0162 19.5779 44.7558 25.4488 23.7313
threshold=-1.0813450139670449 0.00067282564236455006 -0.91597561503675329 0.37940952255126043 -0.12940952255126034 1.4405210000000002 -0.60355339059327384 -4.866244597613087 -3.3295706201297111 1.0000000180025095e-35 1.3325950000000002 0.78656609248549325 -0.17718073653135033 10.344844864176318 -3.0749999999746251e-05 -0.00051999999999969985 4.1900090829436314 538220.00000000012 51.737920017261963 1.1250095040387287e-06 1.3698866666666667 6.1930879692811446e-05 804404.00000000012 130.50000000000003 12.26231090666194 1.3562311750000002 0.041955913754814354 1.3510250000000001 511639.50000000006 120072.50000000001 0.00018499999999995004 0.016060567299359004 -0.00029701748124454991 0.044678339835585258 0.052438955267667002 82.674831071961989 233960.00000000003 0.00012832426617065003 12.428616814471896 -0.00012137574666329998
decision_type=2 2 2 2 2 2 2 2 2 2 2 2 2 2 2 2 2 2 2 2 2 2 2 2 2 2 2 2 2 2 2 2 2 2 2 2 2 2 2 2
left_child=2 4 20 5 9 7 36 15 30 16 11 23 -5 14 28 32 24 19 -19 -10 -1 -15 -8 -6 -2 27 -27 -26 29 -14 -9 -13 -4 -16 -35 -17 37 38 -3 -38
right_child=1 6 3 12 10 -7 22 8 17 -11 -12 31 13 21 33 35 -18 18 -20 -21 -22 -23 -24 -25 25 26 -28 -29 -30 -31 -32 -33 -34 34 -36 -37 39 -39 -40 -41
leaf_value=-0.048608901957392432 0.0091212332068536534 -0.038904309540784471 0.059362081531044657 0.046953613192774878 -0.065004377834820271 0.12445530466061377 -0.080006828973505348 0.0067446350984490342 0.06073062790560043 -0.067912550973401348 -0.051286633742286779 0 0 -0.072531360259991351 -0.041103213862270255 0.097278612782863622 -0.040070392854807076 0.031883838926040714 -0.028423700774823278 0.019709319970862348 0.003268878963178806 0 -0.0099932006953283841 0.02212289160716199 0.02864961502397094 0.14150115820060993 0.010676838858683447 -0.07544281010533023 0 0.16622089954726077 -0.033277189356086943 0.067454512350841545 0 0.18233298472929002 -0.017589342455224723 0.038323519978653395 0.006172065859921457 0.086380993097992118 0.038102073206262847 -0.050267696638314326
leaf_weight=500.66158075630665 2008.7888248190284 314.50975857675076 157.78511972725391 108.45127084851265 234.31074050813913 133.85063594579697 867.19171865284443 1589.918771147728 947.35905495285988 145.52512652426958 733.36798522621393 486.44062162190676 18.801027797162533 292.54719825088978 164.54747654497623 368.64591033756733 164.65140322595835 474.29367537796497 234.95000815391541 665.289485886693 211.15045072883368 182.71632822602987 157.29451055824757 46.614863879978657 226.81240867078304 103.78379659354687 109.96938811987638 41.00805501639843 16.743417359888554 42.070596359670162 260.72379913926125 87.934978976845741 287.42967419326305 15.546470910310743 27.909937605261803 290.00167489051819 117.24049888551235 73.123959183692932 73.735316127538681 522.74656589329243
leaf_count=3781 11637 2053 775 693 1741 591 6695 8498 5033 920 5193 2934 119 1969 1091 1784 1094 2567 1285 3540 1322 1227 1156 338 1295 599 625 236 105 272 1432 510 1438 91 166 1408 777 459 477 3431
internal_value=0.000119822 -0.0189121 0.0180411 0.0239046 -0.00501535 0.0302847 -0.0468663 0.027457 0.019831 0.00753337 -0.0278689 -0.00598936 -0.0142387 -0.0250587 0.00834555 0.0547528 0.0123553 0.0347973 0.010006 0.0447948 -0.0315671 -0.0476016 -0.0706774 -0.0458575 0.0164619 0.0437621 0.0829658 0.00622067 0.0828349 0.118215 0.000286008 0.0116729 0.0224843 -0.0156169 0.0469855 0.0740688 -0.0231848 0 -0.0205232 -0.0379892
internal_weight=13506.4 6515.05 6991.39 6279.58 4389.21 5410.25 2125.84 5276.4 4172.53 2800.54 1588.67 855.301 869.334 760.882 285.619 1103.86 2655.01 2321.89 709.244 1612.65 711.812 475.264 1024.49 280.926 2490.36 481.574 213.753 267.82 77.615 60.8716 1850.64 574.376 445.215 208.004 43.4564 658.648 1101.36 461.369 388.245 639.987
internal_count=81357 42170 39187 34084 27122 28351 15048 27760 22355 16406 10716 5523 5733 5040 1844 5405 15486 12425 3852 8573 5103 3196 7851 2079 14392 2755 1224 1531 496 391 9930 3444 2213 1348 257 3192 7197 2989 2530 4208
is_linear=0
shrinkage=0.13163


Tree=7
num_leaves=41
num_cat=0
split_feature=55 5 6 270 35 205 159 55 93 46 211 162 160 157 276 160 4 214 44 2 269 204 151 276 157 17 159 6 46 205 178 160 161 55 161 160 94 159 175 93
split_gain=211.025 149.435 134.215 103.791 94.7709 74.0745 67.3055 52.8626 48.09 46.006 44.1155 42.0126 35.56 37.9455 34.9609 30.4841 28.7906 30.391 45.5678 27.9501 26.8204 26.7957 24.8546 24.4482 24.4375 23.5363 22.8333 22.5708 22.2171 20.9182 19.8046 19.233 24.5233 18.8498 17.7773 15.4136 14.8122 14.5429 14.0114 13.2926
threshold=-3.3434114304309115 -0.91597561503675329 0.37940952255126043 1.0000000180025095e-35 1.4405210000000002 0.00013073047145530003 0.00021126083170495001 2.6819099345395867 538220.00000000012 -0.00021247499999984997 -0.00028000000000009994 1.238276112776856 12.484104830145283 -1.2813458837517769e-06 0.00055005943739215005 11.385370151271074 196.50000000000003 0.03791835597065326 1.3947983000000004 1.2451050000000004 1.0000000180025095e-35 -0.00018455005181929998 -1.6840443992457984e-05 0.00079756538640070014 -4.7400693170397526e-07 1.4428367500000003 -0.00023109993092584996 0.60355339059327395 -0.00031582499999989992 0.00019806385958720001 0.00021999999999995003 10.56047212646763 0.00021176453838920003 -6.3657806466539091 0.00066785094424260012 8.7712452262716294 -520.49999999999989 0.00016482988319455004 0.00033350000000005006 239579.00000000003
decision_type=2 2 2 2 2 2 2 2 2 2 2 2 2 2 2 2 2 2 2 2 2 2 2 2 2 2 2 2 2 2 2 2 2 2 2 2 2 2 2 2
left_child=10 23 3 4 5 6 11 8 -7 15 20 -3 13 -6 16 26 19 -18 -19 -11 33 -12 -16 29 -8 -15 28 30 -4 -2 -23 32 -31 -1 -25 -24 -14 -21 -35 -34
right_child=1 2 9 -5 12 7 24 -9 -10 14 21 -13 36 25 22 -17 17 18 -20 37 -22 27 35 34 -26 -27 -28 -29 -30 31 -32 -33 39 38 -36 -37 -38 -39 -40 -41
leaf_value=0.033271129693411991 -0.047055394356799701 0.080243236817888267 0 -0.072647738398668324 -0.051210933416710069 0.0069093309102055229 0 -0.055214159057293571 -0.025104975789268638 0.036260343414040434 0.088682339207361377 0.010069700106503881 0 0 0.0042246835094566859 0 -0.026361421295182551 0.12280412158024719 -0.019269564379317539 -0.065217758360862951 0.075426114812030529 0.050943254852477096 0 -0.079095652681138537 0.1456398455362021 0.1276943451142816 0 -0.0078847236244317959 0.24716793032122999 0 0 -0.02173588303606792 0 0.014228630714289037 0 -0.094320300660354781 0.21481096605761538 0 -0.014781814035182736 0.15923624763308855
leaf_weight=419.28040347248316 262.15689482539892 154.90739926695824 3.1791106909513536 289.39521849900484 32.210279643535614 2560.9599669277668 39.547061465680599 366.51757503300905 1165.1169743686914 37.587756395339966 279.52327705919743 3171.4549234211445 8.062444254755972 31.736268371343613 27.018679834902287 35.340076774358749 256.30003253370523 65.162696689367294 52.428868249058723 449.08542262017727 117.91951087117195 839.69241093099117 22.598833277821541 586.75514835864305 89.796369656920433 65.200675308704376 7.9407435730099669 120.77600792050362 16.586502000689507 22.32232254743576 112.81259516626596 74.57323943823576 5.2771342620253554 613.46080315113068 23.296936228871346 378.61634908616543 45.190057590603828 40.052507162094116 526.4535311087966 29.575723856687546
leaf_count=2135 2028 789 23 1846 166 15061 208 2557 7049 263 1428 17778 41 157 212 261 1760 450 366 3254 607 4281 180 4934 467 308 56 800 115 172 595 603 44 3298 184 3155 217 296 2910 208
internal_value=0.00033851 -0.00846161 -0.00314437 0.00326856 0.00635331 0.00385461 0.0181376 -0.00790297 -0.00278924 -0.0408162 0.0309557 0.0139194 0.0982567 0.0419062 -0.0466611 0.0552856 -0.0291284 0 0.0521451 -0.048718 0.0154213 0.0490505 -0.079303 -0.0565933 0.109763 0.0867334 0.143775 0.0369248 0.201339 -0.024958 0.0439708 0.00997627 0.0685264 0.00967839 -0.074313 -0.0880542 0.189601 -0.0583483 0 0.130153
internal_weight=13445.9 10416 9411.99 8020.1 7730.7 7548.3 3455.71 4092.59 3726.08 1391.9 3029.92 3326.36 182.4 129.147 1328.85 63.0464 900.617 373.892 117.592 526.726 1677.11 1352.8 428.234 1003.96 129.343 96.9369 27.7064 1073.28 19.7656 393.905 952.505 131.748 57.1752 1559.19 610.052 401.215 53.2525 489.138 1139.91 34.8529
internal_count=81262 65208 57035 46644 44798 43909 19242 24667 22110 10391 16054 18567 889 631 9936 455 6389 2576 816 3813 8950 7104 3547 8173 675 465 194 5676 138 3055 4876 1027 424 8343 5118 3335 258 3550 6208 252
is_linear=0
shrinkage=0.13163


Tree=8
num_leaves=41
num_cat=0
split_feature=55 275 6 160 178 151 198 160 44 159 204 93 44 160 161 93 146 154 274 159 6 62 206 159 5 162 160 93 160 95 45 160 68 175 93 0 161 160 192 275
split_gain=220.693 128.835 85.1929 57.7535 56.6889 52.0038 45.8952 42.8563 63.5798 42.7164 42.6595 42.3512 44.6446 42.9958 41.9062 53.2726 64.7296 40.7824 39.7769 36.742 36.3991 34.5382 34.5284 31.615 31.4757 29.857 38.3108 29.7971 29.7797 29.0875 28.709 28.0507 26.7875 26.0366 25.666 25.2582 24.8195 24.3891 22.7365 22.5568
threshold=-0.055869313878176244 0.0012630723101879004 -0.12940952255126034 12.320093805601527 0.00014999999999990002 -6.0428525694271778e-06 0.00014990230651365003 10.344844864176318 1.2410164250000002 -0.00012818434778099998 -0.00032040145539434994 267945.50000000006 1.4378146500000002 14.155755640732698 0.00025396144513135005 464150.50000000006 55.863465624399417 11.031155108732426 1.4464633943827088 -7.016084451610793e-05 -0.37940952255126009 58.500000000000007 9.4592058593107137e-05 -7.4546687428956521e-06 0.60355339059327384 1.236675580271821 10.161376229783249 871478.00000000012 9.7794069060583304 -0.00020694741280739997 -0.070347158159375547 9.5037421318443283 111.8834652105205 -0.00024624999999994991 116371.50000000001 1.4288950000000002 0.00025396144513135005 13.539842216270197 0.00060391227044755017 0.00067038636217715006
decision_type=2 2 2 2 2 2 2 2 2 2 2 2 2 2 2 2 2 2 2 2 2 2 2 2 2 2 2 2 2 2 2 2 2 2 2 2 2 2 2 2
left_child=1 2 3 6 20 37 22 14 -9 27 -8 13 19 17 39 23 35 -7 -11 -13 29 33 38 28 31 34 36 -3 -16 -2 -26 -12 -24 -10 -22 -17 -27 -5 -1 -4
right_child=4 9 7 5 -6 11 10 8 21 18 24 12 -14 -15 15 16 -18 -19 -20 -21 25 -23 32 -25 30 26 -28 -29 -30 -31 -32 -33 -34 -35 -36 -37 -38 -39 -40 -41
leaf_value=-0.011440016652845152 -0.017559429650535977 0 0.015666485134494583 0.1342651798711092 -0.046650099750319703 0.12291282560424549 0.0634024238629389 0.071426565954442356 0 -0.047660289121531849 0.029889964752502492 -0.070223959306520187 0.13465379417939324 -0.031560731002097726 0.12724499946494314 0.18360641210939632 -0.0095433685153629624 0 0.10249622729793327 0.015501832348177437 0 0.062303003459224154 0.091618761711353275 -0.041359194324794471 -0.0018738502536711228 -0.024923460473646235 -0.048518693190173739 0.15073737987323318 0 0.017220271439202465 0.060578159248843785 -0.0041450051409834933 0 -0.044109462076279714 0.11676462823465884 0 0.038688200987320689 0.028968623924938961 0.039476423624719821 -0.043233680765238855
leaf_weight=191.47109992802143 815.68629784882069 216.93501592427492 283.63724703341722 188.26672257483006 1357.8453217968345 193.05880184471607 256.89960639178753 109.68619528412819 305.22290702909231 885.90715350955725 498.77543472498655 102.72277185320854 35.864835120737553 35.770222276449203 45.905034884810448 95.843189172446728 35.491650603711605 61.925520814955235 18.738494299352169 364.7601341381669 82.669930636882782 53.356617584824562 330.20141512900591 99.360964842140675 144.56467686593533 280.46372585743666 963.64445834606886 17.383154951035976 39.665471062064171 834.27813474833965 322.02639758586884 2294.3781908452511 86.309139654040337 898.53012286871672 31.885427825152874 13.700042620301245 159.01005230844021 98.565673425793648 382.01402667164803 165.52721568197012
leaf_count=972 5056 1403 1719 984 9449 988 1295 649 2061 6004 2710 544 166 185 275 568 225 319 90 1894 513 320 1622 625 749 2007 6953 101 253 5025 1628 12516 422 5980 193 85 1088 509 1934 1175
internal_value=-9.44869e-05 0.011872 0.018066 0.026647 -0.0238189 0.0545739 0.0195732 -0.00369421 -0.0182032 -0.0288828 0.011962 0.0340917 0.00770385 0.0739528 0.0200398 0.0553428 0.113001 0.0941965 -0.042219 -0.00152774 -0.0135276 -0.0274676 0.0449866 0.0004907 0.0073598 -0.0281799 -0.0339245 0.0169594 0.062189 0 0.0388172 0.00154283 0.0748114 -0.0329176 0.0291799 0.16151 0 0.104315 0.0203362 -0.00361085
internal_weight=13397.9 8872.47 7733.5 5587.57 4525.48 1080.93 4506.64 2145.93 1366.8 1138.96 3516.64 794.102 503.348 290.755 779.131 329.966 145.035 254.984 904.646 467.483 3167.64 1257.11 989.996 184.931 3259.74 1517.67 1403.12 234.318 85.5705 1649.96 466.591 2793.15 416.511 1203.75 114.555 109.543 439.474 286.832 573.485 449.164
internal_count=81254 50970 43372 29437 30284 5589 23848 13935 9010 7598 18898 4096 2604 1492 4925 2031 878 1307 6094 2438 20835 8361 4950 1153 17603 10754 10048 1504 528 10081 2377 15226 2044 8041 706 653 3095 1493 2906 2894
is_linear=0
shrinkage=0.13163


Tree=9
num_leaves=41
num_cat=0
split_feature=204 270 5 275 6 6 124 35 269 124 6 124 205 93 159 154 159 93 93 26 178 152 35 45 214 204 275 271 134 45 69 37 93 204 179 17 205 214 6 90
split_gain=174.584 88.1642 82.7927 75.552 61.6608 60.1498 56.9865 54.2471 53.8142 39.3831 37.6776 31.6903 31.1272 30.8896 23.3311 22.5296 22.4676 26.1286 22.3622 21.9125 21.4188 19.5249 21.9796 17.7367 20.1584 16.607 16.2919 20.7487 17.0045 15.8267 15.0743 14.7649 13.8007 13.6404 17.5682 13.4224 16.5176 13.2858 13.2473 13.0535
threshold=-3.268378558906394e-05 1.0000000180025095e-35 -0.91597561503675329 0.0011802323797724503 -0.12940952255126034 0.60355339059327395 -0.00015068174996684996 1.4405210000000002 1.0000000180025095e-35 7.9139907495361788e-06 0.37940952255126043 0.00013314052614335001 0.00031855979998555002 177095.00000000003 -0.00017138544975489999 6.4464661970868109 -0.00014587660994789996 454967.50000000006 807895.00000000012 1.2432395000000003 0.00021499999999990003 56.105046815776056 1.3876460000000004 -0.19227077513146959 0.025543591626892653 0.00011057755461525 0.00067273511113245018 37.500000000000007 -0.00070412504863639992 -0.35380206154670574 13.519688847172784 0.00011750000000005002 105562.00000000001 -0.00023479147836329999 0.00034999999999990003 1.3708855000000002 0.00014261102296605002 0.022067303986011803 0.1294095225512604 -1.5096885478627349
decision_type=2 2 2 2 2 2 2 2 2 2 2 2 2 2 2 2 2 2 2 2 2 2 2 2 2 2 2 2 2 2 2 2 2 2 2 2 2 2 2 2
left_child=3 2 35 6 16 7 -1 9 10 12 11 20 13 -4 -7 -9 17 -5 -6 -19 39 22 32 -12 -25 31 27 -16 -28 -17 -21 -11 -18 -13 -35 36 -2 -29 -31 -8
right_child=1 -3 5 4 18 14 8 15 -10 25 23 33 -14 -15 26 29 21 19 -20 30 -22 -23 -24 24 -26 -27 28 37 -30 38 -32 -33 -34 34 -36 -37 -38 -39 -40 -41
leaf_value=0.095251162141970158 0 -0.077117395393322005 0.024680447471001017 -0.0057449235614384728 -0.10079003926954612 0.021403420354943456 -0.001061376000750883 0 0.074920845466114078 -0.020367850862192595 0.042550181568460514 0.025868254230059316 -0.051615983849627761 -0.0008253306644179499 -0.046523688312607434 0 0 0 0 0 0 0.025765970488414645 0.045314486137810465 -0.047167687455204554 0.00039248137597873553 -0.057193164792543258 0 -0.011072683170878275 -0.088743336766895498 0.12563708614238195 0.13207964002949385 0.014862498827004543 -0.049233529537986209 0.01586905156853563 -0.014812503876182263 -0.013287480640909073 -0.076441622671510431 0.069321504015219512 0 0.040484438020551947
leaf_weight=187.89980353415012 44.243750810623169 356.30546043068171 1086.3354288265109 54.776128754019737 158.42735034972429 55.79907001554966 76.66718428581953 23.104597128927708 299.14525132626295 1178.5677443966269 61.024370655417442 485.57669954001904 159.64019702374935 2959.3435798585415 258.74681244790554 7.6997989043593398 99.850065350532532 12.179354928433893 45.922441124916077 5.7474036812782279 250.83672173321247 160.588871948421 46.376432821154594 280.42842748761177 221.93433255702257 207.64410835504532 11.264021404087542 49.150831714272499 237.15921752154827 104.26267440617085 73.375524163246155 199.5714372843504 316.49537996947765 621.05955371260643 656.45338407158852 174.25688687711954 411.40189546346664 43.945978030562401 12.088158324360846 1659.9834264144301
leaf_count=954 360 2534 6339 335 1329 406 395 125 1588 7101 391 2493 1108 17342 1906 43 621 76 314 35 1336 985 265 2052 1509 1416 92 366 2097 488 421 1188 2038 3427 3737 1313 3771 327 75 8530
internal_value=-0.000193803 -0.0134185 -0.0100121 0.0169371 -0.0156004 -0.00540554 0.0238208 -0.000978196 0.0204636 -0.00324838 0.01625 0.021156 0.00315885 0.00574163 -0.0430142 0.0753995 8.212e-05 0.0465863 -0.0783893 0.0887794 0.0327237 -0.00924591 -0.0243831 -0.0139808 -0.0239658 -0.0209773 -0.0513385 -0.0261955 -0.0798927 0.0981003 0.115394 -0.0142748 -0.0359329 0.00729291 0 -0.0555061 -0.0683337 0.0167447 0.111425 0.0379135
internal_weight=13355.3 7580.53 7224.23 5774.75 973.739 6594.32 4801.01 5938.26 4613.11 5791.1 4313.96 3750.58 4205.32 4045.68 656.066 147.155 769.389 146.078 204.35 91.3023 1987.49 623.311 462.722 563.387 502.363 1585.78 600.267 351.844 248.423 124.051 79.1229 1378.14 416.345 1763.09 1277.51 629.903 455.646 93.0968 116.351 1736.65
internal_count=81228 48397 45863 32831 6419 40419 26412 35225 25458 34494 23870 19918 24789 23681 5194 731 4776 867 1643 532 10261 3909 2924 3952 3561 9705 4788 2599 2189 606 456 8289 2659 9657 7164 5444 4131 693 563 8925
is_linear=0
shrinkage=0.13163


Tree=10
num_leaves=41
num_cat=0
split_feature=55 276 6 204 159 211 276 161 93 61 160 61 160 161 6 6 155 83 276 200 157 55 35 178 198 47 93 213 158 93 4 93 150 161 161 152 276 147 179 205
split_gain=158.769 104.299 92.7122 67.3869 51.6571 46.3999 43.0789 39.1445 38.387 37.9563 39.292 32.4998 32.0286 37.7097 30.6903 30.2216 28.0834 26.1581 25.3479 23.7349 22.3991 22.0699 20.5804 20.3377 19.5218 19.4744 21.2626 19.0436 18.0796 18.0389 17.0945 16.6368 16.5376 16.5115 16.431 21.0147 16.1715 15.2571 15.0239 14.8803
threshold=0.81712195227749096 0.00066624703181835017 -0.12940952255126034 -0.00013001790536774997 -0.00013505774599924998 -0.00014999999999989997 0.0012965923133886003 0.00049128076190030009 865645.50000000012 53.500000000000007 12.595016997027132 55.500000000000007 13.337874490187337 0.00023105601255540004 -0.37940952255126009 0.1294095225512604 0.00025014108637175003 -2.8039522539539975e-05 0.00084410020564990018 -0.43024883543751352 -1.2562269290970605e-06 4.1900090829436314 1.4405210000000002 7.9999999999968998e-05 0.00028336797073550004 1.3070378865028607e-05 739012.00000000012 -4.6000000000012692e-05 54.020552436887996 87081.000000000015 162.50000000000003 818063.00000000012 0.17077781170271647 0.00051992128896000015 0.00062634198908045012 41.540108795659144 0.00067992224459865016 0.00028354295610760006 0.00094999999999985016 0.00013203646307465003
decision_type=2 2 2 2 2 2 2 2 2 2 2 2 2 2 2 2 2 2 2 2 2 2 2 2 2 2 2 2 2 2 2 2 2 2 2 2 2 2 2 2
left_child=1 3 4 17 8 -5 9 20 11 12 19 25 13 -6 21 22 -13 38 34 -11 28 23 39 -2 -12 26 -3 -19 -4 -8 -17 -20 -32 36 35 -9 -16 -37 -1 -7
right_child=14 2 7 5 6 15 29 18 -10 10 24 16 -14 -15 33 30 -18 27 31 -21 -22 -23 -24 -25 -26 -27 -28 -29 -30 -31 32 -33 -34 -35 -36 37 -38 -39 -40 -41
leaf_value=0.095782245577324981 0.0098069022508824617 0.087927889538347861 -0.034984996043197082 -0.0050042020259792024 -0.026952468353384045 0.031531868751465686 0 0 0.17164500046904863 0 -0.0062343934452750169 0.026901663304111471 -0.051534041832072795 0.022306195429598628 -0.037212525241127246 -0.022903042808855068 -0.070586045809444692 0.00022359090656051532 -0.077157329152460846 -0.067266113531975188 -0.083433139409089904 -0.054838818888996978 0.10495186541711583 -0.020290117370812513 0.092745153044625314 -0.036965232906054302 0 0.043546216105597113 0.086432203661798823 -0.083670820059914525 0.031374589421693917 0.013811240490078562 -0.022762179069997685 0 0 0.16908368268072022 -0.084300875946290002 0 0 0.0060067839723364561
leaf_weight=220.53996910899878 569.49922347813845 180.91191074252129 120.31673686951399 2072.5116045996547 306.55270580202341 1617.6375379264355 43.819914147257805 9.0495663061737996 30.994980163872242 115.73172103613615 35.355082832276821 90.904507629573345 134.02844781428576 1365.8711263760924 911.79472289979458 366.1524937748909 80.934039048850536 306.84130615741014 64.646077550947666 330.27910581231117 434.02408552914858 215.43721698224545 60.085609331727028 979.67779524624348 47.2233582213521 12.840334780514238 45.628263987600803 765.51286818832159 13.961484998464583 162.49952749162912 325.41087599098682 25.25481228530407 103.90544310957193 109.49411007016897 23.993184641003609 33.536525905132294 231.97913040965796 3.5201887264847747 19.776675954461098 710.45622873306274
leaf_count=1021 3480 1054 1043 11463 1883 8406 319 64 172 712 193 532 799 8137 6488 2623 506 1556 537 1994 3679 1563 258 6398 275 75 252 3925 117 1202 2113 168 705 807 168 208 2225 25 93 3886
internal_value=-0.000892523 0.00680277 -0.0106068 0.0168379 0 0.00982117 -0.00753874 -0.0524271 0.0408 -0.00177191 -0.0329338 0.0246151 0.00674468 0.0124186 -0.0274804 0.0198649 -0.0129952 0.0437146 0 -0.0496729 -0.0684631 -0.0150345 0.0272738 -0.00840308 0.0395055 0.0563538 0.0682778 0.032444 -0.00895254 -0.0641608 -0.00082312 -0.0394615 0.015134 -0.0437629 0.0603662 0.102322 -0.0484303 0.143394 0.0860128 0.0243453
internal_weight=13298.6 10280.7 3711.88 6568.83 2983.58 5256.16 2541.36 728.303 442.214 2335.04 528.589 411.219 1806.45 1672.42 3017.88 3183.65 171.839 1312.67 160 446.011 568.302 1764.61 2388.18 1549.18 82.5784 239.381 226.54 1072.35 134.278 206.319 795.469 89.9009 429.316 1253.27 70.0995 46.1063 1143.77 37.0567 240.317 2328.09
internal_count=81124 60163 24114 36049 18105 29454 15514 6009 2591 13993 3174 2419 10819 10020 20961 17991 1038 6595 1170 2706 4839 11441 12550 9878 468 1381 1306 5481 1160 1521 5441 705 2818 9520 465 297 8713 233 1114 12292
is_linear=0
shrinkage=0.13163


Tree=11
num_leaves=41
num_cat=0
split_feature=55 5 6 159 5 161 159 46 47 68 4 155 159 276 169 276 161 154 86 161 61 211 158 214 89 155 29 214 93 204 89 93 153 0 275 149 44 93 154 204
split_gain=112.904 82.5664 77.998 61.9056 52.6401 50.4248 56.7635 77.9491 61.7098 58.586 44.0763 34.6843 34.6365 34.4635 33.4121 33.124 33.0508 31.4409 31.3371 31.205 31.0041 30.4802 29.3496 28.7852 26.7711 25.5604 23.5119 23.3622 31.7641 23.2079 21.8509 21.5172 21.9889 26.6729 21.1933 19.5589 20.2635 19.2466 18.5854 18.5402
threshold=-3.3434114304309115 -0.78656609248549259 0.60355339059327395 0.00016482988319455004 0.12940952255126059 0.00014488764519850002 -0.00011632834034314999 -0.00011962500000014998 -5.4102783992600863e-06 71.241497841123262 314.50000000000006 7.2885565801459156e-05 -0.00017138544975489999 0.00070559124746800018 0.0031659885836903003 0.00054782906120225008 0.00022021713113585002 10.48564420004074 -5.9427089919017453e-06 0.00019874260752390002 55.500000000000007 -0.00028000000000009994 54.795290718649603 0.078673106662589906 23.337475472499865 0.00010692465806275003 -1.7042940197924222e-05 0.028045524570388804 33627.500000000007 -0.00030759272330109993 28.195204303654162 371980.00000000006 4.6348788212617169e-05 1.3799450000000002 0.00054603295823580018 2.067178670588795e-05 1.2709043500000001 28611.500000000004 8.4942589439552467 -0.00041390102007859996
decision_type=2 2 2 2 2 2 2 2 2 2 2 2 2 2 2 2 2 2 2 2 2 2 2 2 2 2 2 2 2 2 2 2 2 2 2 2 2 2 2 2
left_child=21 13 3 5 10 11 7 20 14 -9 16 -3 -4 17 -8 24 -5 18 30 -10 -7 29 26 -15 34 -18 -17 28 37 -1 -2 32 33 -29 -6 -13 -37 -14 -39 -23
right_child=1 2 12 4 15 6 8 9 19 -11 -12 35 27 23 -16 22 25 -19 -20 -21 -22 39 -24 -25 -26 -27 -28 31 -30 -31 -32 -33 -34 -35 -36 36 -38 38 -40 -41
leaf_value=0.037318124705130296 0.012741220647265086 -0.029547467492828754 0.032581805995289426 0 0 0.018372934553890972 -0.03709356152028264 0.075286443972185813 -0.029777582586549226 -0.0019785717965810773 0.0097984858355369218 0 -0.023622708942898606 -0.055275213416978337 0.03036704280231052 -0.036486796422780458 0 -0.052495330464784988 -0.018493903945454044 0.0040322699413981155 -0.042204566026886665 0.13564476260595584 -0.062908449055742485 0.021487866482918335 0 0.17963691138988461 0.07243710584116253 0.18813947909598192 -0.079264896608542468 0 0.12687078799519813 -0.031530619468253265 -0.0082387468325730399 0 0.11078469507636647 0 0.14881982480229006 0.17630767878529455 0 0.032434110563906396
leaf_weight=377.55132111161947 136.90552052855492 20.711929574608803 77.924509592354298 11.244782745838164 43.619231909513474 232.97667715698481 1429.9346310719848 497.59219773858786 535.40621103346348 207.74471354484558 110.74970044195652 8.9094553440809232 27.7823551222682 954.79311165213585 112.02127502858639 39.022841408848763 22.861207500100136 170.37434612959623 196.02871052920818 3589.9034920483828 305.49544103443623 32.734203644096851 134.93449158221483 62.91314372420311 91.879100002348423 107.45195303112268 67.207730263471603 19.977881215512756 425.63346938788891 1321.0085875168443 47.242504857480526 264.37685407698154 15.811590664088724 7.0495967939496031 100.46571043878794 14.075348943471907 85.790602266788483 12.355698905885221 5.0044927820563307 1344.4410308972001
leaf_count=1968 891 118 566 62 232 1411 8658 2879 3039 1223 682 49 238 8223 725 234 119 1188 1334 20995 1905 155 843 454 511 589 395 158 3715 6982 305 2139 141 59 539 81 456 106 40 6848
internal_value=-0.000164939 -0.00693251 -0.00171025 0.00230317 0.0386391 -0.00131968 -0.00306869 0.0220104 -0.00882503 0.0509635 0.0869488 0.0771507 -0.0393071 -0.0346746 -0.0312209 0.00936732 0.134756 -0.00529832 0.0132054 -9.4782e-05 -0.0137523 0.0218041 -0.0211188 -0.0491331 0.0454684 0.15414 0.0214103 -0.0484225 -0.0675562 0.00890612 0.0529953 -0.0139885 0.0564611 0.123752 0.0797163 0.109158 0.126593 0.0138188 0.11204 0.0366286
internal_weight=13269.9 10194.2 8625.92 7770 729.437 7040.56 6911.07 1243.81 5667.27 705.337 252.308 129.487 855.916 1568.26 1541.96 477.129 141.558 550.551 380.177 4125.31 538.472 3075.74 241.165 1017.71 235.964 130.313 106.231 777.992 470.776 1698.56 184.148 307.216 42.8391 27.0275 144.085 108.775 99.866 45.1425 17.3602 1377.18
internal_count=81255 65302 52907 45745 4206 41539 40835 7418 33417 4102 1452 704 7162 12395 9383 2754 770 3718 2530 24034 3316 15953 1472 8677 1282 708 629 6596 4099 8950 1196 2497 358 217 771 586 537 384 146 7003
is_linear=0
shrinkage=0.13163


Tree=12
num_leaves=41
num_cat=0
split_feature=6 35 204 276 269 96 276 93 151 161 160 159 159 93 155 61 159 44 152 61 159 160 160 155 45 160 45 85 276 61 46 35 86 159 149 46 35 272 160 211
split_gain=113.146 101.4 74.111 67.7225 52.8959 49.4789 48.5003 44.2838 57.952 43.0125 41.0672 41.0783 48.981 40.4148 38.9062 35.7793 51.5647 32.7867 28.4633 41.2087 29.0887 26.6769 25.3426 24.8303 24.0668 22.6545 21.0024 19.1986 18.2854 18.1734 18.0536 17.7249 17.1129 17.0812 16.9952 16.4813 20.3036 27.7365 27.035 13.5188
threshold=-0.12940952255126034 1.4429894000000003 0.00018758989364445002 0.00077504218040885017 1.0000000180025095e-35 -158.74999999999997 0.0012965923133886003 896747.00000000012 1.5145167110985904e-06 0.00024338817649215 9.6433304534769011 1.8735717962388278e-05 -0.00012137574666329998 414373.50000000006 0.00012315478559715002 258.50000000000006 -0.00011632834034314999 1.2392114250000001 51.81745253919766 85.500000000000014 0.00012832426617065003 8.5389747229614077 10.37779694545611 0.00010194743423115001 -0.19664448559679867 8.731821753975046 -0.33719600893785723 2.8135854827479931e-05 0.00039053547003265002 20.500000000000004 0.00020124999999980003 1.3704841000000005 -7.0634348471987338e-05 -3.9202017795473565e-05 0.00028400544834830004 1.700000000004476e-05 1.3513996500000001 13.500000000000002 9.8487491150004267 0.00012000000000020001
decision_type=2 2 2 2 2 2 2 2 2 2 2 2 2 2 2 2 2 2 2 2 2 2 2 2 2 2 2 2 2 2 2 2 2 2 2 2 2 2 2 2
left_child=1 2 4 5 6 25 7 15 31 22 13 12 17 -11 30 16 -1 -12 19 -13 -20 -10 35 -3 -14 29 -25 -8 -24 -2 -15 -9 -27 -17 -5 36 37 -7 -38 -4
right_child=3 23 39 34 -6 9 27 8 21 10 11 18 24 14 -16 33 -18 -19 20 -21 -22 -23 28 26 -26 32 -28 -29 -30 -31 -32 -33 -34 -35 -36 -37 38 -39 -40 -41
leaf_value=0.036014228583183754 0 0 -0.044996224675387546 -0.068730904920183106 0.064382919017765786 -0.013114891564892005 -0.085782232525386984 -0.035517392828576258 0 -0.0024208593924408437 0.10751464006796511 -0.048813077641178614 0.011704028626755554 0.19570362793200036 0 -0.10047873474638179 0.0046262744947376377 -0.011076119359902079 0.065499018544049672 0.036423483256572804 -0.0054155241057726091 0.18730219097473352 0 0 -0.069308216121258481 0.10395869719271979 0.14816987347405575 0 -0.10068008789027212 0.16260731717368912 0 0.065907484024813001 0.0031922503735468304 0.01402110437229909 0 -0.055034606048782388 -0.093138351554174562 0.081058166239802165 0.03311786864742057 -0.010456942453754088
leaf_weight=1076.8730963990092 10.94176686555147 8.9744739383459073 444.56354621052742 510.51760042458773 299.29094118624926 101.42566183209419 116.48843677341938 58.10687617957592 5.4129468202590934 87.533554039895535 38.024482525885105 257.16871155798435 40.25150179117918 47.12604595720768 38.378370843827724 68.479302644729614 6570.5901354402304 260.5962198972702 203.37883900105953 133.09854776412249 130.50391844660044 62.457963779568672 35.50343406945467 10.925533577799795 477.55845037847757 24.861713923513889 119.12959544360638 116.74275555461645 197.84285286068916 25.020142950117588 3.8880828693509093 42.97239127010107 628.07159076631069 4.1920809894800177 42.604733422398567 183.00778698921204 72.022551991045475 75.407932452857494 22.068517334759235 589.00480264425278
leaf_count=5876 68 41 3210 4809 1491 699 875 324 28 591 218 1821 309 286 264 392 36326 1829 1370 916 892 333 265 55 3488 146 527 840 1564 142 29 233 3805 22 402 1317 533 520 168 4185
internal_value=0.000231772 0.00783014 0.00599136 -0.0193769 0.0101914 -0.0111964 0.00797108 0.00987746 0.075832 -0.0203569 -0.00820949 -0.0158145 -0.0361364 0.0487503 0.10797 0.00818591 0.00924967 0.00234689 0.00548467 -0.0163468 0.0345532 0.162891 -0.0483893 0.116641 -0.0604684 0.0187876 0.132642 -0.0492635 -0.0856585 0.113247 0.174729 0 0.0102567 -0.0771653 -0.0619768 -0.0252258 0 0.0219242 -0.0506296 -0.0267968
internal_weight=13241 9594.2 9455.18 3646.8 8421.61 3093.68 8122.32 7889.08 168.95 2404.79 1717.51 1540.58 816.431 176.926 89.3925 7720.13 7647.46 298.621 724.15 390.267 333.883 67.8709 687.279 139.03 517.81 688.895 130.055 233.231 233.346 35.9619 51.0141 101.079 652.933 72.6714 553.122 453.932 270.925 176.834 94.0911 1033.57
internal_count=81209 54758 54135 26451 46740 21240 45249 43534 918 17079 12013 10843 5844 1170 579 42616 42202 2047 4999 2737 2262 361 5066 623 3797 4161 582 1715 1829 210 315 557 3951 414 5211 3237 1920 1219 701 7395
is_linear=0
shrinkage=0.13163


Tree=13
num_leaves=41
num_cat=0
split_feature=270 276 55 161 161 276 93 61 5 163 163 61 61 89 6 157 214 158 275 6 17 160 93 35 155 158 146 160 140 2 93 93 160 44 67 90 89 159 173 95
split_gain=88.1494 83.2737 68.3109 56.6086 54.0248 60.4 56.1262 55.8921 41.4067 73.413 57.6236 56.6752 39.1871 35.6265 32.7148 35.1593 25.6572 23.9968 22.9052 21.0478 20.6446 19.9417 38.977 39.7527 33.7862 28.6627 27.5802 18.9637 22.9473 18.1894 17.0782 15.2818 14.8827 19.9968 14.098 13.9348 13.8828 13.5231 12.0745 11.8795
threshold=1.0000000180025095e-35 0.0013270947403188002 0.75176173812647218 0.00079250719024550004 0.00048210497133560002 0.00065585188012960011 883330.00000000012 63.500000000000007 1.0000000180025095e-35 1.3270374461430301 1.2788961213941576 40.500000000000007 16.500000000000004 47.494686723301349 -0.12940952255126034 -1.3323615156847798e-06 1.0000000180025095e-35 48.989562174602028 0.00071367215600465011 -0.12940952255126034 1.3674907500000002 11.466779675590496 289947.50000000006 1.4405210000000002 7.6816619808235705e-05 45.360841090225598 64.261877039785546 12.348457249384909 45.499804030539501 1.2554150000000002 663477.50000000012 320820.00000000006 10.207521687821528 1.2392114250000001 78.696627916098876 2.049211262617709 15.747520548089843 0.00014778744627395003 0.0035636239961662508 -0.047048993068580798
decision_type=2 2 2 2 2 2 2 2 2 2 2 2 2 2 2 2 2 2 2 2 2 2 2 2 2 2 2 2 2 2 2 2 2 2 2 2 2 2 2 2
left_child=1 2 4 30 5 8 21 14 10 11 17 -10 -11 35 16 -16 -7 -1 -12 27 -8 25 24 -24 -23 -6 -27 36 -29 -5 34 -15 -21 -34 39 -9 37 -4 -22 -3
right_child=-2 3 19 29 6 7 20 13 9 12 18 -13 -14 31 15 -17 -18 -19 -20 32 38 22 23 -25 -26 26 -28 28 -30 -31 -32 -33 33 -35 -36 -37 -38 -39 -40 -41
leaf_value=0.025076528343736221 -0.063772480536821899 0 0 0 -0.029778535314982223 -0.0092779305518203362 0 -0.058802075407924426 0.0048854938617579769 0.010611601788603186 0.056736195566022669 0.051879325623909692 -0.024168088633697373 0 0.032440806075523604 -0.05718426558320349 0.020991860290908767 -0.060850686920100559 0.019290921038054503 -0.00030519356185979382 0.25471180410015737 -0.049716160647492263 -0.022295055733679615 0.077756358699921993 0.071148081014863279 0.097252197675352717 -0.020743571856065585 0.056695751816722269 -0.0037822373759427907 0.12589450223709397 0 0.14624181869905192 0.018787989507482835 -0.052174803145099889 0 0.0067139275807974559 -0.018538886584068711 0.078224326348645359 0 -0.10332204918100159
leaf_weight=57.888937279582024 348.91363083571196 2.8239109739661208 279.18993263691664 8.1853960230946523 25.039488285779953 810.45106390863657 3.2237445637583759 541.70374774187803 1135.064789108932 902.86388918757439 805.67671155929565 807.24715536832809 1323.6211241781712 15.364317387342455 75.165634639561176 294.16779384762049 1064.2630923464894 143.61396241933107 660.81836348772049 261.23370116204023 24.401989653706554 27.773927882313728 409.25082098692656 72.207818120718002 267.62009733915329 201.68746346980333 17.508572950959206 161.4925372004509 204.6078050583601 26.205306455492973 61.995068624615669 12.138306401669977 45.995863623917103 508.74053834378719 24.769356846809387 22.43754144012928 1274.6952812597156 35.130708061158657 3.7104655355215064 251.12806113809347
leaf_count=297 2657 23 1803 59 145 4728 17 3623 6077 4996 3906 4546 7589 98 682 2720 6401 740 3526 2056 130 165 2414 326 1483 1118 94 1067 1291 159 492 79 305 4284 181 133 8463 204 21 2206
internal_value=0.000585582 0.00247107 0.0044186 -0.0577115 0.00969114 0.00607679 0.0379726 -0.00939576 0.0138176 0.00638514 0.0314973 0.0252187 -0.00949941 -0.0450811 0 -0.0352065 0.00723674 -0.0299926 0.0409454 -0.0135933 0.198234 0.0302195 0.0171975 -0.00357394 0.0544682 0.0645724 0.0817307 -0.00532095 0.0201189 0.0738592 -0.076153 0.0697466 -0.0315902 -0.0438033 -0.0898998 -0.0538787 -0.0120663 0.00997733 0.229258 -0.0988737
internal_weight=13220 12871.1 12496 375.107 9724.91 8672.49 1052.42 2835.69 5836.79 4168.8 1668 1942.31 2226.49 591.644 2244.05 369.333 1874.71 201.503 1466.5 2771.09 31.3362 1021.09 776.853 481.459 295.394 244.236 219.196 1955.12 366.1 34.3907 340.716 27.5026 815.97 554.736 278.721 564.141 1589.02 314.321 28.1125 253.952
internal_count=81304 78647 75527 3120 56054 50141 5913 18464 31677 23208 8469 10623 12585 3933 14531 3402 11129 1037 7432 19473 168 5745 4388 2740 1648 1357 1212 12828 2358 218 2902 177 6645 4589 2410 3756 10470 2007 151 2229
is_linear=0
shrinkage=0.13163


Tree=14
num_leaves=41
num_cat=1
split_feature=269 270 276 161 276 162 5 279 274 160 44 161 2 89 30 161 152 93 6 161 44 160 93 159 155 5 44 160 46 35 45 93 93 200 89 46 93 89 27 64
split_gain=80.251 71.9907 67.4816 54.2808 55.945 53.2458 50.2892 113.9 88.5025 100.171 80.3368 69.1612 66.9821 51.5152 48.1737 47.6801 47.2911 44.9728 43.9199 46.5676 44.8383 43.8309 42.18 47.0336 41.5822 40.6442 36.67 32.057 27.2524 26.0388 24.5808 23.6129 22.512 21.3387 19.7481 15.452 19.3853 15.414 12.731 12.4052
threshold=1.0000000180025095e-35 1.0000000180025095e-35 0.00065957911620725008 0.00079250719024550004 0.0013270947403188002 1.236675580271821 0.12940952255126059 0 1.2636855077247782 10.63436745436581 1.2751087000000001 0.00042784539496050006 1.3689950000000002 15.483379625071677 -3.0699999999994614e-05 0.00019874260752390002 46.123913652654885 320820.00000000006 -0.60355339059327384 0.00048210497133560002 1.2943566000000002 11.466779675590496 601076.00000000012 0.00013343892150450003 8.2574835432828181e-05 0.60355339059327384 1.3505832750000002 10.423713177843267 -2.3974999999953891e-05 1.2627153500000003 -0.28273775004566704 75106.000000000015 116371.50000000001 0.33159960782134384 38.454131739376059 -0.00018779999999979998 504772.00000000006 14.548876249360923 0.0090159260886227017 -29.150383631079915
decision_type=2 2 2 2 2 2 2 1 2 2 2 2 2 2 2 2 2 2 2 2 2 2 2 2 2 2 2 2 2 2 2 2 2 2 2 2 2 2 2 2
left_child=1 2 5 4 18 14 10 8 9 -8 16 13 -13 -9 -1 17 28 -12 22 20 -20 -21 23 -4 -10 -24 -17 32 -7 -18 -5 -29 38 35 -33 -32 -37 -6 -16 -2
right_child=39 -3 3 30 37 6 7 11 24 -11 15 12 -14 -15 27 26 29 -19 19 21 -22 -23 25 -25 -26 -27 -28 31 -30 -31 33 34 -34 -35 -36 36 -38 -39 -40 -41
leaf_value=-0.041135583538768151 0 -0.062442669039611598 0 -0.0025509080689450694 0 -0.01151572151602811 0.029970071085471759 0.0063004585264484301 -0.0030925482773720555 -0.06881835995644621 0.04764919821791766 -0.033227789678263238 0.090713366787668642 -0.043108909698719416 -0.053026003646375254 0.0030309991304648151 0 -0.030087453343905359 -0.069715755692967327 0.093989559718254484 -0.018357135823990397 -0.013572758020811671 -0.043001255008340837 0.062818365735874085 0.040870030932969224 0.071448717051033117 0.047441458341492743 0 0.12233474983503416 -0.10055436972591607 0 0.14530893870097736 0.10944588150349836 0 0 0 0.19209369971567769 -0.079863792712892234 0.031476643315512406 0.064429956816482156
leaf_weight=51.044142663478851 87.449978247284889 341.9584059715271 1426.7302379161119 37.074683852493763 29.195859126746655 36.30602865666151 292.96419840306044 402.76031074672937 433.54332754760981 390.34351249039173 170.94509199261665 113.70549933612347 156.54399974644184 1769.3309215158224 58.00853930413723 508.75830837339163 76.232980705797672 419.54659420251846 530.77214445918798 84.197849676012993 887.71942901611328 173.1385263055563 537.6440906971693 237.76074060797691 1401.3470852971077 44.329612113535404 1345.0508924126625 15.823233135044573 30.47751097381115 165.8010378330946 8.6292355954647046 138.88148406893015 24.887667514383793 46.570041060447693 10.922494806349276 5.8938744664192191 44.637133784592152 293.62098237127066 33.864097014069557 347.83516486734152
leaf_count=265 441 2707 8459 227 270 203 1693 2569 2564 2325 913 681 848 10842 326 2671 417 2336 4506 534 7171 1281 3263 1317 8079 252 7026 83 165 923 45 707 132 253 59 33 223 2646 181 1869
internal_value=-0.0014866 -0.0034905 -0.00172436 -0.0149183 -0.0178837 0.00531768 0.00288467 -0.00483138 0.0144654 -0.0247456 0.0172277 -0.0252362 0.0344992 -0.0333655 0.0563665 0.0255799 -0.0437314 -0.00507192 -0.0130592 -0.029148 -0.0387779 0.0186183 -0.00042016 0.00967218 0.0298148 -0.0312007 0.0360162 0.0791153 0.0392328 -0.0723326 0.0607758 0.116417 0.0116092 0.0928558 0.132266 0.141549 0.165867 -0.0707793 -0.00896355 0.0533724
internal_weight=13212.2 12777 12435 4387.91 4245.11 8047.09 7713.66 4960.54 2518.2 683.308 2753.12 2442.34 270.249 2172.09 333.432 2444.3 308.818 590.492 3922.29 1675.83 1418.49 257.336 2246.46 1664.49 1834.89 581.974 1853.81 282.388 66.7835 242.034 142.805 165.627 116.76 105.73 149.804 59.1602 50.531 322.817 91.8726 435.285
internal_count=81505 79195 76488 30480 29699 46008 44255 29601 14661 4018 14654 14940 1529 13411 1753 12946 1708 3249 26783 13492 11677 1815 13291 9776 10643 3515 9697 1488 368 1340 781 849 639 554 766 301 256 2916 507 2310
cat_boundaries=0 1
cat_threshold=1
is_linear=0
shrinkage=0.13163


Tree=15
num_leaves=41
num_cat=0
split_feature=55 269 275 267 177 6 93 96 178 71 152 160 276 161 54 83 159 6 30 161 93 55 93 46 161 93 158 154 79 150 112 62 154 160 178 148 121 71 160 88
split_gain=75.1021 47.2953 38.3276 30.9864 31.6372 29.7391 30.6579 28.6513 25.3912 25.1976 44.614 36.7614 40.4843 31.0295 20.5822 21.9931 18.319 18.3134 17.6503 17.5266 21.3938 17.0826 14.9141 13.1704 12.9991 12.7518 15.2811 14.482 12.8567 12.7211 12.5817 12.5188 12.0794 12.0238 11.9371 12.6994 12.9835 11.2892 11.0851 11.0578
threshold=0.78353971291812397 1.0000000180025095e-35 0.0011940244517151001 1.0000000180025095e-35 5.5000000000027256e-05 -0.12940952255126034 869186.50000000012 -153.74999999999997 0.00013999999999990002 29.500000000000004 50.300076853129418 10.77532422724992 0.0012965923133886003 0.00064328025264065003 -3.119131635899993 -6.9213428314674885e-07 0.00020690609948125003 0.1294095225512604 2.5699999999961868e-05 0.00024250125533470003 873220.50000000012 -5.2121243220758346 807895.00000000012 4.8600000000065264e-05 0.00079250719024550004 177095.00000000003 45.465189234271399 8.4429242218554421 -1.0626201551658028 0.48041314329247636 -9.2115927376930316e-05 54.500000000000007 15.408117080512104 10.207521687821528 1.0000000180025095e-35 6.4465441453368681 0.00012767957620200005 7.5000000000000009 10.393163259719005 3.0778554512061643e-05
decision_type=2 2 2 2 2 2 2 2 2 2 2 2 2 2 2 2 2 2 2 2 2 2 2 2 2 2 2 2 2 2 2 2 2 2 2 2 2 2 2 2
left_child=1 2 3 4 7 6 9 18 17 10 13 12 -11 -4 21 29 -8 25 39 20 -9 -6 32 -12 -10 27 37 -2 -29 -16 -17 -20 -7 -21 -28 36 -36 -27 -19 -1
right_child=8 -3 5 -5 14 22 16 19 24 11 23 -13 -14 -15 15 30 -18 38 31 33 -22 -23 -24 -25 -26 26 34 28 -30 -31 -32 -33 -34 -35 35 -37 -38 -39 -40 -41
leaf_value=0.014199127298486148 -0.0021574160496084546 0.048264691342795221 -0.071869121704416727 -0.023943176214111322 0.030868472427538041 -0.081210452727196888 0.10843008363778535 -0.033945589047075515 -0.038987727279598185 0.15678945750842452 0.028701691628275697 -0.0043837887899492662 -0.025568976457545221 0.016755615272403629 0.034625492730864488 -0.0064854148807588592 -0.0032874729053938268 0 -0.033312473698823349 0.02184185865041384 0.040727043806790944 -0.0040255566618818866 0 -0.013142238584183034 0.034510045343070159 0 0.023052433377424627 0 0.067914932286091634 -0.0013108299627681093 0.022319274576442484 0.031648799006193412 0 -0.007203242650738224 -0.040439710810515589 0 0 0.068535792969916201 -0.04805074367517434 0.055079960941222507
leaf_weight=1074.765252314508 173.5533599331975 423.57355101406574 328.32847759872675 499.5332435965538 293.07702660560608 192.13790180534124 53.462952695786953 660.93683987855911 968.36568313837051 51.381756566464901 200.13471663743258 138.9589295014739 12.853067211806772 54.77652532607317 1754.2864369004965 524.89479284733534 8.2098405212163907 160.64496526867151 192.3940814435482 299.94782618433237 51.552086628973484 1094.146371267736 69.841585196554661 319.72159477323294 18.613957591354847 32.923633866012096 95.930735446512699 71.003396406769753 123.7970661893487 112.58479081839323 442.04984047263861 43.389901414513588 8.0806397944688779 1174.720263235271 486.36511833965778 283.4315899014473 177.8367505222559 62.463498190045357 276.65297348052263 163.3448853045702
leaf_count=5545 1108 2172 2329 2847 1401 2136 309 4047 7519 325 1326 909 113 317 9866 3133 56 1307 1012 1707 306 6192 549 2148 121 217 625 487 808 633 2626 217 89 7054 3219 1901 1180 421 2445 821
internal_value=0 0.005404 0.00338393 0.00690119 0.00904321 -0.0161459 -0.00563633 0 -0.0184602 -0.0119186 -0.0221389 0.0264662 0.103775 -0.0558088 0.0167981 0.023284 0.076508 -0.00876752 0.0142231 -0.00946185 -0.0263378 0.00256205 -0.0554088 0.000720906 -0.0360233 -0.000934992 -0.00862253 0.0190665 0.043642 0.031773 0.00543685 -0.0153872 -0.0730514 -0.000333669 -0.0142216 -0.0195163 -0.0294708 0.0363706 -0.0323384 0.0209646
internal_weight=13174.7 10243.1 9819.51 8381.62 7882.09 1437.89 1167.83 3661.05 2931.58 1106.16 902.961 203.194 64.2348 383.105 4221.04 2833.82 61.6728 1944.6 1473.89 2187.16 712.489 1387.22 270.06 519.856 986.98 1507.31 1138.95 368.354 194.8 1866.87 966.945 235.784 200.219 1474.67 1043.56 947.633 664.202 95.3871 437.298 1238.11
internal_count=81543 60185 58013 47407 44560 10606 7832 20709 21358 7467 6120 1347 438 2646 23851 16258 365 13718 7595 13114 4353 7593 2774 3474 7640 9966 7563 2403 1295 10499 5759 1229 2225 8761 6925 6300 4399 638 3752 6366
is_linear=0
shrinkage=0.13163


Tree=16
num_leaves=41
num_cat=0
split_feature=204 5 6 124 211 269 159 5 271 160 199 158 205 276 61 98 275 21 178 48 214 5 44 160 93 6 169 146 159 160 160 46 93 93 271 149 57 144 159 160
split_gain=67.4393 40.1868 37.5274 34.4202 33.2962 25.2242 24.0451 23.2055 26.2089 22.7888 27.0242 24.2216 22.8886 21.7589 24.2973 21.148 19.8126 19.5922 19.5645 19.3084 19.2141 18.733 18.6925 16.9404 16.5403 15.9077 15.6933 15.0852 13.8993 15.2648 19.6473 13.8339 13.4741 13.3961 13.1879 13.1812 12.6245 11.9508 11.6148 11.49
threshold=-2.9637395749954906e-05 -0.91597561503675329 0.60355339059327395 -0.00015068174996684996 -0.00014999999999969999 1.0000000180025095e-35 0.00014091741521005002 0.12940952255126059 19.500000000000004 9.6588621276275486 1.0392172443305419 52.881511365529505 0.00012023300437540001 0.00065957911620725008 48.500000000000007 0.11926256672259151 0.00065277041792705006 -1.0000000180025095e-35 5.5000000000027256e-05 -8.2249999999173245e-06 0.03313306450020146 0.12940952255126059 1.2751087000000001 10.360549766814149 249118.50000000003 -0.60355339059327384 0.0013649367348179001 51.7197440092581 -0.00016767936487314996 13.383372014939555 9.6238543492595152 0.00018582499999995002 478894.50000000006 221287.00000000003 42.500000000000007 2.9974093017118759e-05 2.4750304577020903 1.0213319810142438 -0.00019867138937899997 13.539842216270197
decision_type=2 2 2 2 2 2 2 2 2 2 2 2 2 2 2 2 2 2 2 2 2 2 2 2 2 2 2 2 2 2 2 2 2 2 2 2 2 2 2 2
left_child=3 34 4 -1 18 13 9 8 -8 10 12 19 -6 15 17 21 -9 36 -3 -11 -4 22 -5 27 -24 32 39 -22 38 30 -30 -10 -19 -13 -2 -12 -15 -7 -16 -23
right_child=1 2 20 5 6 37 7 16 31 11 35 33 -14 14 28 -17 -18 25 -20 -21 23 26 24 -25 -26 -27 -28 -29 29 -31 -32 -33 -34 -35 -36 -37 -38 -39 -40 -41
leaf_value=0.053691448886831701 -0.049567627428528674 0 -0.053587942817853881 -0.0094676882182658691 0.03800875539882375 0.016271117085410413 0.013466784374730603 0.041346328021407482 0.14109782541759128 -0.01392349033489345 0 0 -0.0081108924939125235 -0.0012283791179160798 -0.010025393860756673 -0.0033252711729157831 -0.019341445485036066 0.025324800010968842 -0.028569896121521731 0.0091440150649373733 0.089660539859759705 0.018432849907012612 0.082838639421330587 -0.032822172423470838 0.027550200611503147 -0.032279219907794331 -0.023988677307168811 0 0 0.013636284563981133 -0.061343963539897822 0 -0.019508682150630844 -0.048079396001142555 0 0.14416572583617737 0.034389274493696678 0.076180944212793575 0.072574289552343768 -0.02353368133577682
leaf_weight=308.47445850819349 494.59885295107961 770.98272004723549 389.02957893535495 92.093300305306911 319.20077211409807 251.43748430907726 127.69122894853354 152.6504084020853 69.983058482408524 1024.4903703704476 5.8224170804023734 96.615111231803894 350.54081659018993 177.60567068308592 78.112449385225773 966.27690582722425 190.68567638099194 259.47001785039902 1040.14770822227 1597.8735148534179 41.589378483593464 1245.3866497427225 166.80677145719528 133.55363354831934 558.04680759459734 314.06718236580491 183.58498374372721 43.905910447239876 79.606117486953735 44.403598502278328 335.29919757694006 8.2540580257773382 175.20751961320639 300.20644748955965 56.903634645044804 36.316070139408112 419.01110308617353 127.55010765045881 28.602906815707684 91.120991177856922
leaf_count=1619 5050 4448 3598 479 1799 1258 752 862 392 6523 33 569 2202 1211 508 5260 1192 1420 6499 9663 309 6777 783 1201 2708 2467 985 346 552 285 2298 52 986 1794 586 214 2599 631 180 514
internal_value=0.000193662 -0.00820533 -0.00514677 0.0107278 -0.00178817 0.00805074 0.00430607 0.0298248 0.0644961 0.000145113 0.0215113 -0.00451161 0.0121629 0.0053475 -0.00535652 0.0119292 0.00431018 0.00345552 -0.0168546 0 -0.0362119 0.0187767 0.0353414 0 0.0428402 -0.00951914 0.00888332 0.0386914 -0.0282953 -0.0386399 -0.0474473 0.123474 0.00430949 -0.0344633 -0.0424164 0.117779 0.0217806 0.0409864 0.0045728 0.0144814
internal_weight=13153.2 7251.04 6699.54 5902.16 6091.46 5593.69 4280.33 549.264 205.928 3731.07 711.88 3019.19 669.742 5214.7 1911.39 3303.32 343.336 1345.36 1811.13 2622.36 608.079 2337.04 816.947 219.049 724.854 748.745 1520.09 85.4953 566.024 459.309 414.905 78.2371 434.678 396.822 551.502 42.1385 596.617 378.988 106.715 1336.51
internal_count=81604 48084 42448 33520 36994 31901 26047 3250 1196 22797 4248 18549 4001 30012 12506 17506 2054 8683 10947 16186 5454 12246 3970 1856 3491 4873 8276 655 3823 3135 2850 444 2406 2363 5636 247 3810 1889 688 7291
is_linear=0
shrinkage=0.13163


Tree=17
num_leaves=41
num_cat=0
split_feature=204 55 275 93 93 55 5 161 157 276 161 159 161 276 158 177 158 48 271 158 161 45 162 140 204 6 93 160 71 275 67 161 61 275 36 157 5 28 61 208
split_gain=53.9852 35.2043 28.603 31.4238 29.105 27.4152 26.8892 42.6932 26.8824 26.0762 25.7835 26.6119 31.9243 25.5648 24.5092 23.547 21.8074 30.2487 21.629 21.2079 24.7827 21.0899 19.9514 19.5196 19.3441 19.2006 21.7025 22.4131 24.9491 23.456 21.8997 19.9584 20.6647 25.4197 17.9622 17.9502 17.8183 17.0644 16.9673 16.4386
threshold=-3.6452846437089611e-05 2.613687465390941 0.00062739425834875014 464150.50000000006 169918.00000000003 -9.248312967711195 0.12940952255126059 0.00027546857108365005 -7.5749639168022462e-07 0.00066624703181835017 0.00026083388356470006 -3.6886054552564098e-05 0.00023213068162445004 0.00044100802513785008 46.134979286139121 0.00016499999999990004 51.330508739641047 -1.6149999999937045e-05 37.500000000000007 46.784875649381 0.00039255176599920004 0.065106640471592162 1.236675580271821 61.139483772155934 -0.00032040145539434994 -0.12940952255126034 896747.00000000012 12.26231090666194 10.500000000000002 0.0012359161420347502 70.12961215035638 0.00041726665467085004 38.500000000000007 0.00078199860560805015 -0.10920066065028204 1.7332705251604337e-06 0.12940952255126059 0.00014499999999990001 45.500000000000007 -0.0002037222975779
decision_type=2 2 2 2 2 2 2 2 2 2 2 2 2 2 2 2 2 2 2 2 2 2 2 2 2 2 2 2 2 2 2 2 2 2 2 2 2 2 2 2
left_child=5 2 3 4 10 24 7 14 34 22 11 -2 -13 -9 -6 -11 17 -10 37 20 -12 -18 -7 -21 -1 26 27 30 -29 -30 38 -27 33 -33 -5 -19 -28 -8 -4 -24
right_child=1 -3 25 8 6 9 18 13 16 15 19 12 -14 -15 -16 -17 21 35 -20 23 -22 -23 39 -25 -26 31 36 28 29 -31 -32 32 -34 -35 -36 -37 -38 -39 -40 -41
leaf_value=0.11712732660731269 0 -0.032139815023836324 -0.0076393300620030491 0.049690078269173182 0.10107493890010084 0.062847206484458309 -0.05712409163552605 0.14971197947012241 0 -0.015396709356389978 0.14584365238566485 0.0022336244112418687 0.16851924586198896 0 -0.034687373180323319 0.013185880856218274 -0.039970579872924142 0.095167198560542343 0.011329858409011679 -0.03525779732898536 -0.0030156696242835965 0.043499892104177186 0.01808359734477144 0.047692536186625577 0 -0.037229937196205758 0.10634735586778393 -0.0075728795142734617 0.058781361235576264 -0.010773625604534397 0.034863668417916813 0.090771076251396215 -0.031616233785483193 -0.0021735864717435951 -0.038577463648713985 0 0 0 -0.032348383636493408 -0.0003817260282928843
leaf_weight=62.461183100938797 61.81014758348465 940.22819089516997 1739.6325083225965 40.39022333920002 15.101584270596502 143.35282783955336 411.71717547625303 44.715429946780205 82.63968314230442 1298.0061830356717 25.959287106990814 56.178049124777317 50.905491888523102 21.49737811088562 175.67823877930641 764.08359863236547 80.199296377599239 248.7539352402091 97.125030562281609 219.70345957577229 10.116806425154207 110.16474592685699 2205.006563693285 44.456033304333687 69.029812723398209 770.52462688460946 45.503044098615646 386.93361292779446 257.9728245511651 78.034370444715023 133.23927628993988 70.689821295440197 137.99390979111195 74.74371550232172 129.37903893738985 18.448854647576809 16.946031875908375 71.4858588129282 797.16126205027103 1126.8928328827024
leaf_count=286 382 7454 10735 216 76 701 2555 219 523 8328 135 353 297 113 932 4982 463 1403 646 1302 57 645 11347 259 325 6779 253 2330 1442 561 835 429 1121 656 779 105 97 430 5025 6042
internal_value=-0.000772043 -0.00821141 -0.00452911 0.00812412 -0.0031319 0.00879584 -0.018623 0.0130414 0.0304299 0.00706895 0.0216519 0.0615 0.0989886 0.100105 -0.0136383 -0.00417103 0.0451153 0.0645767 -0.0348264 0 0.0823708 0.00162916 0.0141033 -0.0155154 0.0674836 -0.0104778 -0.00523197 -0.00706583 0.0125089 0.0390069 -0.0128711 -0.0262825 0 0.0370955 -0.00896989 0.0855694 0.0651782 -0.046768 -0.0159929 0.0114662
internal_weight=13134.9 7466.03 6525.8 2016.43 1306.45 5668.83 837.321 256.993 709.976 5537.34 469.129 168.894 107.084 66.2128 190.78 2062.09 540.207 349.842 580.328 300.236 36.0761 190.364 3475.25 264.159 131.491 4509.38 3455.42 3392.97 722.941 336.007 2670.03 1053.95 283.427 145.434 169.769 267.203 62.4491 483.203 2536.79 3331.9
internal_count=81618 49607 42153 11890 7756 32011 4971 1340 4134 31400 2785 1032 650 332 1008 13310 3139 2031 3631 1753 192 1108 18090 1561 611 30263 21278 20928 4333 2003 16595 8985 2206 1085 995 1508 350 2985 15760 17389
is_linear=0
shrinkage=0.13163


Tree=18
num_leaves=41
num_cat=0
split_feature=44 275 93 93 93 93 163 275 93 44 38 93 93 48 160 93 160 161 160 36 93 0 161 157 161 160 75 61 47 21 0 36 48 44 93 28 160 35 157 160
split_gain=53.4296 58.6816 53.067 51.529 99.9468 88.5714 84.3977 74.4829 72.5282 121.588 66.6144 62.3427 57.2284 56.9782 53.0081 79.9313 47.4154 49.4782 63.4225 53.7339 48.8791 58.3313 47.1761 51.0564 45.3949 44.1834 41.367 35.7304 35.4192 33.7164 31.1939 30.297 28.3679 28.7398 39.8544 28.3159 26.6173 25.5781 22.3581 20.3598
threshold=1.4428006250000001 0.0015664964863115504 8261.5000000000018 538220.00000000012 419779.00000000006 249118.50000000003 1.3708450151411855 0.00062739425834875014 236914.00000000003 1.3393076750000004 2.7502903876023391e-05 630699.50000000012 374709.00000000006 -1.4599999999920231e-05 11.355164194530849 795168.50000000012 9.2980062083330086 0.00022021713113585002 11.993071043069788 0.094158612352727475 498832.00000000006 1.3508050000000003 0.00042407356040285006 -9.7601400066303772e-07 0.00026189585784345003 12.428616814471896 -8.0503676904881144e-05 131.50000000000003 -1.846530355171453e-05 -6.7249999999907648e-05 1.2749350000000002 -0.22150568343449747 2.4974999999927142e-05 1.3339031250000002 865645.50000000012 1.4999999999765203e-05 10.789048499340543 1.4387815000000004 1.7332705251604337e-06 14.782013346625879
decision_type=2 2 2 2 2 2 2 2 2 2 2 2 2 2 2 2 2 2 2 2 2 2 2 2 2 2 2 2 2 2 2 2 2 2 2 2 2 2 2 2
left_child=1 2 38 4 5 8 12 11 10 -10 -4 27 -7 -8 15 29 20 19 -19 -18 21 -6 23 -13 -17 36 37 -5 -24 -9 39 -27 33 35 -35 -32 -2 -16 -1 -3
right_child=25 30 3 7 16 6 13 14 9 -11 -12 22 -14 -15 26 24 17 18 -20 -21 -22 -23 28 -25 -26 31 -28 -29 -30 -31 32 -33 -34 34 -36 -37 -38 -39 -40 -41
leaf_value=-0.10892661287373212 0.062215936525750436 -0.097246234286595332 0 -0.083961174780729439 0.16391568935197112 -0.019277138118529723 -0.062072657808674429 0.021350416769198046 0.0096284508215681679 0.15853889080875827 0.070791392176327461 -0.046296598327015152 -0.077736470144145933 0.0797482815645503 -0.0898884041728822 0.063058805397857243 -0.048465057761207381 0.059078826898101192 -0.0006804433713434075 0.099299238281532615 -0.0078176652874600554 0 0 0.039505926270869116 -4.8491034485000834e-05 0 -0.023258146406346443 0.070959749909507597 0.18316531843790543 -0.04323079663346472 0 0.18429324782854956 -0.0775851410311338 -0.086975208459815864 0.061180221750399784 0.12292292583557198 -0.048539986092459332 0 0.010824392879054207 0.015994080229887173
leaf_weight=100.10544135794044 72.289087541401386 189.43914240971208 4023.2189063802361 126.5693624317646 133.50290906056762 1397.6339786536992 47.326417483389378 135.53889370337129 330.16516855731606 139.27717403322458 234.87490240857005 129.83855096995831 402.04638596996665 198.04303020238876 363.10839199274778 309.1741691082716 240.28877683356404 805.81529379636049 426.95360073819757 39.464706137776375 38.556281805038452 30.790909647941589 17.608031556010246 601.8021802380681 417.63246113806963 22.19997987896204 785.37199721857905 16.11633125692606 53.071546293795109 787.82532084733248 80.139243695884943 55.972817055881023 82.526492729783058 84.060389395803213 30.569749683141708 47.160011146217585 55.892661817371845 36.386968709528446 9.77330833673477 7.7055985592305651
leaf_count=615 351 1824 24631 747 725 8632 299 897 2043 819 1438 775 2442 1161 2480 1851 1472 4902 2626 234 245 187 95 3401 2574 113 4915 89 275 5177 701 254 737 756 199 371 291 188 51 50
internal_value=-0.000288748 -0.00146994 0.000262737 0.00121191 0.00699851 -1.38121e-05 -0.0230342 -0.0114273 0.00969475 0.0585257 0.00390359 0.0197387 -0.0333525 0.0461509 -0.022298 -0.00605955 0.0352991 0.025784 0.0374764 -0.0208451 0.0962782 0.127381 0.0350448 0.0221797 0.025453 0.0646972 -0.0436282 -0.0549334 0.135355 -0.0322569 -0.0443775 0.138538 -0.0136335 0.0048928 -0.0354798 0.0507163 0.00444492 -0.0792003 -0.0873373 -0.0860595
internal_weight=13105.8 12899.5 12377.9 12268 8487.96 6772.59 2045.05 3780.04 4727.54 469.442 4258.09 945.006 1799.68 245.369 2835.04 1650.17 1715.37 1512.52 1232.77 279.753 202.85 164.294 802.32 731.641 726.807 206.355 1184.87 142.686 70.6796 923.364 521.601 78.1728 324.456 241.929 114.63 127.299 128.182 399.495 109.879 197.145
internal_count=81633 80624 75986 75320 51856 41465 12534 23464 28931 2862 26069 5382 11074 1460 18082 10499 10391 9234 7528 1706 1157 912 4546 4176 4425 1009 7583 836 370 6074 4638 367 2764 2027 955 1072 642 2668 666 1874
is_linear=0
shrinkage=0.13163


Tree=19
num_leaves=41
num_cat=0
split_feature=270 159 159 275 93 45 6 17 48 276 61 93 158 271 61 37 45 157 161 61 275 155 39 156 152 68 46 93 38 276 35 44 214 5 93 48 153 93 161 6
split_gain=55.7007 43.2378 41.5179 53.1594 55.0684 50.5398 40.9702 36.3216 49.3515 80.5937 56.7146 44.4054 38.8632 37.8758 59.9265 43.3716 38.3858 36.8613 35.8868 37.3671 34.9629 41.2304 33.7605 32.287 34.2553 38.5102 31.4462 31.0065 29.9786 39.2504 29.2026 28.9021 49.9399 38.7093 28.246 38.1575 35.588 26.5461 26.0866 24.8256
threshold=1.0000000180025095e-35 -0.00012137574666329998 0.00016204929327185002 0.0012630723101879004 8261.5000000000018 0.11004435939611122 0.37940952255126043 1.3493910000000002 -1.6149999999937045e-05 0.00052815279320025011 38.500000000000007 739012.00000000012 44.926432820682166 33.500000000000007 87.500000000000014 0.00012130000000005002 -0.45431516075996409 1.6237096925716647e-06 0.00026989151790135008 22.500000000000004 0.0008371233797715502 9.2706869526278945e-05 9.599999999887478e-06 -0.033761654114153945 54.914547635909038 101.86669719924782 0.00013212500000010002 596238.50000000012 2.7502903876023391e-05 0.0011096775312277503 1.4440531000000003 1.3449287500000005 -0.00025702082766684999 0.12940952255126059 789506.50000000012 -6.9749999998536252e-06 0.00028234242739170009 414373.50000000006 0.00045678751117895008 -0.12940952255126034
decision_type=2 2 2 2 2 2 2 2 2 2 2 2 2 2 2 2 2 2 2 2 2 2 2 2 2 2 2 2 2 2 2 2 2 2 2 2 2 2 2 2
left_child=1 7 3 4 -3 23 31 11 10 17 12 13 -9 15 16 22 -15 -10 19 26 21 -12 37 -4 25 -25 -7 28 -20 -30 -29 32 -6 -33 35 -8 -36 -1 -14 -18
right_child=-2 2 5 -5 6 18 34 8 9 -11 20 -13 38 14 -16 -17 39 -19 27 -21 -22 -23 -24 24 -26 -27 -28 30 29 -31 -32 33 -34 -35 36 -37 -38 -39 -40 -41
