tree
version=v4
num_class=1
num_tree_per_iteration=1
label_index=0
max_feature_idx=279
objective=binary sigmoid:1
feature_names=Open High Low Close Volume hour_sin hour_cos valid_hour SMA_9 SMA_9_pct_distance SMA_9_slope_diff5 SMA_9_slope_diff SMA_9_slope_grad SMA_9_direction SMA_9_cross SMA_9_percentile SMA_9_up_ratio_5 SMA_20 SMA_20_pct_distance SMA_20_slope_diff5 SMA_20_slope_diff SMA_20_slope_grad SMA_20_direction SMA_20_cross SMA_20_percentile SMA_20_up_ratio_5 SMA_50 SMA_50_pct_distance SMA_50_slope_diff5 SMA_50_slope_diff SMA_50_slope_grad SMA_50_direction SMA_50_cross SMA_50_percentile SMA_50_up_ratio_5 SMA_100 SMA_100_pct_distance SMA_100_slope_diff5 SMA_100_slope_diff SMA_100_slope_grad SMA_100_direction SMA_100_cross SMA_100_percentile SMA_100_up_ratio_5 SMA_200 SMA_200_pct_distance SMA_200_slope_diff5 SMA_200_slope_diff SMA_200_slope_grad SMA_200_direction SMA_200_cross SMA_200_percentile SMA_200_up_ratio_5 RSI rsi_change rsi_slope rsi_slope_std_5 rsi_slope_std_10 rsi_rolling_mean rsi_std rsi_zscore rsi_above_65_duration rsi_below_45_duration CCI cci_change cci_slope cci_slope_std_5 cci_slope_std_10 cci_rolling_mean cci_std cci_zscore cci_above_100_duration cci_below_minus100_duration cci_to_100 MACD_Line MACD_Signal MACD_Histogram macd_line_pct_change macd_hist_pct_change macd_line_zscore macd_hist_zscore macd_cross_signal macd_hist_direction macd_hist_slope macd_hist_slope_std_10 macd_hist_slope_std_5 MACD_Line_Slope MACD_Line_Slope_std_10 MACD_Line_Slope_std_5 adx adx_slope adx_slope_std_10 adx_slope_std_5 OBV obv_change obv_pct_change obv_slope pain_ratio gain_ratio feat_c1_lt_pre_s9 feat_c0_gt_s9 feat_o1_gt_c1 feat_o0_lt_c0 feat_c1_lt_pre_s20 feat_c0_gt_s20 feat_cross_above_s9 feat_cross_above_s20 feat_cross_below_s9 feat_cross_below_s20 gk pn MACD_Histogram1 MACD_Signal1 MACD_Line1 MACD_Histogram2 MACD_Signal2 MACD_Line2 MACD_Histogram3 MACD_Signal3 MACD_Line3 MACD_Histogram4 MACD_Signal4 MACD_Line4 OC_ratio OC_ratio_1 OC_ratio_2 OC_ratio_3 OC_ratio_4 Close_Change_1 RSI_Change_1 Close_Change_2 RSI_Change_2 Close_Change_3 RSI_Change_3 Close_Change_4 RSI_Change_4 volume_z volume_slope RSI_Slope_15min MACD_Slope_15min RSI_Mean_15min MACD_Mean_15min RSI_Std_15min MACD_Std_15min RSI_Slope_1hr MACD_Slope_1hr RSI_Mean_1hr MACD_Mean_1hr RSI_Std_1hr MACD_Std_1hr RSI_Slope_4hr MACD_Slope_4hr RSI_Mean_4hr MACD_Mean_4hr RSI_Std_4hr MACD_Std_4hr RSI_Slope_1day MACD_Slope_1day RSI_Mean_1day MACD_Mean_1day RSI_Std_1day MACD_Std_1day BB_Lower BB_Upper BB_Mid BB_Width BB_Percent BB_Close_Dist_Mid BB_Close_Dist_Lower BB_Close_Dist_Upper BB_Mid_Slope BB_Is_Squeeze BB_Expansion BB_Width_shift_1 BB_Pct_Width_shift_1 BB_Close_Dist_Mid_shift_1 candle_body upper_wick lower_wick candle_range momentum_unbalance wick_dominance range_spike price_surge PGI_alt BB_Width_shift_2 BB_Pct_Width_shift_2 BB_Close_Dist_Mid_shift_2 BB_Width_shift_3 BB_Pct_Width_shift_3 BB_Close_Dist_Mid_shift_3 BB_Width_shift_4 BB_Pct_Width_shift_4 BB_Close_Dist_Mid_shift_4 log_returns volatility_5 skewness kurtosis volatility_20 skewness_20 kurtosis_20 volatility_10 skewness_10 kurtosis_10 price_slope price_slope_std_20 price_slope_std_1 drawdown max_drawdown velocity xtopher acceleration smoothed_velocity_5 smoothed_acceleration_5 cum_log_returns returns rolling_std god_oscillator range_5 range_10 bullish_engulf bearish_engulf pin_bar inside_bar outside_bar cluster_10 range_5_lag1 range_5_lag2 range_5_lag3 range_5_lag4 range_5_lag5 range_10_lag1 range_10_lag2 range_10_lag3 range_10_lag4 range_10_lag5 bullish_engulf_lag1 bullish_engulf_lag2 bullish_engulf_lag3 bullish_engulf_lag4 bullish_engulf_lag5 bearish_engulf_lag1 bearish_engulf_lag2 bearish_engulf_lag3 bearish_engulf_lag4 bearish_engulf_lag5 pin_bar_lag1 pin_bar_lag2 pin_bar_lag3 pin_bar_lag4 pin_bar_lag5 inside_bar_lag1 inside_bar_lag2 inside_bar_lag3 inside_bar_lag4 inside_bar_lag5 outside_bar_lag1 outside_bar_lag2 outside_bar_lag3 outside_bar_lag4 outside_bar_lag5 cluster_10_lag1 cluster_10_lag2 cluster_10_lag3 cluster_10_lag4 cluster_10_lag5 SMA_9_lt_SMA_20 BoS_Up BoS_Down Double_Top Double_Bottom Candles_Since_BB_Upper Candles_Since_BB_Lower entry_price stop_loss_price stop_loss_distance sl_ratio_to_entry side volatility pair
feature_infos=[1.2047600000000001:1.4788399999999999] [1.2049700000000001:1.4793400000000001] [1.20424:1.4788300000000001] [1.20479:1.4790300000000001] [7:5217] [-1:1] [-1:0.86602540378443871] none [1.20546:1.4787044444444446] [-0.41054353208672539:0.58478839893459467] [-0.0053588888888889:0.0073499999999999] [-0.00080047687984330005:0.0013885288706527001] [-0.0010511111111110999:0.0017872222222222] [-1:1] [-1:1] [0:80] [0:1] [1.206151:1.4782569999999999] [-0.58074902846746823:0.95512250205310856] [-0.0030940000000001001:0.0036994999999998999] [-0.00047954374299169998:0.00062844584130779995] [-0.00063225:0.00080625] [-1:1] [-1:1] [0:80] [0:1] [1.2067858:1.4763378] [-0.75935607713957243:1.1519963474854649] [-0.0015225999999999001:0.0015724000000001] [-0.00024330979125829999:0.00026235043988699999] [-0.00030679999999999998:0.00033819999999999998] [-1:1] [-1:1] [0:80] [0:1] [1.2070566:1.4744526999999998] [-0.86658511706411578:1.1954374266839456] [-0.00092749999999989998:0.0017936] [-0.00014571852479849999:0.00025617925628980003] [-0.0001886:0.0003769] [-1:1] [-1:1] [0:80] [0:1] [1.20740165:1.4713809499999999] [-1.0585430636830933:1.5641095409332482] [-0.00067220000000010004:0.00076354999999999999] [-9.931377216458e-05:0.00010590371138420001] [-0.00013822500000000001:0.0001528249999999] [-1:1] [-1:1] [0:80] [0:1] [7.8338773884540416:96.114341462442241] [-8.3495818216808786:47.053390774872163] [-24.534243691164171:25.560347927637395] [0.029885439319813401:16.805089821707995] [0.3933313640787291:12.551722033640742] [8.5473467923797521:94.240148363812921] [0:26.050628511442909] [-3.4405052347671834:3.9148522765785878] [0:401] [0:200] [-455.33293658659198:662.32214619301374] [-326.19521197672805:770.12179617073889] [-388.03908048597867:315.06982141248591] [0.50620257878038621:244.86291746241943] [2.5827660110839008:172.80167909123932] [-321.38500124008846:331.98883272134589] [0.74149996714809407:358.9796086293814] [-1.7881752045234642:1.7879035360114892] [0:205] [0:201] [0:555.33293658659204] [-0.0030529645961493998:0.0039616133584532004] [-0.0027217585539696999:0.0030336195954320999] [-0.0010187196623333999:0.0016020797363615999] [-12182.965286558829:3543.1511105205491] [-4741.6649081496971:8949.9109207960209] [-1.5990885552941549:1.78009499094208] [-1.6189434658697943:1.7779544762476251] [0:1] [-1:1] [-0.0002451188676713:0.0006147472163153] [5.1750785245095666e-07:0.0002303403231247] [2.4376323894179576e-07:0.00024917394790820001] [-0.0003679792983403:0.0008079024779817] [9.8985682849337777e-07:0.00026305988565259998] [1.7089535870965119e-07:0.00033593953691559998] [5.3388872391182458:78.094098955640888] [-4.4695817107635136:4.7656019727258938] [0.054721940873851203:2.6731426701049577] [0.0063006324728480997:2.6917373838630883] [-7067:925454] [-4531:5217] [-15.266666666666667:2.5339805825242721] [-2878.5:3650] [-1799.8905009581902:5347.1202991439704] [-4533.9470655927362:5937.3114244694052] [0:1] [0:1] [0:1] [0:1] [0:1] [0:1] [0:1] [0:1] [0:1] [0:1] [0:1] [0:1] [-0.001098034971941:0.0014146943827548001] [-0.0027217585539696999:0.0028016211546769] [-0.0030529645961493998:0.0039480794539387999] [-0.001098034971941:0.0014276084438942999] [-0.0027217585539696999:0.0025150065798614] [-0.0030524980045270001:0.0039426150237558003] [-0.0010495192549168999:0.0016020797363615999] [-0.0027217585539696999:0.0024167429196993999] [-0.0030524980045270001:0.0037601842052494001] [-0.001098034971941:0.0014146943827548001] [-0.0027128895310385998:0.0024228092451162001] [-0.0030529645961493998:0.0031722789175522999] [-0.0013924478244032:0.0059586581219903002] [-0.0048531129701209:0.0059586581219903002] [-0.0048531129701209:0.0059586581219903002] [-0.0037825903438422001:0.0053413822155694004] [-0.0046672296000613003:0.0059586581219903002] [-0.0001049843331072:0.0059512396572320003] [-8.3495818216808786:47.053390774872163] [-0.0048845122544023001:0.0060987301072255003] [-41.685567537728431:51.120695855274789] [-0.0049859280803392003:0.0065117033672068003] [-48.438119215574659:50.90094337009819] [-0.0053835906276936:0.0062297257446178997] [-49.108205368266908:50.256263795343898] [-1.7868178961805967:1.7888543819995542] [-2014.5:2293.5] [-16.146039738524887:16.966981123366065] [-0.00038883057751879998:0.00051662165150550003] [7.9327320570980646:94.872964690326157] [-0.0030374274855563001:0.0039507692787159] [0:28.413289433987721] [3.3839529319739402e-08:0.0005644303926564] [-4.8018265793816921:5.3048165791503159] [-0.0002617657762795:0.0003250166380487] [11.263070243933155:87.884986777470132] [-0.0028153657538767:0.0024925900778380999] [0.74342588102254881:24.862612604462687] [2.5732292933020122e-06:0.0014787930717796] [-1.4576481282856255:1.4020856233599048] [-9.65854898163689e-05:9.599248845816126e-05] [19.942601498599618:77.717332147128673] [-0.0016520257577418999:0.0026967374457813002] [3.0904354298954058:24.557085265182138] [1.5586055455362426e-05:0.0019593739912840999] [-0.24184461825259651:0.26043873267816758] [-1.5626459243010969e-05:1.5959185522230869e-05] [38.906896353282491:62.202077696108027] [-0.00075152022949530003:0.00069158662694129998] [6.5324621486895165:17.695470648609717] [7.8222998782588791e-05:0.0016911558480285] [1.2042510811009697:1.4770514942832871] [1.206831040691156:1.4802932960293211] [1.206151:1.4782569999999999] [0.00015184201959599999:0.026024070320742099] [-0.27053769642404391:1.580550662522747] [-0.0076925000000001003:0.013398] [-0.0019020219187713:0.025153860836801802] [-0.0040615150085554002:0.0170919550373318] [-0.0006355:0.00088100000000010002] [0:1] [-0.72482418064740828:6.4700307819408396] [0.00015184201959599999:0.025504150565315499] [0.0001118633417807:0.018163382999358699] [-0.0088059999999998001:0.010939000000000001] [0:0.0080800000000000004] [0:0.0040400000000000002] [0:0.0050699999999999001] [1.0000000000065512e-05:0.0093199999999998995] [-5:5] [0:2569999.9999999609] [0.032102728732152697:11.797676008202757] [-4.5531914893616152:5.8926174496642858] [-16.46229684265564:3083999.3530105404] [0.00015184201959599999:0.024851093417748601] [0.0001118633417807:0.0177067228918249] [-0.0092010000000002003:0.0097165000000001001] [0.00015184201959599999:0.023511721673603599] [0.0001118633417807:0.016761139298752399] [-0.0092010000000002003:0.013398] [0.00015184201959599999:0.020274061853910501] [0.0001118633417807:0.014637564736706301] [-0.0088059999999998001:0.010939000000000001] [-0.000104989844348:0.0059336009772477999] [0:0.0026782221529638999] [-2.2360679770643257:2.2360679775559111] [-3.3333333038383799:5.00000002294815] [3.5862765203839362e-05:0.0013511344619160999] [-4.2446102087549376:4.3951876523370386] [-1.7892510192715938:19.525005257289632] [1.5483337116013443e-05:0.0019068830843271] [-3.0703533346485439:3.1337693123835928] [-2.3950071964577324:9.8688574634542903] [-0.0035414050467913998:0.0047143931777144004] [2.3144181762404407e-05:0.0010733694691017] [8.5412505072142426e-06:0.0015081754845774] [-0.0053835906276936:0] [-0.0065939970829812997:0] [-0.00014999999999999999:0.0080700000000000008] [-11165.378440772254:11821.07672883932] [-0.0078700000000000003:0.0084499999999999992] [-0.0015839999999998999:0.0020039999999999] [-0.0015199999999998999:0.0015859999999999] [-0.055141738315855802:0.11146946532207749] [-0.0001049843331072:0.0059512396572320003] [0:0.0026858819408774001] [-21720767.423143558:31502623.849462703] none none [0:1] [0:1] [0:1] [0:1] [0:1] none none none none none none none none none none none [0:1] [0:1] [0:1] [0:1] [0:1] [0:1] [0:1] [0:1] [0:1] [0:1] [0:1] [0:1] [0:1] [0:1] [0:1] [0:1] [0:1] [0:1] [0:1] [0:1] [0:1] [0:1] [0:1] [0:1] [0:1] none none none none none [0:1] [0:1] [0:1] [0:1] [0:1] [0:198] [0:176] [1.2049700000000001:1.4793400000000001] [1.2041283242309413:1.4767328519419849] [0.00050000280183380003:0.0034965882292731999] [0.000346922451986:0.0027630894257557998] none [0.0001250007004584:0.00087414705731829999] -1:0:1
tree_sizes=3820 3865 3907 3904 3844 3875 3875 3860 3853 3838 3849 3825 3825 3871 3868 3846 3791 3840 3820 3832 3842 3867 3828 3803 3811 3822 3803 3792 3866 3840 3887 3810 3788 3842 3820 3787 3833 3799 3813 3800 3155 3823 3828 3804 3822 3826 3820 3819 3374 3751 3818 3868 3810 3866 3789 3838 3834 3824 3827 3843 3836 3059 3821 3817 3771 3806 3808 3751 3819 3842 2736 3470 3842 3865 3795 3853 3806 3821 3365 3797 3828 3474 3773 3810 2809 3824 3828 3818 3787 3799 3852 3797 3859 3817 3806 3841 3836 3790 3770 3813

Tree=0
num_leaves=34
num_cat=0
split_feature=55 55 55 269 204 128 269 177 211 55 123 96 211 55 177 270 211 210 55 177 55 123 86 111 140 55 177 175 182 214 71 170 269
split_gain=3132.93 678.25 537.607 246.889 177.248 175.599 138.246 134.851 116.258 108.492 97.3201 83.4066 73.7719 64.4833 64.4349 63.2393 48.4673 47.173 42.9964 41.5507 37.744 37.3824 36.3176 33.4566 33.1822 32.0645 32.018 29.8044 28.5511 27.0943 26.8956 26.7703 25.563
threshold=0.80575101807052552 -2.0387602713276158 2.9146724602863743 1.0000000180025095e-35 0.00013033394742765003 0.00014878120788535003 1.0000000180025095e-35 0.00015499999999995002 0.00066000000000020003 -4.0847261929876781 0.00016920527999385004 112.75000000000001 0.00046999999999980006 -0.66316616961399066 0.00013999999999990002 1.0000000180025095e-35 0.00013000000000000004 107.18487568007932 0.028083356299861206 0.00020000000000005002 4.7190785137640523 6.0724751023519162e-05 -2.9035022648227212e-05 -8.8076985721325705e-05 42.59403644407751 4.5842369160165601 0.00030499999999995006 -0.00014600000000004998 1.6382615641565719 -0.0056162885658835498 9.5000000000000018 1.0500000000246425e-05 1.0000000180025095e-35
decision_type=2 2 2 2 2 2 2 2 2 2 2 2 2 2 2 2 2 2 2 2 2 2 2 2 2 2 2 2 2 2 2 2 2
left_child=1 6 5 7 8 15 9 10 16 22 13 28 25 -3 -11 19 -4 -18 26 21 23 -2 -1 -14 -12 31 -9 -16 29 -7 -24 -6 -10
right_child=2 3 4 -5 12 11 -8 18 32 14 24 -13 20 -15 27 -17 17 -19 -20 -21 -22 -23 30 -25 -26 -27 -28 -29 -30 -31 -32 -33 -34
leaf_value=-0.067598841898180606 0.30118717665175587 0.17952665889525676 0.35243049014116568 -0.0052446901320745143 0.34351716507369517 0.24124715494649948 -0.082329082720846769 0.13274067183074914 0.20565250792682704 0.12030624252601441 0.0038411514177036088 0.2526253840072552 0.22991185560439092 0.22780300767640699 -0.017335045250652964 0.40100307168628435 0.21954787092253997 0.31325931822268166 0.17757741462389759 0.22700826547709471 0.37600424445446023 0.25689244684626888 0.062498819943686085 0.338221968517607 0.14327068630263828 0.44692601395521481 0.062148911992772837 0.073925797179931252 0.10098803035418985 0.16862466055638059 -0.040684468749233482 0.43032440990524523 -0.087377645271767501
leaf_weight=179.83654177188873 1561.7123861014843 1738.8316174894571 955.01108583807945 270.98995374143124 295.69277541339397 243.81684990227222 227.01893116533756 866.32795603573322 291.98735216259956 1237.8583939820528 68.426816031336784 837.17862646281719 148.95801468193531 2327.2528297156096 192.1879526078701 142.28825283050537 236.65303161740303 1052.8342596590519 563.47136233747005 607.68941313028336 596.82017159461975 1221.3075034618378 321.13668173551559 329.53564110398293 597.56125624477863 542.2269356995821 315.20800453424454 389.81052598357201 164.52079233527184 763.31718966364861 126.72547517716885 225.04270543158054 11.11626975238323
leaf_count=728 6322 7039 3866 1097 1197 987 919 3507 1182 5011 277 3389 603 9421 778 576 958 4262 2281 2460 2416 4944 1300 1334 2419 2195 1276 1578 666 3090 513 911 45
internal_value=0.218975 0.140077 0.291663 0.172112 0.338951 0.251679 0.0592526 0.179532 0.305157 0.0723847 0.19615 0.206907 0.379213 0.207158 0.0958359 0.277136 0.320046 0.296061 0.134467 0.271938 0.344188 0.281749 0.00439405 0.304504 0.128945 0.414645 0.113908 0.0437896 0.17424 0.186206 0.0333024 0.381032 0.194906
internal_weight=19650.4 9422.64 10227.7 6748.07 4685.88 5541.83 2674.57 6477.08 2547.6 2447.56 4732.07 2008.83 2138.28 4066.08 1819.86 3533 2244.5 1289.49 1745.01 3390.71 1075.31 2783.02 627.699 478.494 665.988 1062.96 1181.54 581.998 1171.65 1007.13 447.862 520.735 303.104
internal_count=79547 38144 41403 27317 18969 22434 10827 26220 10313 9908 19156 8132 8656 16460 7367 14302 9086 5220 7064 13726 4353 11266 2541 1937 2696 4303 4783 2356 4743 4077 1813 2108 1227
is_linear=0
shrinkage=1


Tree=1
num_leaves=34
num_cat=0
split_feature=55 55 55 54 269 204 177 217 269 177 211 169 54 55 55 55 55 55 176 269 177 11 55 111 270 269 64 54 54 159 211 54 182
split_gain=2077.74 443.696 396.617 181.325 158.254 128.957 103.83 97.3215 68.4751 67.5555 64.5257 52.6761 51.7176 45.0426 43.9717 42.7083 38.0805 37.4723 37.2372 36.4581 34.398 33.0813 32.5073 31.7564 31.5917 30.9647 30.2154 30.1717 29.9462 27.6044 27.581 25.7982 25.4913
threshold=0.47486157397818302 2.7340965182321288 -2.7527457563823581 3.6537667867391517 1.0000000180025095e-35 9.6854923937761739e-05 0.00011499999999990001 191529.31661443252 1.0000000180025095e-35 0.00010500000000000002 0.0005500000000001001 0.00063038015612925009 2.1745935763653361 -0.72891084093762604 -0.66316616961399066 4.5842369160165601 7.1510536416033057 -6.1246074220879576 0.00016000000000000001 1.0000000180025095e-35 0.00016000000000000001 -2.571071937155663e-06 1.3084325785950812 -8.8076985721325705e-05 1.0000000180025095e-35 1.0000000180025095e-35 30.87539849767418 1.951186495868001 5.8480410239851546 1.8776678462081713e-05 1.0000000180025095e-35 7.471632020610099 0.71129707112974561
decision_type=2 2 2 2 2 2 2 2 2 2 2 2 2 2 2 2 2 2 2 2 2 2 2 2 2 2 2 2 2 2 2 2 2
left_child=2 3 8 9 6 7 12 25 11 24 15 17 13 -4 21 23 26 -1 -16 28 30 -8 -11 -7 29 31 -12 -24 -5 -2 -9 -3 -6
right_child=1 5 4 19 32 10 14 20 -10 22 16 -13 -14 -15 18 -17 -18 -19 -20 -21 -22 -23 27 -25 -26 -27 -28 -29 -30 -31 -32 -33 -34
leaf_value=-0.22048334064531389 0.075778278147892453 0.061972991193895467 -0.031626655276103553 -0.0090884937144468728 -0.069961162372702473 0.046636121626201434 -0.12696250945798729 0.14360791101734485 -0.26634781827211729 -0.013352775024326722 0.1018835011903178 -0.18410647703007763 -0.060903320033021548 0.01559433040683663 -0.027585974771325975 0.18201016240150208 0.16257737644498899 -0.09980367638413877 -0.11070231037097832 -0.1761362775118529 0.02607164070327711 -0.067973754412768081 0.055986453593812872 0.13773127560118137 0.15907274199746063 -0.26341349761343297 0.029408248311824869 -0.0096638561255033666 -0.063998860069899757 0.034006780821671821 0.082850796100916668 -0.02543157899391673 -0.20777507744821003
leaf_weight=103.15479438006878 1236.2504630237818 180.21877874433994 1687.4629171192646 1011.8571861237288 59.724304363131523 170.04516710340977 653.46651729941368 355.65306435525417 166.46776010096073 868.48574890196323 473.49542601406574 577.39714272320271 1014.6865803152323 1276.0750639438629 891.16004286706448 739.4636402875185 198.44150990247726 900.48890987038612 247.80123616755009 62.552086055278778 289.09623451530933 717.40301908552647 793.35437199473381 722.63949435949326 113.46896125376225 16.143607452511787 367.52463498711586 368.89683423936367 552.23250253498554 1054.4503461569548 1100.0039090514183 372.62109921872616 251.9173572063446
leaf_count=413 5035 736 6796 4096 239 699 2624 1465 667 3522 1945 2314 4090 5169 3592 3090 821 3610 997 252 1186 2881 3231 2986 470 65 1510 1499 2226 4295 4509 1509 1008
internal_value=0.000155545 0.0544803 -0.0700569 0.0200095 -0.0493454 0.0963925 -0.0430041 0.0636148 -0.150647 0.0398756 0.124779 -0.138465 -0.0239471 -0.0112937 -0.0732105 0.148302 0.0878452 -0.112207 -0.0456694 -0.0341539 0.0858276 -0.0960925 0.0144063 0.120379 0.0613889 -0.00449943 0.0702119 0.0351491 -0.0284757 0.0565501 0.0976953 0.0030612 -0.181364
internal_weight=19594.1 11046.9 8547.21 6061.55 6799.7 4985.35 6488.06 2313.74 1747.51 4434.91 2671.61 1581.04 3978.22 2963.54 2509.83 1632.15 1039.46 1003.64 1138.96 1626.64 1744.75 1370.87 2030.74 892.685 2404.17 568.983 841.02 1162.25 1564.09 2290.7 1455.66 552.84 311.642
internal_count=79547 45147 34400 24626 27396 20521 26149 9470 7004 18052 11051 6337 16055 11965 10094 6775 4276 4023 4589 6574 7160 5505 8252 3685 9800 2310 3455 4730 6322 9330 5974 2245 1247
is_linear=0
shrinkage=0.189659


Tree=2
num_leaves=34
num_cat=0
split_feature=96 204 177 83 204 270 86 95 204 177 96 124 86 182 270 65 124 204 204 124 86 204 214 270 270 65 177 275 96 84 124 90 94
split_gain=1102.39 353.611 145.236 134.732 109.641 107.813 106.615 73.591 68.1012 62.7256 59.2606 57.1929 46.6656 44.9081 42.4424 40.3089 37.4254 46.0949 36.4936 48.0123 34.6705 31.5754 30.0403 28.729 28.4435 28.0948 27.9148 25.9295 25.5402 22.1876 21.4127 20.8095 20.2425
threshold=83.750000000000014 -6.8673635882544006e-05 0.00016000000000000001 -1.5343875048797143e-05 0.00019815172978175001 1.0000000180025095e-35 -3.6505774823614163e-06 0.00018274494714840003 6.9567101639438305e-06 0.00017999999999990005 -131.74999999999997 -0.00023031567516509997 1.6575394975626437e-05 1.1149032992036376 1.0000000180025095e-35 -16.621941201004599 9.9405478807439431e-05 -0.00014560891319264998 3.6100211722334817e-05 0.00011763284489655001 2.4156786914142362e-05 -0.00014560891319264998 -0.019291953299618598 1.0000000180025095e-35 1.0000000180025095e-35 -59.667807948464251 0.00085499999999990011 0.00050533515255075012 189.25000000000003 3.5221077498836792e-06 3.9190174241918002e-05 -1.1620188096398605 435.50000000000006
decision_type=2 2 2 2 2 2 2 2 2 2 2 2 2 2 2 2 2 2 2 2 2 2 2 2 2 2 2 2 2 2 2 2 2
left_child=1 3 4 25 12 6 13 10 26 16 -8 23 14 15 27 -3 17 -5 -14 -20 24 -18 -11 -6 -10 -1 28 -2 32 -9 -24 -15 -4
right_child=2 5 8 9 11 -7 7 29 20 22 -12 -13 18 31 -16 -17 21 -19 19 -21 -22 -23 30 -25 -26 -27 -28 -29 -30 -31 -32 -33 -34
leaf_value=-0.22980129299945545 -0.13020922837210736 -0.058916593344168648 -0.018624120307050344 -0.13421651847026395 0.077195925600384976 0.11670422298220591 -0.045946324291428406 -0.18774989901036002 0.002778060302751616 -0.0032103011258668734 0.052505450494015345 0.18894740669699853 0.058147868629945865 0.015067049247913536 0.1540614084625041 -0.010009783490087661 -0.048836326022361945 -0.050585802397184229 0.086980916293552674 0.19171955275024033 0.073618875961462354 -0.00035973801534039813 -0.1782517404683798 0.20845808431816723 0.17059132505148911 -0.12797474735874784 -0.32084360085777869 0.035884847646191216 -0.01050634436496296 -0.01378895811440185 -0.099255403668358375 -0.096537840318890553 -0.16264269899086095
leaf_weight=112.17157885432243 34.480283737182617 893.36355836689472 60.320616438984871 322.9633112847805 471.88292969763279 243.76302169263363 256.73557175695896 26.788047879934311 710.86283184587955 100.04624053835869 1533.6309662014246 393.1831492036581 1360.5430146604776 68.004603758454323 110.00356136262417 1885.790578737855 1306.3982113152742 891.32438053190708 973.15035511553288 187.81188410520554 563.76298999786377 767.12072224915028 149.50284169614315 68.710792601108551 38.287730291485786 743.43036283552647 12.392080172896383 1736.4442829787731 440.54473759233952 1700.2692033052444 707.59656302630901 516.70494289696217 83.980612114071846
leaf_count=454 143 3589 245 1297 1972 1013 1032 109 2935 402 6286 1694 5620 274 466 7642 5256 3581 4072 795 2360 3098 601 290 161 2990 50 7177 1795 6879 2845 2086 338
internal_value=0.000200436 -0.034542 0.0588157 -0.072665 0.0748803 -0.00725125 -0.0116423 0.011444 0.0139378 -0.0588261 0.0383876 0.13391 0.0623599 -0.0357824 0.0397515 -0.025731 -0.0463869 -0.072829 0.0792247 0.103925 0.0380908 -0.0309019 -0.101555 0.0938797 0.0113547 -0.141324 -0.0391581 0.032651 -0.0331896 -0.0164872 -0.113035 -0.0835576 -0.10244
internal_weight=19472 12225.6 7246.36 5100.55 5336.21 7125.05 6881.29 3517.42 1910.15 4244.95 1790.37 933.777 4402.43 3363.86 1880.93 2779.15 3287.81 1214.29 2521.51 1160.96 1312.91 2073.52 957.146 540.594 749.151 855.602 597.238 1770.92 584.846 1727.06 857.099 584.71 144.301
internal_count=79547 49434 30113 20524 22229 28910 27897 14306 7884 17080 7318 3956 18273 13591 7786 11231 13232 4878 10487 4867 5456 8354 3848 2262 3096 3444 2428 7320 2378 6988 3446 2360 583
is_linear=0
shrinkage=0.189659


Tree=3
num_leaves=34
num_cat=0
split_feature=217 269 204 86 269 65 94 96 204 270 124 204 204 177 177 124 83 86 86 211 179 76 211 95 88 17 182 48 177 148 195 48 204
split_gain=785.677 251.309 167.637 144.336 115.367 104.934 66.8554 107.725 52.8123 48.0691 43.9563 50.0212 40.9742 40.4462 30.4131 27.5702 26.1394 25.4365 25.1222 22.9235 22.2731 22.105 21.2338 20.1759 20.0385 18.5314 15.8072 14.116 13.7532 13.2383 11.7557 11.6217 15.7535
threshold=181939.25911533597 1.0000000180025095e-35 -2.5906620016767026e-05 -1.492537602598709e-05 1.0000000180025095e-35 43.408678538074291 131.50000000000003 -123.24999999999999 0.00015277380954020002 1.0000000180025095e-35 -5.736050514136137e-05 -0.00033143938011024997 0.00013033394742765003 0.00011499999999990001 0.00025499999999995009 -0.00041538714957779993 -8.0132818109090619e-06 5.2818711776536642e-07 1.0503252558247135e-05 -0.00013999999999989997 0.00020999999999990002 -0.00010893370543554999 0.00044499999999990007 0.0016076558341726001 1.6587226436261579e-05 1.4426652500000003 0.72093023255818289 3.3149999999981812e-05 4.4999999999961744e-05 4.1150822566690959 0.00012190578024920001 1.1000000000038758e-05 -0.00019078888867704997
decision_type=2 2 2 2 2 2 2 2 2 2 2 2 2 2 2 2 2 2 2 2 2 2 2 2 2 2 2 2 2 2 2 2 2
left_child=1 2 3 14 5 9 7 21 23 13 30 -12 -9 18 19 -8 -15 29 -2 -1 -3 -4 -19 24 -7 -17 -6 -16 -25 -10 -5 32 -22
right_child=4 20 6 10 26 8 15 12 17 -11 11 -13 -14 16 27 25 -18 22 -20 -21 31 -23 -24 28 -26 -27 -28 -29 -30 -31 -32 -33 -34
leaf_value=-0.038962901964620274 0.02695676790445661 -0.049405745751433833 -0.1152578710289251 -0.0087253059936837837 0.060015298570678097 0.049686929591120643 -0.076972299588471446 0.022010280096679442 -0.18992897640048428 0.1333858220848167 -0.084452317376903493 -0.016696222795360947 0.076187267133127942 -0.041825210152643975 -0.17775197984809721 -0.014167545346483778 0.021522583887670241 0.19047335081451172 0.062374403833596749 -0.09960470922372093 -0.2021811598599064 -0.029581983181726799 0.1161591519303463 0.076523157842524905 0.10253197442940795 -0.2084516426944564 -0.20111069214347851 -0.021620104055379057 -0.005177876471076189 0.072661109389963979 -0.10160667479270173 -0.21543093111540412 -0.11610543663508231
leaf_weight=294.16823568940163 1223.2726682275534 60.415250897407532 130.40449623763561 57.039351463317871 9.3894052356481534 470.30722945928574 325.27191354334354 1814.3086670488119 7.2591538131237021 180.65510842204094 434.34208406507969 4013.3233219981194 694.30349373817444 271.01489633321762 198.88760069012642 1567.7193537354469 1729.7016583383083 241.60471132397652 1752.3425448536873 943.04585158824921 129.22125053405762 639.70992386341095 323.46564401686192 116.00289550423622 572.06501837074757 17.860713377594948 74.520313948392868 23.265926405787468 205.23678204417229 141.90911871194839 348.45651505887508 149.25737610459328 187.40099821984768
leaf_count=1188 5081 246 524 229 38 1991 1316 7418 31 797 1746 16152 2903 1107 808 6332 7180 1103 7382 3810 536 2568 1416 493 2428 72 305 94 864 612 1399 614 764
internal_value=0.000219476 -0.0295932 -0.0237291 -0.0444894 0.0492168 0.0517812 0.00152338 0.0179571 0.087765 0.0372826 -0.0287631 -0.023313 0.0370047 0.0337938 -0.0967879 -0.0266744 0.0129416 0.129544 0.0478142 -0.0851861 -0.157752 -0.0440896 0.147933 0.0658819 0.0786889 -0.0163561 -0.171891 -0.1614 0.0243252 0.0598823 -0.0885415 -0.171802 -0.151235
internal_weight=19347.1 12028.4 11502.1 6312.53 7318.75 7234.84 5189.58 3278.73 2077.85 5156.99 4853.16 4447.67 2508.61 4976.33 1459.37 1910.85 2000.72 714.239 2975.62 1237.21 526.295 770.114 565.07 1363.61 1042.37 1585.58 83.9097 222.154 321.24 149.168 405.496 465.88 316.622
internal_count=79547 48719 46559 25426 30828 30485 21133 13413 8938 21547 19526 17898 10321 20750 5900 7720 8287 3162 12463 4998 2160 3092 2519 5776 4419 6404 343 902 1357 643 1628 1914 1300
is_linear=0
shrinkage=0.189659


Tree=4
num_leaves=34
num_cat=0
split_feature=55 55 269 55 54 54 159 177 177 274 93 54 177 54 167 55 63 204 55 159 175 124 93 177 55 26 54 276 204 55 177 0 270
split_gain=740.36 245.14 98.5288 83.0458 94.562 81.8629 74.3374 60.6778 48.9205 43.547 44.9536 42.4907 35.4816 37.1493 30.7833 29.5319 28.1741 25.7012 23.2104 21.1691 21.554 20.7317 20.6483 20.5192 20.4278 20.38 20.1143 19.1359 18.0581 17.9694 17.7791 17.5137 17.1418
threshold=1.8052446100712685 -2.1967583006836828 1.0000000180025095e-35 4.37088935730345 7.7583115349019538 1.8876456148332896 0.00015134341018600001 0.00031999999999990006 0.00013999999999990002 1.4430849097794847 896736.50000000012 1.7892601458111772 8.5000000000001754e-05 6.266845757648313 0.00010950000000005001 -3.9299008564071443 -39.660106392239946 -2.340394912218812e-05 7.4695152595548615 3.5840296456280777e-05 -0.00028749999999979991 9.65985543674128e-05 664278.50000000012 0.00021999999999995003 -3.7882525055719305 1.4426656000000002 1.8217309019085024 0.0012907451952101003 0.00019392922791825002 2.8761281645689647 0.00075499999999990017 1.2229950000000003 1.0000000180025095e-35
decision_type=2 2 2 2 2 2 2 2 2 2 2 2 2 2 2 2 2 2 2 2 2 2 2 2 2 2 2 2 2 2 2 2 2
left_child=1 8 6 5 18 14 7 11 19 10 -8 -3 29 16 25 -10 -14 -6 23 20 -1 28 -9 -5 -22 32 -21 -11 -19 -7 -16 -31 -2
right_child=3 2 -4 4 17 12 9 22 15 27 -12 -13 13 -15 30 -17 -18 21 -20 26 24 -23 -24 -25 -26 -27 -28 -29 -30 31 -32 -33 -34
leaf_value=-0.11641997358450913 0.045412772073962916 0.0094784333228451877 -0.11494584673629732 0.11645976426988341 -0.043398810885985961 0.016396130565271953 -0.045781273210205531 -0.043107938912469369 -0.16870832098613223 -0.33446066359242693 -0.32026347945425176 -0.019444425957199793 -0.034883651008931829 -0.066909641787160815 0.10613777169471758 -0.093499851120551786 0.031236485978719069 0.010513479808041201 0.19797410015436967 -0.073478069037716129 -0.073127944334934303 0.15059060236934238 -0.12549788717049842 0.045874109651812961 -0.010058247197503055 -0.17753584615950707 -0.16192567230498789 0.033565351425068786 0.080941832576517686 -0.064925259821459497 -0.27876301085426952 0.057844564804613766 0.13747411356601036
leaf_weight=127.83497022092342 857.7404638081789 5049.4117341786623 339.73175100982189 982.7654219865799 141.47253169119358 926.29760563373566 973.03186264634132 365.70773750543594 284.74344734847546 28.342863336205482 21.946659058332443 2863.0434261113405 331.30928978323936 271.723743095994 639.2927637398243 551.63971965014935 771.85779885947704 379.72864104807377 107.4373405277729 539.17195196449757 287.35333977639675 61.526612788438797 156.12882123887539 174.43465876579285 517.2227874994278 13.972231328487394 111.63638319075108 6.1923594623804084 199.89144855737686 43.623104810714722 4.346075400710105 998.16188211739063 79.495265081524849
leaf_count=519 3623 20546 1407 4434 585 3813 3942 1478 1198 115 89 11565 1380 1108 2733 2265 3235 1617 513 2185 1180 271 631 773 2082 59 455 25 901 186 18 4255 361
internal_value=0.00021104 -0.0279368 -0.0145933 0.0494668 0.0815833 0.0361511 -0.0109909 -0.00511821 -0.0820008 -0.0591028 -0.0518357 -0.000987016 0.0192839 -0.00409348 0.0715065 -0.119104 0.0113789 0.0297686 0.113649 -0.0623998 -0.0440776 0.0459133 -0.0677583 0.10582 -0.0325835 0.0498317 -0.0886499 -0.268472 0.0348019 0.0356152 0.103539 0.0527038 0.0532213
internal_weight=19208.2 12223.1 9803.54 6985.08 2047.26 4937.82 9463.81 8434.29 2419.6 1029.51 994.979 7912.46 3342.97 1374.89 1594.85 836.383 1103.17 782.619 1264.64 1583.22 932.411 641.147 521.837 1157.2 804.576 951.208 650.808 34.5352 579.62 1968.08 643.639 1041.78 937.236
internal_count=79547 49682 39798 29865 9094 20771 38391 34220 9884 4171 4031 32111 13977 5723 6794 3463 4615 3374 5720 6421 3781 2789 2109 5207 3262 4043 2640 140 2518 8254 2751 4441 3984
is_linear=0
shrinkage=0.189659


Tree=5
num_leaves=34
num_cat=0
split_feature=55 55 55 54 182 177 159 145 26 55 270 54 123 269 86 271 270 12 269 93 177 55 54 61 15 12 179 199 5 204 142 25 44
split_gain=510.851 122.534 113.647 91.2986 61.4783 51.5647 47.3013 46.3567 43.9623 42.4991 37.292 37.7835 34.9936 28.5117 29.1552 27.8192 27.5961 30.8866 29.4427 27.4366 27.2865 30.3632 25.6145 25.0748 24.0209 23.4996 21.8729 21.081 19.4277 19.1698 18.8367 18.8217 18.0511
threshold=0.61714821802619302 -3.1479211712820763 3.818893507020674 5.4731024092446683 1.2256020027999295 7.4999999999936242e-05 0.00014868992110105003 -1.3894757071142292e-05 1.4394993000000003 -1.5194049707533261 1.0000000180025095e-35 5.7673895996107065 1.5994753786267145e-05 1.0000000180025095e-35 -4.9181810768184058e-05 47.500000000000007 1.0000000180025095e-35 -7.7777777777732187e-06 1.0000000180025095e-35 75300.500000000015 0.0005400000000000501 5.817058274915083 12.594319752534615 32.500000000000007 70.000000000000014 2.4444444444549077e-05 0.00087000000000000011 1.1959733395533512 -0.60355339059327329 0.00040994801640175006 5.794972368166369 0.3000000000000001 1.3508629750000003
decision_type=2 2 2 2 2 2 2 2 2 2 2 2 2 2 2 2 2 2 2 2 2 2 2 2 2 2 2 2 2 2 2 2 2
left_child=1 13 4 25 6 10 7 28 15 24 11 19 -9 14 -1 -8 17 -6 -19 -3 21 -5 -23 32 -7 -4 -25 -26 -2 -27 -13 -16 -11
right_child=2 5 3 20 16 9 8 12 -10 23 -12 30 -14 -15 31 -17 -18 18 -20 -21 -22 22 -24 26 27 29 -28 -29 -30 -31 -32 -33 -34
leaf_value=-0.1727063894658864 -0.031721817798960286 0.047296157629194951 0.077759414199555205 0.01048539809703735 -0.069173529009516413 -0.092829426261239342 -0.00048613047955210309 0.070689984920191101 -0.23135702118345539 -0.02589181847105641 0.12738556569652004 -0.064564680670259555 0.03078702639072458 -0.17381052842729744 -0.11494965985437208 -0.1636119258546212 0.10142316315711188 0.00081840703909517192 -0.13985392072429434 -0.011279667498042129 -0.15762119988764789 0.087148286477886139 -0.0023861744681260336 -0.00095772664363025803 -0.031165563198385256 0.11854148486258975 -0.12619228210229716 -0.16683461884868092 0.016972421107665395 0.23729012077925327 -0.22355671597308621 -0.054740868798023021 -0.066381171960032306
leaf_weight=107.2662118524313 445.11043709516525 321.28271549940109 697.83058023452759 840.12857019901276 377.10934256017208 644.45557568967342 595.25644604861736 1081.0850296765566 34.257621839642525 1064.8043896406889 73.221820160746574 100.8753664046526 2941.5272289812565 125.3951859921217 243.95666688680649 40.140890210866928 67.821081668138504 1052.1064946949482 56.387162894010544 2746.3084786832333 27.204040199518204 477.42396484315395 151.37762820720673 1252.2023466229439 584.56505039334297 466.37995977699757 52.258875697851181 44.321652978658676 872.29846400022507 54.627622708678246 36.503496214747429 796.59027148783207 630.64039649069309
leaf_count=466 1846 1296 3198 3609 1534 2626 2482 4580 141 4302 302 407 12320 575 1013 167 298 4343 231 11083 118 2204 658 5058 2383 2187 213 180 3637 264 148 3284 2552
internal_value=-4.347e-05 -0.0335153 0.0286951 0.0619813 0.0167462 -0.0243386 0.0254399 0.0313984 -0.022075 -0.0380655 -0.00644508 -0.00950262 0.041511 -0.0879427 -0.0785619 -0.0107915 -0.0168867 -0.0222879 -0.00633735 -0.00514475 0.0305899 0.0340755 0.0655938 -0.0257429 -0.0670968 0.100514 -0.00597484 -0.040727 0.000520189 0.130992 -0.106811 -0.0688569 -0.0409523
internal_weight=19102.7 8824.65 10278.1 2714.97 7563.1 7551.44 6009.68 5340.02 669.655 4273.25 3278.19 3204.97 4022.61 1273.21 1147.81 635.397 1553.42 1485.6 1108.49 3067.59 1496.13 1468.93 628.802 2999.91 1273.34 1218.84 1304.46 628.887 1317.41 521.008 137.379 1040.55 1695.44
internal_count=79705 35888 43817 12238 31579 30550 25173 22383 2790 17314 13236 12934 16900 5338 4763 2649 6406 6108 4574 12379 6589 6471 2862 12125 5189 5649 5271 2563 5483 2451 555 4297 6854
is_linear=0
shrinkage=0.189659


Tree=6
num_leaves=34
num_cat=0
split_feature=55 55 270 86 159 95 177 204 211 128 35 269 17 214 214 5 21 44 124 204 161 204 271 267 55 276 159 35 160 67 4 92 176
split_gain=349.069 125.731 77.6782 58.782 52.5278 54.9473 50.6532 46.3198 39.9717 37.0939 34.4505 34.381 31.8993 55.0293 40.3055 31.6156 28.4474 27.5794 27.4188 26.4123 26.3588 25.2864 24.4217 23.5018 25.6764 23.4365 23.0336 22.4416 19.7409 18.7063 18.3545 16.5937 15.6363
threshold=1.6659003626969542 -1.5585940286837958 1.0000000180025095e-35 2.9230794160006738e-05 0.00015134341018600001 0.0005323543072528001 0.00030999999999990004 0.00018113356070405005 3.0000000000307562e-05 0.00024468887051690006 1.2705267000000002 1.0000000180025095e-35 1.3493195000000002 0.071186952572481463 0.031556258147261859 0.91597561503675362 2.4500000000038383e-05 1.3737758500000001 -8.3194649327956221e-05 1.9800239126265003e-05 0.00068697126564095008 0.00038777075371210001 37.500000000000007 1.0000000180025095e-35 -4.0847261929876781 0.00046185312623965011 0.00021420306686125004 1.26314455 14.601652097533529 17.13953714209482 284.50000000000006 0.94521215693878757 0.00052499999999995009
decision_type=2 2 2 2 2 2 2 2 2 2 2 2 2 2 2 2 2 2 2 2 2 2 2 2 2 2 2 2 2 2 2 2 2
left_child=1 6 3 9 5 12 11 8 -5 16 28 23 14 -14 -3 -12 26 20 21 -10 22 -9 -6 24 -1 -19 -2 -22 -7 -27 -18 -4 -25
right_child=2 4 31 7 17 10 -8 18 19 -11 15 -13 13 -15 -16 -17 30 25 -20 -21 27 -23 -24 32 -26 29 -28 -29 -30 -31 -32 -33 -34
leaf_value=-0.086298262307402965 0.017009155110056563 0.018690624067269696 0.13855903509676337 0.072111430487319675 -0.030711114956599984 0.0076633367481329295 -0.13057567531487765 0.030899343648912107 -0.0076643458572519009 -0.0186683750009809 -0.041513185291324715 -0.11943035173096474 -0.021802922837754694 0.052122539165689159 0.096091385195825704 0.035625912704122964 0.031333353684359175 -0.22534018010990914 0.14954010375331286 0.043442317564245284 -0.022177676079981931 0.14316182351311432 -0.13789331195681548 0.020236637774258947 -0.036458079489030085 -0.21776518645624876 -0.07884039900531635 0.23512877663440396 -0.28858584936136261 -0.033967880188250685 0.088183086659846366 -0.033511638789376824 -0.12630724116692366
leaf_weight=450.21333086490631 2208.2894171029329 1727.8836492747068 284.01921421289444 781.90159384906292 603.38210552930832 1201.25962215662 265.0698579698801 241.5556319206953 698.28460282087326 949.55268630385399 2000.3696440011263 204.39398148655891 1528.8147046715021 474.65812093019485 281.4174720197916 211.30465860664845 522.59795092046261 52.088578701019287 225.23717819154263 759.24478417634964 25.721804976463318 102.9219426214695 87.564530149102211 311.33082792162895 2135.0352290272713 25.266563534736633 94.023371458053589 23.180802464485168 8.1457542181014997 94.103641018271446 335.38375113904476 21.699560955166817 28.596084550023079
leaf_count=1935 9567 7057 1363 3431 2444 4884 1152 1114 2913 4007 8131 943 6239 1935 1146 863 2278 211 1149 3360 104 491 354 1267 8669 103 404 94 33 382 1464 101 117
internal_value=-1.09586e-05 -0.0201964 0.0327894 0.0286555 -0.00767817 -0.0024098 -0.0509704 0.0498002 0.0375165 0.0142029 -0.0200694 -0.0442279 0.0126458 -0.00428867 0.0295312 -0.0341433 0.0240795 -0.050654 0.0980849 0.0189577 -0.0347707 0.0644408 -0.0442945 -0.0389732 -0.0451376 -0.119191 0.0130948 0.0997907 0.00566799 -0.0728715 0.0535558 0.126346 0.00790873
internal_weight=18964.5 11739.8 7224.71 6918.99 8345.16 7433.85 3394.64 2809.15 2239.43 4109.85 3421.08 3129.57 4012.77 2003.47 2009.3 2211.67 3160.29 911.308 569.715 1457.53 739.849 344.478 690.947 2925.18 2585.25 171.459 2302.31 48.9026 1209.41 119.37 857.982 305.719 339.927
internal_count=79705 48063 31642 30178 33980 30288 14083 12458 9704 17720 13911 12931 16377 8174 8203 8994 13713 3692 2754 6273 2996 1605 2798 11988 10604 696 9971 198 4917 485 3742 1464 1384
is_linear=0
shrinkage=0.189659


Tree=7
num_leaves=34
num_cat=0
split_feature=55 55 269 54 270 111 86 269 199 177 204 182 1 162 175 166 130 68 276 55 146 55 94 175 55 224 276 46 54 182 203 179 54
split_gain=244.802 81.4545 65.0309 61.2396 50.6048 53.3222 43.6423 37.1856 32.2823 29.38 27.6681 25.6426 23.9303 26.3339 23.5074 22.2203 20.9935 18.6285 18.6163 17.2668 17.4898 17.1215 16.9338 16.8019 20.6988 16.4336 14.9953 14.6166 12.4184 12.4023 12.3872 12.1113 11.1324
threshold=-0.057038476211678395 4.3071726225478537 1.0000000180025095e-35 6.266845757648313 1.0000000180025095e-35 -7.8410855009068364e-05 -3.4476150396256504e-05 1.0000000180025095e-35 0.46014065978307506 0.00020000000000005002 -0.00012185340095069998 1.0404624277456971 1.4430150000000002 1.428936382473986 -0.00030999999999989993 0.479621869612188 6.2912123583780413e-05 52.255123082087771 0.00042939482348490005 7.8495511785023 61.61877858206163 -2.8260594161201396 204.50000000000003 0.00049200000000000014 5.5654410116874073 1.0000000180025095e-35 0.00045295379029190009 -9.5600000000195515e-05 2.6559206148267127 0.7142857142860517 -0.24067903292547776 0.00014999999999990002 -0.63352540566985016
decision_type=2 2 2 2 2 2 2 2 2 2 2 2 2 2 2 2 2 2 2 2 2 2 2 2 2 2 2 2 2 2 2 2 2
left_child=2 4 6 19 5 11 18 8 -7 23 14 17 13 -12 26 -13 -16 -2 30 20 25 32 31 24 -5 -3 -8 -11 -23 -9 -1 -4 -20
right_child=1 3 22 9 -6 7 10 29 -10 27 12 15 -14 -15 16 -17 -18 -19 21 -21 -22 28 -24 -25 -26 -27 -28 -29 -30 -31 -32 -33 -34
leaf_value=-0.23527557420376119 -0.0089542993112212456 0.083536268535754674 0.12245042773118417 -0.0093973318834650963 0.087770012606816078 0.02235177200605323 -0.19684121119885764 0.10649080075931537 -0.0072375695765093387 0.078825427685554228 -0.010022166888630129 -0.071744355229254222 -0.16291116281190199 0.06253985311982993 -0.083543450936925487 0.021215222606211604 -0.018704084404733288 0.2003864933560208 -0.057242963151265147 0.19783374328633163 0.19836653199773879 -0.027615639186937071 -0.14947332316624012 0.13859586940221408 0.049843591489981624 -0.012757869000955522 -0.067449959003297894 -0.093958718566334989 -0.10992362087147561 -0.091948784009398737 -0.083299030718096148 -0.07965654216304574 -0.14160024951887648
leaf_weight=34.812886998057365 1224.17196393013 746.80470624566078 11.295967876911162 352.63127066195011 288.26314163208008 6001.2849962711334 36.155171632766724 12.272862643003462 1702.5669831335545 21.146634876728058 3318.2134035080671 486.7140144854784 35.3531613945961 190.21816691756248 203.83281391859055 114.19358761608601 1512.0542682409286 15.483658373355864 113.8594317138195 48.547928884625435 43.77717325091362 535.70437413454056 170.77560664713383 50.616177171468735 532.546770632267 69.69953516125679 295.8093876093626 105.33249934017658 75.191943660378456 147.29745064675808 43.268832668662071 191.04164013266563 111.25742070376873
leaf_count=147 5069 3718 48 1520 1355 25249 150 50 7159 94 13420 1985 144 771 872 469 6168 64 510 285 223 2184 805 231 2484 351 1215 467 308 615 181 886 508
internal_value=1.80561e-05 0.0164106 -0.028491 0.0516461 0.0094599 0.00713365 -0.0240748 0.0139354 0.0158125 0.0207248 -0.0177942 -0.0219255 -0.00765252 -0.00608804 -0.0353442 -0.0540788 -0.0264065 -0.00633956 -0.0624944 0.0877881 0.0815779 -0.0542228 -0.105493 0.0323206 0.0262436 0.0753163 -0.0815423 -0.0650701 -0.0377465 -0.0766864 -0.151058 -0.0683734 -0.0989341
internal_weight=18842.2 11963.4 6878.84 1971.1 9992.25 9703.99 6505.73 7863.42 7703.85 1062.27 5591.64 1840.56 3543.78 3508.43 2047.85 600.908 1715.89 1239.66 914.095 908.829 860.281 836.013 373.113 935.794 885.178 816.504 331.965 126.479 610.896 159.57 78.0817 202.338 225.117
internal_count=79705 51388 28317 9373 42015 40660 26578 33073 32408 4796 22740 7587 14335 14191 8405 2454 7040 5133 3838 4577 4292 3510 1739 4235 4004 4069 1365 561 2492 665 328 934 1018
is_linear=0
shrinkage=0.189659


Tree=8
num_leaves=34
num_cat=0
split_feature=55 269 86 54 5 35 177 8 206 55 199 214 44 54 165 37 177 6 54 177 159 89 154 77 157 177 182 86 202 73 157 195 201
split_gain=180.221 67.1307 66.0004 51.586 40.7047 41.4479 33.6819 32.3363 29.1285 28.2046 27.9696 32.5594 27.9051 25.81 24.2368 22.8218 20.6087 19.6422 19.5311 19.4961 19.1431 32.3655 17.4031 17.2568 17.1019 16.853 16.2981 16.0704 16.0346 14.5928 14.4657 14.2829 13.6622
threshold=1.9806535100904166 1.0000000180025095e-35 -7.464076044183531e-06 2.207423317407589 -0.91597561503675329 1.3563495999999999 0.0003349999999999001 1.4436338888888891 9.4033886661692119e-05 5.0493787644123982 1.1183320371912566 0.074409185592719113 1.3641479000000001 8.474528170110661 0.0015025491651516501 -2.1199999999832461e-05 0.00027999999999990007 -0.70710678118654757 9.339558056029146 1.4999999999987247e-05 0.00021420306686125004 15.127618444827418 8.2830341542344161 4.4533825005957537 2.5676889595248489e-08 0.00041999999999990005 0.65045132259527094 8.1005221019281332e-06 -1.4263661627781772 113.30391354085189 -2.99019660530435e-06 0.00034517578544000007 0.00010665105412600001
decision_type=2 2 2 2 2 2 2 2 2 2 2 2 2 2 2 2 2 2 2 2 2 2 2 2 2 2 2 2 2 2 2 2 2
left_child=1 2 4 16 14 8 9 10 -6 18 11 -4 -7 27 22 -9 20 -12 19 -5 24 -22 -1 -15 -2 -16 -3 -11 -18 -20 -8 -30 -26
right_child=3 26 7 6 5 12 30 15 -10 13 17 -13 -14 23 25 -17 28 -19 29 -21 21 -23 -24 -25 32 -27 -28 -29 31 -31 -32 -33 -34
leaf_value=-0.087661506509147974 0.047620776512333318 0.014976742361192414 0.0012574258231424771 0.045260450632097077 0.027143983349748078 -0.10978835900705669 0.064553664665200003 0.080462669123734204 -0.019163204261195013 0.0097696195164230625 -0.10609111863678777 0.053106270076475129 -0.036531166165304087 0.018363430997051903 -0.049776301687069618 -0.20749224764508992 -0.19601779881614778 -0.019044547154080677 0.0090125169584859693 0.006719434434519965 -0.28648520100038094 0.029473554084059203 -0.27550998705122165 -0.31009648285689329 0.02614946334487258 -0.16884249004984081 -0.094862306037806571 0.090104422640350637 -0.016903287071651552 -0.089899521877278718 -0.082888417534810077 0.093048858449189767 0.10053968805600104
leaf_weight=36.437135517597198 792.92216222733259 54.801445946097374 6457.6790748089552 585.44663889706135 643.32002373039722 226.8625094294548 27.954304277896881 12.799039140343664 2031.8458825349808 112.10440622270107 129.49969092011452 467.17446929216385 1065.4600066691637 490.9916076362133 460.8183748871088 43.712551131844521 14.01860176026821 333.08460457623005 98.591725826263428 2438.8430812954903 14.499442830681799 59.589135214686394 34.572543174028397 5.8218213170766822 105.43617209792137 47.134580284357071 428.89349043369293 445.60677795112133 154.23300297558308 117.70640820264816 166.4950762540102 58.659219682216644 562.97398995608091
leaf_count=152 3678 243 26408 2560 2638 936 121 53 8422 559 532 1919 4406 2239 1905 181 62 1366 400 10599 64 269 144 26 479 201 2030 2326 698 477 729 263 2620
internal_value=2.6714e-05 -0.0131454 -0.0103509 0.0263083 -0.028356 -0.0215007 0.0155145 0.000645834 -0.00802732 0.0190098 0.00173913 0.00475533 -0.0493912 0.0459518 -0.0753337 -0.142275 0.0538057 -0.0434131 0.0102426 0.0141803 0.0616901 -0.032361 -0.17912 0.0145144 0.0664585 -0.0608248 -0.0824178 0.0739565 0.000454914 -0.044814 -0.0616919 0.0133924 0.0888053
internal_weight=18726 12474.1 11990.4 6251.89 4546.45 3967.49 4489.56 7443.95 2675.17 4295.11 7387.44 6924.85 1292.32 1054.52 578.963 56.5116 1762.33 462.584 3240.59 3024.29 1535.42 74.0886 71.0097 496.813 1461.33 507.953 483.695 557.711 226.911 216.298 194.449 212.892 668.41
internal_count=79705 51536 49263 28169 18804 16402 20036 30459 11060 19186 30225 28327 5342 5150 2402 234 8133 1898 14036 13159 7110 333 296 2265 6777 2106 2273 2885 1023 877 850 961 3099
is_linear=0
shrinkage=0.189659


Tree=9
num_leaves=34
num_cat=0
split_feature=55 270 55 268 54 159 164 182 93 93 4 163 161 55 211 159 161 5 112 62 155 83 4 179 169 5 19 182 83 58 178 182 143
split_gain=127.195 74.1322 48.4126 46.9382 46.394 41.0688 48.5974 40.3181 37.0372 36.9686 29.2655 29.6531 24.6198 25.3462 26.2136 25.17 24.317 22.7748 21.5381 21.3752 24.7998 19.9342 18.2615 17.8976 17.6567 17.4784 16.5327 16.1095 15.6065 14.2475 14.1223 13.8973 16.0944
threshold=-0.85940868413416804 1.0000000180025095e-35 3.2563009357077459 1.0000000180025095e-35 4.0633774491100292 0.00015134341018600001 1.4224205000000001 1.7383886760324312 896736.50000000012 885032.00000000012 112.50000000000001 1.2220976170431925 0.00068697126564095008 -4.6359141223223146 0.00025000000000015006 0.00021420306686125004 0.00078823040524140001 0.91597561503675362 -0.00012470723977109997 23.500000000000004 0.00025351006678870004 5.25351080191064e-05 896.50000000000011 0.00014999999999990002 0.00084905547749620006 -0.9829629131445341 -6.2499999999965347e-05 3.0866182366717845 2.2523066569786191e-06 37.522684334542127 0.00016000000000000001 1.469115191986673 4.6980381419487019e-05
decision_type=2 2 2 2 2 2 2 2 2 2 2 2 2 2 2 2 2 2 2 2 2 2 2 2 2 2 2 2 2 2 2 2 2
left_child=10 2 5 4 26 7 8 9 -7 -2 11 18 13 24 15 -15 22 23 -1 20 -19 -6 -14 -13 -12 -8 -4 28 30 -25 -3 32 -5
right_child=1 27 3 31 21 6 25 -9 -10 -11 12 17 16 14 -16 -17 -18 19 -20 -21 -22 -23 -24 29 -26 -27 -28 -29 -30 -31 -32 -33 -34
leaf_value=0.2113651894169965 0.0096573095510475195 -0.0026254307252651199 0.03909869164421674 -0.090985890498082131 0.0063259215920652727 -0.015750326830521081 0.177398846932042 -0.067920139553285699 -0.25947118501174521 -0.044817308805724522 -0.065443262477178576 0.054390108524703107 0.17027757977214952 -0.018411151862183853 -0.061729319987502612 -0.10829491976917763 -0.04324720491498394 0.054162257649381387 -0.25935638888735141 0.1761239993694747 -0.34535569693390233 0.054412453433540203 -0.13522219753029127 0.15293262586523421 -0.18746262506317152 -0.17536550071856019 0.086244261602287861 -0.1863513043967118 0.12484702221853715 -0.052678054074491915 0.10260201041581887 -0.15344198564377132 0.047711955019644141
leaf_weight=4.1733975857496288 8299.8812624812126 90.154738962650299 505.04375518858433 74.592377975583076 1652.5588183701038 964.27090369164944 5.3231812715530387 268.30477729439735 22.962507754564285 473.69168213009834 315.72040361166 115.22415490448475 56.335860058665276 2932.6254223138094 735.82060407102108 116.51690997183323 50.961989790201187 123.0841438472271 21.554100647568703 56.263830050826073 5.8546451330184928 381.72725668549538 8.0430135279893857 12.959659144282339 49.32177722454071 99.220257341861725 568.96950382739305 7.5994654595851889 233.24279325455427 187.67388354241848 93.410484448075294 49.870178312063217 50.44687132537365
leaf_count=17 34487 433 2473 349 7532 3961 22 1107 95 1964 1470 467 235 12181 3072 489 219 502 88 230 24 1798 36 53 248 410 2832 33 1211 773 442 222 230
internal_value=3.91728e-05 0.00925932 0.0067907 0.0268059 0.0321853 0.000305955 -0.0344404 0.00450146 -0.0214192 0.00671618 -0.0265917 0.0155824 -0.0318004 -0.0342025 -0.0295995 -0.0218459 0.0546309 0.0257787 -0.182998 0.0785841 0.0360215 0.0153492 0.132111 -0.00518359 -0.0819296 -0.157403 0.0640745 0.0873003 0.0922897 -0.0393969 0.0509215 -0.0687906 -0.0350285
internal_weight=18633.4 13841.3 13416.9 3283.21 3108.3 10133.7 1091.78 9041.88 987.233 8773.57 4792.13 526.788 4265.35 4150.01 3784.96 3049.14 115.341 501.06 25.7275 185.203 128.939 2034.29 64.3789 315.858 365.042 104.543 1074.01 424.407 416.808 200.634 183.565 174.909 125.039
internal_count=79705 59601 57482 15436 14635 42046 4488 37558 4056 36451 20104 2154 17950 17460 15742 12670 490 2049 105 756 526 9330 271 1293 1718 432 5305 2119 2086 826 875 801 579
is_linear=0
shrinkage=0.189659


Tree=10
num_leaves=34
num_cat=0
split_feature=55 204 54 214 161 161 198 154 5 214 211 158 86 55 54 176 168 38 71 112 59 211 95 158 200 182 159 199 271 35 55 156 57
split_gain=108.625 62.1659 40.7065 37.2418 44.3091 35.0428 41.2562 40.1054 31.7352 45.1666 34.6491 29.4081 28.2659 28.0814 23.5422 21.871 19.8687 18.8354 18.7509 17.0615 20.4454 16.6423 16.028 15.6339 15.4967 14.913 18.8426 14.7946 13.7959 13.0396 12.5442 12.3649 11.612
threshold=2.4376292049187218 -0.00033143938011024997 4.0633774491100292 0.087333819494380308 0.00068697126564095008 0.00078823040524140001 0.00045665921971885004 11.392213818076582 -0.91597561503675329 -0.0015407475672067497 -0.00020999999999989996 52.744316032222279 3.1545541195443512e-05 7.1510536416033057 16.267224061833236 0.00016000000000000001 0.0016720794671311503 -1.106455575185478e-05 24.500000000000004 -0.00012796253640939996 6.194866217488177 0.00050000000000020005 0.00014571212077550002 48.526490352461089 0.44221177715200993 0.72727272727260728 0.00017650239368710002 0.87589044153740148 40.500000000000007 1.4427922500000003 -5.2246220714647835 0.028971291993063805 5.9730053766331945
decision_type=2 2 2 2 2 2 2 2 2 2 2 2 2 2 2 2 2 2 2 2 2 2 2 2 2 2 2 2 2 2 2 2 2
left_child=1 16 12 4 8 7 -7 -6 9 -3 -10 17 22 18 15 23 -1 -5 21 27 -21 29 -2 -15 -19 26 -24 -20 -27 -4 -18 -14 -16
right_child=2 3 13 11 5 6 -8 -9 10 -11 -12 -13 31 14 32 -17 30 24 19 20 -22 -23 25 -25 -26 28 -28 -29 -30 -31 -32 -33 -34
leaf_value=-0.11066039998354821 0.06274625890296702 0.02725923411024778 0.028391513686096142 0.14451524461864912 0.16043116153679909 0.033586583533616529 -0.2884640636082948 -0.083999409920394258 0.021571233095964041 -0.051756399922919472 -0.0080210205565043255 -0.26382939092328406 0.052380115368436224 -0.5245502540430671 -0.12642684983856603 0.094804115894310023 -0.13800316998269621 -0.015530853770800305 -0.008504549846147234 -0.069120795318856232 -0.33995132473641032 -0.0094114889513186532 0.060972690318457701 -0.0066345299946111739 -0.24197053617111508 0.012055258889254241 -0.09850124522124476 -0.17851701154002786 -0.064278120979996647 -0.20597405008019848 -0.028210559263721142 0.10336021413329442 0.053469452984833681
leaf_weight=239.50757926702499 369.98537163436413 339.33686780929565 1065.9868383705616 14.423169657588003 148.21863816678524 94.502915486693382 16.861105561256409 28.844538256525993 1676.8376742601395 1116.0619405061007 9411.3743584603071 34.646362796425819 396.34535246342421 3.4436023607850057 31.732299655675888 255.94785831868649 42.213846191763878 27.789309069514275 506.4280291646719 70.910917535424232 11.677556052803991 816.05557718873024 345.05269511044025 5.3592511117458344 17.856929779052734 694.94108968228102 28.881304174661636 19.106052130460739 97.060869857668877 8.6082659810781461 330.4450845271349 301.1756254285574 21.754784777760506
leaf_count=1079 1769 1409 4809 60 612 393 70 119 6972 4636 39062 152 1991 20 142 1343 210 118 2243 315 51 3597 1640 33 76 3280 132 82 454 39 1406 1489 97
internal_value=-0.000128559 -0.00898336 0.0236088 -0.00618665 -0.00531205 0.0681841 -0.0151737 0.120612 -0.00700202 -0.0333333 -0.00354587 -0.124676 0.0427314 0.00844762 0.0615087 0.0846947 -0.0680398 -0.0444166 0.00168989 -0.027279 -0.107415 0.0110076 0.028353 -0.20924 -0.104115 0.017439 0.0486555 -0.0146855 0.0027005 0.0265141 -0.0406476 0.0743923 -0.0532577
internal_weight=18589.4 13538.9 5050.45 12926.8 12832 288.427 111.364 177.063 12543.6 1455.4 11088.2 94.7158 2233.44 2817.01 318.238 264.751 612.167 60.0694 2498.77 608.123 82.5885 1890.65 1535.92 8.80285 45.6462 1165.94 373.934 525.534 792.002 1074.6 372.659 697.521 53.4871
internal_count=79900 56374 23526 53679 53273 1194 463 731 52079 6045 46034 406 10755 12771 1635 1396 2695 254 11136 2691 366 8445 7275 53 194 5506 1772 2325 3734 4848 1616 3480 239
is_linear=0
shrinkage=0.189659


Tree=11
num_leaves=34
num_cat=0
split_feature=177 55 55 158 177 86 204 154 54 160 26 162 274 178 152 47 163 158 47 162 160 61 195 211 44 28 3 199 175 204 26 93 61
split_gain=82.8223 48.4057 48.0363 32.0772 31.0061 29.1815 29.3883 30.2472 29.1561 27.6106 26.2547 24.9574 44.969 32.4845 31.4841 31.418 29.0666 27.6856 27.2973 24.3994 23.8561 22.4333 24.5965 21.793 21.4674 24.8032 21.2192 19.886 19.2768 16.8229 16.5734 16.1775 15.111
threshold=0.00010000000000009452 -3.1479211712820763 0.69682239397594625 49.43399479057161 0.00083500000000000013 2.3051285982789164e-05 0.00044235565061605004 17.126462992351431 2.5153824120078672 14.601652097533529 1.4435605 1.2342001605753827 1.2624254698597879 0.00018499999999995004 44.474755263937659 3.1035218739080983e-05 1.2646437953751364 48.913990790934385 2.0049949658177807e-05 1.4272039878697094 10.423597572505324 78.500000000000014 0.00014036212059370003 0.00087000000000000011 1.2302869500000002 -0.00014719999999984997 1.2611650000000003 0.27311751103281351 0.0009202499999999001 0.00018518345369955002 1.2728026000000001 794959.50000000012 191.50000000000003
decision_type=2 2 2 2 2 2 2 2 2 2 2 2 2 2 2 2 2 2 2 2 2 2 2 2 2 2 2 2 2 2 2 2 2
left_child=2 -2 11 9 5 8 7 -7 30 24 19 13 14 15 26 20 28 -16 -18 23 -1 22 -11 -5 25 -4 -13 -21 -14 -26 -3 -10 -15
right_child=1 4 3 10 -6 6 -8 -9 31 21 -12 12 16 32 17 -17 18 -19 -20 27 -22 -23 -24 -25 29 -27 -28 -29 -30 -31 -32 -33 -34
leaf_value=-0.03809235992132446 -0.071057680264759296 0.010460947350010463 0.08960586007090636 0.012454509898783505 -0.16589699950023287 0.0059394882006429568 0.14174813225886329 -0.21840696457865802 -0.034709315011720865 -0.40853163341311288 -0.1612160530910168 -0.08119405353157931 -0.16322085990000698 0.023063678834548542 0.13544465673986 0.22074703056187883 0.00012623190379474334 0.038800428735685004 -0.052358390200736328 0.11661679089622287 -0.17657757424123635 0.18912791589888289 -0.063109073634202692 -0.048468721576084804 0.03974353316920836 -0.09089010324841916 0.13230375367811814 -0.010330731581461809 0.26807870837810011 0.088382261632138068 -0.018151713537137716 -0.095956456349710326 0.3229061264036322
leaf_weight=77.701576709747314 518.78715088218451 1024.144429013133 39.984362214803696 2932.5542216524482 46.227442175149918 2290.812015235424 56.936897553503513 21.822797685861588 1046.2710063382983 11.415533319115637 31.711716309189796 92.283014565706253 58.195525139570236 61.642887398600578 153.86623129248619 10.418533623218535 3693.3049928992987 347.25503106415272 394.53018121421337 138.10883891582489 105.49267244338989 7.0430829823017111 21.159632734954357 227.59346732497215 1931.8504013866186 86.911169230937958 20.457130804657936 65.40643884241581 3.9826177209615699 294.8273092508316 2519.8090145662427 182.13007315248251 6.7032132297754279
leaf_count=319 2491 4307 181 13106 204 10047 321 94 4437 50 140 378 239 254 633 43 15157 1426 1637 622 434 33 95 1011 8522 386 83 290 17 1526 10617 772 28
internal_value=-8.48855e-05 -0.0151084 0.0106217 0.0223998 -0.0110704 -0.0100682 0.0071366 0.00382248 -0.0186108 0.0392165 0.0105467 -0.00294388 0.000190164 -0.0599383 0.0481016 -0.0996195 -0.0068968 0.0684745 -0.00493923 0.012166 -0.117839 -0.117798 -0.184158 0.00806682 0.0418596 -0.0340164 -0.042454 0.075818 -0.135595 0.0461836 -0.00988312 -0.0437902 0.0524717
internal_weight=18521.3 7706.94 10814.4 5788.57 7188.15 7141.93 2369.57 2312.63 4772.35 2393.19 3395.37 5025.83 4763.87 261.959 613.861 193.613 4150.01 501.121 4087.84 3363.66 183.194 39.6182 32.5752 3160.15 2353.57 126.896 112.74 203.515 62.1781 2226.68 3543.95 1228.4 68.3461
internal_count=79900 33290 46610 25962 30799 30595 10462 10141 20133 10793 15169 20648 19570 1078 2520 796 17050 2059 16794 15029 753 178 145 14117 10615 567 461 912 256 10048 14924 5209 282
is_linear=0
shrinkage=0.189659


Tree=12
num_leaves=34
num_cat=0
split_feature=269 55 270 175 94 17 159 93 1 95 275 162 26 55 4 65 6 205 111 189 182 197 11 192 86 83 55 159 6 97 275 178 160
split_gain=60.7549 53.4027 30.5072 28.6458 27.3393 40.0853 30.6025 37.7762 37.0472 23.6923 23.4969 23.3642 22.3077 22.0767 19.8308 18.1518 17.0049 16.4616 14.4325 15.069 13.629 13.4416 12.4605 16.3331 12.1505 11.9323 11.5185 13.4223 11.3733 9.81075 8.58412 8.03351 11.9224
threshold=1.0000000180025095e-35 2.4376292049187218 1.0000000180025095e-35 0.0005515000000001002 268.50000000000006 1.2665820000000003 1.4588610565641435e-05 29514.500000000004 1.4430150000000002 0.00015896774656260003 0.0027745101255520007 1.2605091783197777 1.4426656000000002 7.1510536416033057 190.50000000000003 9.6214363607734423 0.1294095225512604 6.786074123956844e-05 -0.00026823493419154992 0.00044837138619800005 1.883034268531109 3.5307095333954597 8.7664960936342223e-05 0.0053188302446827004 -3.0703727617598094e-06 -1.0935479415437302e-05 4.8028039540732523 0.00016921645522055003 -0.9159756150367534 0.62302473058611729 0.00054062662981530006 0.00010000000000009452 12.99132155121835
decision_type=2 2 2 2 2 2 2 2 2 2 2 2 2 2 2 2 2 2 2 2 2 2 2 2 2 2 2 2 2 2 2 2 2
left_child=1 2 4 9 6 11 7 -1 -8 26 -7 -6 13 -11 15 21 -14 -5 -4 -20 30 25 23 -19 -21 -2 27 -3 -24 -27 -16 -32 -33
right_child=14 3 18 17 5 10 8 -9 -10 12 -12 -13 16 -15 20 -17 -18 22 19 24 -22 -23 28 -25 -26 29 -28 -29 -30 -31 31 32 -34
leaf_value=0.092168832118522878 -0.10602267725227717 0.051186513174511034 -0.34851486278688992 -0.34467269531328987 0.00062290673553192964 -0.026175129089012955 -0.0093246479124172357 0.0075696514435173393 -0.165638744561386 0.0058556082315231635 -0.19829732886866006 0.072576514954421537 -0.1815952723476365 0.058079242700339387 -0.17764030622799351 -0.12827275914434083 0.099230792700240586 0.11022041016930569 -0.10956528551472453 0.059923785122269854 -0.19136133088936477 -0.28751442248865655 -0.023984679686389773 -0.23525855272973045 0.17046353914547427 0.033170174695853247 0.12528962865894896 -0.088826046560703975 0.05755060307984694 0.17035509650620631 -0.08454595298009282 -0.040582885444239575 0.18877818049587844
leaf_weight=198.74574711918831 14.670679390430449 356.07156330347061 2.9683512300252906 3.6239297837018958 723.31413835287094 3354.774459309876 3973.7559418678284 4246.3262116909027 55.297757476568222 3540.8588347434998 28.77346532791853 209.29858057200909 36.600230351090431 317.25872212648392 26.377617359161377 30.959482192993164 9.8416907638311368 182.65698084980249 15.145183742046354 146.79777358472347 39.355521008372307 4.3864797949790946 76.795871138572693 5.0586412250995627 47.292113840579987 55.687318056821823 69.784393139183521 26.458599418401718 309.73174756020308 28.271222874522209 226.69715410470963 86.543894022703171 8.9998457431793195
leaf_count=826 79 1715 14 17 2994 13902 16429 17614 246 16384 123 866 162 1740 132 135 45 909 70 679 195 21 363 23 230 259 404 120 1481 128 1105 445 45
internal_value=-5.41328e-05 0.00180194 -0.0045733 0.0186 -0.0057566 -0.018043 0.000501296 0.0113522 -0.01147 0.0133374 -0.0276388 0.0167709 0.0085772 0.01015 -0.0638395 -0.000929771 -0.122084 0.0582775 0.0667489 0.0726402 -0.0855635 0.0373408 0.0608205 0.10091 0.086858 0.0517887 0.0544292 0.0415022 0.041351 0.0793643 -0.07362 -0.0651052 -0.0189779
internal_weight=18459.2 17937.2 13002.5 4934.74 12790.3 4316.16 8474.13 4445.07 4029.05 4356.87 3383.55 932.613 3904.56 3858.12 521.949 133.975 46.4419 577.867 212.203 209.235 387.974 103.016 574.243 187.716 194.09 98.6292 452.315 382.53 386.528 83.9585 348.619 322.241 95.5437
internal_count=79900 77356 53993 23363 53000 17885 35115 18440 16675 20570 14025 3860 18331 18124 2544 622 207 2793 993 979 1922 487 2776 932 909 466 2239 1835 1844 387 1727 1595 490
is_linear=0
shrinkage=0.189659


Tree=13
num_leaves=34
num_cat=0
split_feature=177 204 55 159 205 0 87 5 124 44 198 162 44 177 161 154 161 161 146 153 200 161 154 157 201 61 213 21 200 78 148 144 202
split_gain=49.8623 36.141 34.561 31.3339 45.8543 40.3547 29.1697 29.4466 28.0236 27.2857 37.0844 32.1359 25.926 24.6545 24.4746 35.1055 34.3468 33.2987 32.7191 25.9294 24.5077 19.4773 16.6304 15.6791 14.7773 14.2954 14.2168 13.2012 12.6355 12.5786 12.2053 11.1473 10.3127
threshold=9.5000000000067266e-05 9.8808383032492246e-05 -3.9299008564071443 0.00021420306686125004 0.00011570934792755001 1.2485550000000003 3.5909566884694121e-06 0.78656609248549325 -3.719020559559992e-05 1.2302869500000002 0.00013582774874420004 1.2616697584761618 1.3465841250000001 0.00060000000000000016 0.00068697126564095008 11.293461849601494 0.00048372698453435007 0.00078823040524140001 61.432139461226072 -0.00018603397132209998 -0.19485487540085814 0.00036079034774640003 16.105445454848212 -6.6935488073072136e-07 0.00021030387270405001 220.50000000000003 -9.9999999999988963e-06 -6.0749999999887276e-05 3.3320316077991765 0.71210972570645559 6.9477445355591749 2.7033537687961622 0.58997411291078328
decision_type=2 2 2 2 2 2 2 2 2 2 2 2 2 2 2 2 2 2 2 2 2 2 2 2 2 2 2 2 2 2 2 2 2
left_child=1 3 29 6 5 -5 7 21 25 10 -8 -11 -7 14 16 17 19 -16 -18 -4 -17 -1 28 -9 -15 26 27 -3 -6 31 -28 -2 -26
right_child=2 8 13 4 22 12 9 23 -10 11 -12 -13 -14 24 15 20 18 -19 -20 -21 -22 -23 -24 -25 32 -27 30 -29 -30 -31 -32 -33 -34
leaf_value=-0.27611927254357177 -0.067489536061687574 -0.036182619249091337 0.021568076574992708 0.20368326724109759 0.0071226350276432102 -0.27422143933588389 -0.14867586673554287 -0.26418487484003506 0.085827233417437129 0.041696239043070689 -0.0083718395518741478 0.0045346118949369726 -0.089543619400818036 -0.31753753236617538 0.14965180372567677 -0.26220049494641801 -0.063918674863168184 -0.0034046808451636606 0.046793996858231178 -0.0098916164282064987 0.0017600192467118023 0.10012562846601211 0.3585834992295443 0.12327655492648783 -0.037682991247000391 0.14621951849292547 0.021679207833261341 0.063645995198875496 -0.18054023480908662 -0.20480531929311935 -0.021419032346040433 0.17011385598370987 -0.15032571902578237
leaf_weight=34.099420920014381 284.87451568990946 55.029834792017937 1127.5932541191578 10.728232219815252 174.41857969760895 54.621580958366394 91.284397974610329 4.6924555897712734 299.64945400506258 961.75989599525928 262.99171924591064 6454.8705798238516 54.752405539155006 9.1061791330575925 122.17470242828131 18.289906546473503 641.70441035926342 87.925415597856045 112.91330845654011 5737.5337015241385 41.04775682091713 5.7894345521926871 4.5908596813678733 18.838418394327164 106.65357076376677 32.943664401769638 809.92685734480619 355.22896465659142 13.936870545148848 23.852678641676903 333.76375082135201 7.2840890884399405 40.27611055970192
leaf_count=140 1463 252 4887 45 744 227 383 20 1687 4071 1107 27262 232 42 535 78 2776 381 482 24695 177 24 20 79 473 161 3851 1636 58 129 1564 37 182
internal_value=-3.58058e-05 0.00897798 -0.0108528 0.00350073 -0.0553384 -0.147341 0.00585186 -0.122252 0.0326325 0.00689734 -0.0445232 0.00935359 -0.181772 -0.00843618 -0.00695963 0.049217 -0.00894606 0.0855987 -0.0473528 -0.00472438 -0.0796018 -0.221511 0.0019299 0.0460098 -0.0830907 0.0225878 0.0199668 0.0502555 -0.00676301 -0.0723774 0.00910183 -0.0615656 -0.0685605
internal_weight=18395.1 10033.9 8361.23 8147.37 313.049 120.102 7834.33 63.4197 1886.54 7770.91 354.276 7416.63 109.374 8045.22 7889.18 269.438 7619.74 210.1 754.618 6865.13 59.3377 39.8889 192.946 23.5309 156.036 1586.89 1553.95 410.259 188.355 316.011 1143.69 292.159 146.93
internal_count=79900 43563 36337 34412 1326 504 33086 263 9151 32823 1490 31333 459 34708 34011 1171 32840 916 3258 29582 255 164 822 99 697 7464 7303 1888 802 1629 5415 1500 655
is_linear=0
shrinkage=0.189659


Tree=14
num_leaves=34
num_cat=0
split_feature=270 86 204 182 204 211 274 161 1 177 93 204 58 275 177 205 83 120 91 57 78 119 211 80 153 64 125 96 127 159 211 70 1
split_gain=41.8827 40.891 35.2511 30.7615 27.7904 34.002 26.0848 29.0456 24.8987 21.1828 20.7598 20.3348 19.2139 19.0932 18.2833 20.5197 14.563 13.4347 13.1738 13.1332 16.9892 13.7778 13.0448 12.4747 16.4061 12.0027 11.7333 11.3844 11.3351 11.0037 10.5931 10.5788 10.3351
threshold=1.0000000180025095e-35 2.1627730618589695e-05 -0.00030534512924804998 0.80620155038769947 0.00026278745252195004 0.0007700000000002001 1.3479839633434245 0.00036715987073070004 1.3262100000000003 3.5000000000007254e-05 534890.00000000012 4.5806557324351716e-05 65.025631132743953 0.00085168893239570011 0.00016000000000000001 0.00016440640624230002 2.2523066569786191e-06 0.00014747514259310003 0.35035431779624265 3.3226487743666699 -0.20223409706019882 -0.0005434177137790499 1.0000000180025095e-35 1.1483774341622335 0.00030335272866540005 12.785770713765858 9.5097712901331502e-05 -67.249999999999986 -0.00025275490305059996 0.00014606482309940003 0.0011300000000001003 -1.0274739653067484 1.3713250000000003
decision_type=2 2 2 2 2 2 2 2 2 2 2 2 2 2 2 2 2 2 2 2 2 2 2 2 2 2 2 2 2 2 2 2 2
left_child=1 2 19 9 5 14 8 -8 -5 11 -11 -4 26 -6 22 -16 28 -14 25 20 -1 27 -3 -18 -25 -15 -7 -21 -2 -30 -20 32 -31
right_child=16 4 3 6 13 12 7 -9 -10 10 -12 -13 17 18 15 -17 23 -19 30 21 -22 -23 -24 24 -26 -27 -28 -29 29 31 -32 -33 -34
leaf_value=-0.10326650063791794 0.16574116955162121 0.033404207796209617 0.00930042087341495 -0.011810508265780098 0.15911623087617807 -0.034159564191883374 -0.0193060849743102 -0.069339447471455581 0.028044864172481979 -0.012894620273226104 0.016641607541423943 0.056105674211958709 0.13994691068486792 0.05583434711652701 -0.039682427565025338 0.010074033835931707 0.11508897547231625 -0.049713989331749413 0.080542757151865763 0.35543650807620675 0.029519809138406121 -0.11505466787414767 0.010165991774152453 0.040627191532025375 -0.34916904406624832 -0.20231627308284111 -0.11040199725325524 -0.019359207568963633 0.024066304234424886 0.072096377047256341 -0.0061380497704273951 -0.31247336694311922 -0.28579881336961477
leaf_weight=58.233898624777794 17.58142863214016 1477.4190355315804 1156.7418330609798 3190.0575222298503 62.568901926279068 164.91489499807358 2093.2821609601378 521.2912450954318 684.88171692937613 2558.0979330986738 1286.4226246476173 469.36453738808632 30.002159431576729 11.874322272837164 441.63730565458536 917.56167349219322 178.35441649705172 24.328158065676689 182.41040647774935 3.7615223079919842 85.611422255635262 179.27309837937355 2109.6884156391025 41.977340459823608 4.2799541652202597 14.257209010422228 129.71488778293133 12.955973014235495 148.81484926491976 10.346475869417192 70.241786256432533 7.0085926651954642 4.0338969677686682
leaf_count=270 85 6542 4776 13548 397 728 8910 2234 2900 10781 5450 2059 129 65 1949 3974 1032 104 1040 17 411 872 9513 223 21 75 559 57 732 50 346 33 18
internal_value=-1.94144e-05 -0.00139337 -0.00752357 -0.00581208 0.0119837 0.00860248 -0.0146433 -0.0292817 -0.00476621 0.00466393 -0.00301144 0.0228104 -0.0486157 0.0644347 0.0126392 -0.00609307 0.0597387 0.0550201 0.0431848 -0.0677574 -0.024237 -0.0996988 0.0197371 0.0923265 0.00456101 -0.0850111 -0.0677264 0.0649723 0.0207601 0.00578403 0.056444 -0.121416 -0.0282986
internal_weight=18349 17936.6 12300 11960.1 5636.62 5295.27 6489.51 2614.57 3874.94 5470.63 3844.52 1626.11 348.96 341.353 4946.31 1359.2 412.397 54.3303 278.784 339.836 143.845 195.991 3587.11 224.612 46.2573 26.1315 294.63 16.7175 187.785 170.204 252.652 21.389 14.3804
internal_count=79900 77706 52285 50658 25421 23498 27592 11144 16448 23066 16231 6835 1520 1923 21978 5923 2194 233 1526 1627 681 946 16055 1276 244 140 1287 74 918 833 1386 101 68
is_linear=0
shrinkage=0.189659


Tree=15
num_leaves=34
num_cat=0
split_feature=269 12 204 160 160 72 160 154 8 160 155 155 272 26 0 161 160 6 211 152 48 205 173 36 90 179 98 197 199 124 135 74 182
split_gain=40.3464 29.9532 28.8257 23.9171 29.1578 25.1202 24.2471 23.5962 31.5798 29.7179 49.5442 39.8072 41.1384 33.2473 31.9416 27.8276 29.7165 26.6143 23.4907 23.2139 20.965 20.0921 19.948 19.9317 18.0488 15.5803 13.3745 13.5988 12.639 10.8944 11.9726 9.43117 9.23782
threshold=1.0000000180025095e-35 -1.9444444445126936e-06 -9.7586867175236618e-05 14.791500818602524 13.539443108310326 24.500000000000004 12.699816596210848 7.6076697255416876 1.2133716666666667 10.589881328925943 6.1212504685877734e-05 6.7057181903476228e-05 30.500000000000004 1.3837506000000002 1.2199050000000002 0.00028374718828840005 9.8133215421493514 0.1294095225512604 -0.00016999999999984999 51.016047069639164 8.7000000000281314e-06 0.00016524358726895003 0.0016945536350640503 -0.082338624629338095 -1.3927251737312341 0.00020999999999990002 -93.553813507341019 0.37352936107512197 -1.2270788206223744 -0.00013923238994214998 15.779350253006479 0.0002619820001743001 1.6165608321322671
decision_type=2 2 2 2 2 2 2 2 2 2 2 2 2 2 2 2 2 2 2 2 2 2 2 2 2 2 2 2 2 2 2 2 2
left_child=1 2 18 4 6 23 -4 9 21 10 17 14 -13 -12 -11 16 -10 -3 26 -17 -6 22 -9 -5 -7 -2 27 -1 -28 -20 -31 -23 -27
right_child=25 7 3 5 20 24 -8 8 15 11 13 12 -14 -15 -16 19 -18 -19 29 -21 -22 31 -24 -25 -26 32 28 -29 -30 30 -32 -33 -34
leaf_value=-0.0086217402321614404 0.036969053932922567 -0.02068939518714679 0.00033245045094329971 -0.041964707877235531 0.02165901324945187 -0.20108784875180274 -0.04434178534478711 0.12860891711148328 -0.013164326546102448 -0.24588021551904035 0.028021919374250231 0.048919399120165089 -0.023083029656604626 -0.05723912629079294 0.12009680909792368 0.0041893190438374419 0.026906594609427393 -0.15147402936840454 -0.10492835725686869 -0.025713057964591349 0.12672412924072207 0.29626618151908596 -0.39973056522347183 -0.22721039173760241 0.22173176305820846 -0.053167374815762905 0.13267548501388826 0.1065572903999138 -0.024343819611570477 -0.036938778364112843 -0.14497458048598241 0.1056394406217212 -0.12526345371600134
leaf_weight=74.646838456392288 60.162078857421875 125.77340602874756 5226.1619269251823 40.68780605494976 206.15368186682463 4.9748057126998928 476.88692200928926 6.6701707839965803 981.21177759766579 8.8809901624917966 1229.075138092041 918.54338490962982 414.11248020082712 189.93677527457476 251.55120909959078 1915.7265570014715 2070.3670282363892 100.84516708552837 111.68421100825071 1822.0709043890238 102.1760221645236 22.511302925646305 4.1821837872266769 42.943707093596458 13.448348671197889 360.18107476085424 19.269571676850319 72.863610953092575 428.15691892802715 804.65496237576008 38.670937389135361 15.950591243803499 77.723383247852325
leaf_count=315 268 551 22531 180 893 21 2062 30 4287 38 5382 4036 1792 825 1091 8437 9030 440 536 7907 437 105 18 184 56 1850 82 310 1826 3464 162 69 403
internal_value=-0.000292531 0.0012021 -0.0077345 -0.00187758 -0.000331923 -0.0929224 -0.00340319 0.00799795 0.00168228 0.0213338 0.00345862 0.0397985 0.0265452 0.0166096 0.107617 0.000583869 0.0140221 -0.0788885 -0.0308358 -0.0103872 0.0564761 0.152906 -0.0749984 -0.137086 0.107557 -0.0535303 -0.00125358 0.0482716 -0.0175814 -0.0492645 -0.0418928 0.217211 -0.0659637
internal_weight=18238.9 17740.8 7663.38 6113.43 6011.38 102.055 5703.05 10077.4 6838.69 3238.72 1645.63 1593.09 1332.66 1419.01 260.432 6789.38 3051.58 226.619 1549.95 3737.8 308.33 49.3142 10.8524 83.6315 18.4232 498.067 594.937 147.51 447.426 955.01 843.326 38.4619 437.904
internal_count=79618 77097 33059 26364 25923 441 24593 44038 29883 14155 7198 6957 5828 6207 1129 29661 13317 991 6695 16344 1330 222 48 364 77 2521 2533 625 1908 4162 3626 174 2253
is_linear=0
shrinkage=0.189659


Tree=16
num_leaves=34
num_cat=0
split_feature=93 93 160 48 71 160 214 46 161 26 214 26 93 45 275 61 46 39 160 160 93 151 167 160 200 161 58 92 158 86 163 67 140
split_gain=38.3426 79.8581 74.6916 72.0841 60.9047 56.9505 52.6021 44.0385 48.6657 42.1347 44.3927 50.7639 39.0378 38.0715 35.8417 35.6281 60.1596 49.0757 33.8068 33.2642 32.8123 32.0535 31.5278 30.5623 30.2003 28.506 24.2367 21.6803 20.0071 18.1102 17.0984 14.9955 14.4284
threshold=562331.50000000012 865414.50000000012 14.791500818602524 -3.5399999999963232e-05 64.500000000000014 8.0208952874694504 0.050752337942197009 -0.00013417500000014997 0.00032894891060470001 1.3877095000000002 0.045920312169422502 1.3837506000000002 512818.50000000006 0.39224617109397836 0.0011819675102414003 54.500000000000007 0.00018519999999980005 -3.949999999919295e-06 11.4511624593615 10.423597572505324 470188.00000000006 -1.1946757743272009e-05 0.00027300000000000008 12.395330892896611 1.480511937336485 0.00032894891060470001 42.25874523366209 0.97432591166531057 51.063056304552923 1.6045688512877911e-06 1.3697169537250506 58.097589821685581 47.374542262844621
decision_type=2 2 2 2 2 2 2 2 2 2 2 2 2 2 2 2 2 2 2 2 2 2 2 2 2 2 2 2 2 2 2 2 2
left_child=6 2 5 19 15 24 9 8 -7 10 11 12 -1 -9 -13 17 -17 -5 32 31 21 -12 23 -21 -2 -4 -11 -27 -22 -26 -20 -3 -6
right_child=1 3 25 4 18 7 -8 13 -10 26 20 14 -14 -15 -16 16 -18 -19 30 22 28 -23 -24 -25 29 27 -28 -29 -30 -31 -32 -33 -34
leaf_value=-0.0032384244481317073 0.25950137688324854 -0.35377967736698879 0.20721970658717886 -0.095621304858917067 -0.39654174810041665 -0.090748532925169781 -0.25800489015843225 0.016665971911916787 0.11719066814174303 0.18355390901356752 -0.25565229740102352 -0.31152762074906476 -0.053527916664977471 0.11117670583359085 0.1785456414657933 0.054328366538716956 -0.38387446677797771 -0.0006343684314374956 -0.19223137789748854 -0.097813743103457432 0.16610089086469798 0.14810673454485263 -0.30777536649305681 0.27889923474821637 0.21392336752401458 -0.23161158865683285 -0.33856538315786666 0.12994697808087391 -0.27911546981665247 -0.29631853429278038 0.15651935800069058 0.044781281416375954 -0.054273634662764129
leaf_weight=11657.686756983399 55.951154634356499 35.877347633242607 6.9074022620916358 261.7909592166543 26.128747619688514 46.479759514331818 29.750809878110886 3460.7013767063618 313.90835320949554 3.796939596533778 7.4754768759012213 30.99894605576992 583.00304538756609 160.42183008790016 6.4922191947698584 392.6675154492259 11.602358996868132 774.43247129023075 10.505595892667772 28.845896869897842 5.1311002820730236 131.21632197499275 16.666702181100845 10.590701468288897 4.1717817485332471 62.212707795202732 20.273198306560516 6.5982838720083228 12.415956906974314 6.2519895732402802 9.7495173811912519 3.7505567073822013 5.3348760455846778
leaf_count=50913 246 156 29 1142 113 204 128 15202 1400 17 33 133 2549 706 29 1724 50 3383 45 126 23 578 72 47 18 271 87 30 53 26 45 17 23
internal_value=-0.000229813 0.0126424 0.0265591 -0.0234966 -0.0132616 0.0300501 -0.00611699 0.0271455 0.0903724 -0.00551548 -0.0050302 -0.00630854 -0.00563363 0.020853 -0.226663 -0.00600138 0.0417521 -0.0246318 -0.215477 -0.183035 0.0954288 0.126344 -0.0890748 0.00335268 0.204283 -0.160072 -0.256204 -0.196942 -0.148925 -0.0921103 -0.024365 -0.316058 -0.338508
internal_weight=18199.8 5711.55 4123.6 1587.94 1492.21 4047.89 12488.2 3981.51 360.388 12458.5 12434.4 12278.2 12240.7 3621.12 37.4912 1440.49 404.27 1036.22 51.7187 95.7312 156.239 138.692 56.1033 39.4366 66.3749 75.7184 24.0701 68.811 17.5471 10.4238 20.2551 39.6279 31.4636
internal_count=79618 25075 18132 6943 6525 17802 54543 17512 1604 54415 54311 53624 53462 15908 162 6299 1774 4525 226 418 687 611 245 173 290 330 104 301 76 44 90 173 136
is_linear=0
shrinkage=0.189659


Tree=17
num_leaves=34
num_cat=0
split_feature=83 177 25 61 214 165 6 62 182 154 6 89 158 46 4 198 191 64 46 55 89 271 154 182 113 275 176 55 182 65 54 127 90
split_gain=32.0229 28.2552 27.3277 46.0656 37.2433 36.7023 30.8046 37.6385 26.1227 26.0573 26.0268 24.7813 22.6225 29.0347 26.5338 25.7884 22.9595 21.9611 18.6425 18.445 17.9367 17.652 17.3084 16.3109 15.4175 23.3971 15.3597 16.0796 16.0411 15.1135 12.9762 12.9659 12.8808
threshold=6.2259607469206112e-06 0.00020000000000005002 0.3000000000000001 49.500000000000007 0.041065582031535201 0.00058933013833875017 0.1294095225512604 56.500000000000007 2.137303873189754 17.126462992351431 0.1294095225512604 30.42370372618014 45.067136875057479 1.5325000000010473e-05 86.500000000000014 0.00015146155062900003 0.00046483330912480003 11.783793399834744 0.00035217499999990002 9.0604185596340123 28.109984114169816 116.50000000000001 10.750986819648089 0.66398390342043101 0.0010718877871850002 0.0012135041273496003 3.5000000000007254e-05 -1.2097958121684689 1.0627043432300083 37.82294909681324 2.207423317407589 7.8583300264065703e-05 -1.0356658952194138
decision_type=2 2 2 2 2 2 2 2 2 2 2 2 2 2 2 2 2 2 2 2 2 2 2 2 2 2 2 2 2 2 2 2 2
left_child=1 2 12 6 5 -5 11 -8 9 17 -6 -4 15 14 -14 16 -1 29 20 23 26 -15 -17 -19 30 -26 27 -3 -28 31 -22 -2 -10
right_child=8 18 3 4 10 -7 7 -9 32 -11 -12 -13 13 21 -16 22 -18 19 -20 -21 24 -23 -24 -25 25 -27 28 -29 -30 -31 -32 -33 -34
leaf_value=0.27915541564546503 0.011551165710662659 -0.034296680607050198 0.013144587149667888 -0.065569076097250281 0.048830088218669673 0.030113251989079982 -0.025508393386049211 -0.17451135506678064 0.066704999251847447 -0.10166486883100365 0.15921884836605568 -0.023102157729658106 0.10096679933174049 -0.040707234850456249 -0.0051277525272298277 0.0053001668485647821 -0.22679018302297668 0.030291754167918097 0.27031069030076821 0.11900607172844321 -0.057081229378118416 -0.36255730070195236 -0.18112375158379229 0.00091718523608494082 -0.2945659093462093 0.092272460147518706 -0.0084069603793233503 0.060816883626595632 -0.063606806611216329 0.086578684988040874 -0.13953649688482367 0.044019302463437743 -0.060581468192624957
leaf_weight=3.4422622770071021 1174.9977552220225 108.95724733918905 2348.0778964459896 168.54367633163929 216.62053534388542 998.53795196861029 957.89399598538876 65.126114875078201 32.043339535593987 74.135446839034557 119.0510101467371 954.18109159171581 91.50586248934269 825.31895951926708 1155.8406894057989 83.18461599200964 51.409228250384331 779.76815477758646 7.3532123416662207 51.185486994683743 386.15723644942045 6.1754364520311347 22.831006586551666 5312.1307442188263 6.492348000407218 42.049507327377796 453.7217114046216 154.72573728859425 325.01904506236315 148.71150364726782 83.497288174927235 709.60580482333899 265.9123450294137
leaf_count=15 5243 515 9988 708 926 4240 4055 278 142 329 510 4066 385 3499 4899 354 217 3442 33 337 1703 26 96 23695 28 182 1969 647 1461 889 362 3174 1205
internal_value=-0.000172516 -0.00766903 -0.00314137 0.00370142 0.0323079 0.0162953 -0.00623745 -0.034994 0.00827742 0.0102698 0.0879812 0.00267116 -0.0209473 -0.0156449 0.00265539 -0.0894684 -0.195039 0.0112847 -0.0309653 0.00562977 -0.0323849 -0.0430976 -0.0348472 0.00467716 -0.0612233 0.0405336 -0.0180491 0.0215147 -0.0314454 0.0283695 -0.0717405 0.0237763 -0.0468926
internal_weight=18184.2 9635.71 8067.74 5828.03 1502.75 1167.08 4325.28 1023.02 8548.49 8250.53 335.672 3302.26 2239.71 2078.84 1247.35 160.867 54.8515 8176.4 1567.97 6143.08 1560.62 831.494 106.016 6091.9 518.196 48.5419 1042.42 263.683 778.741 2033.32 469.655 1884.6 297.956
internal_count=79618 41162 34262 24771 6384 4948 18387 4333 38456 37109 1436 14054 9491 8809 5284 682 232 36780 6900 27474 6867 3525 450 27137 2275 210 4592 1162 3430 9306 2065 8417 1347
is_linear=0
shrinkage=0.189659


Tree=18
num_leaves=34
num_cat=0
split_feature=93 93 26 61 159 17 162 161 93 161 214 160 150 163 159 121 214 155 35 0 159 61 161 155 26 17 161 163 71 214 61 74 275
split_gain=27.9682 49.0987 48.972 62.4932 44.7862 55.1404 104.104 66.8946 45.9855 47.3198 45.5196 42.0323 34.7386 34.0098 45.2859 45.9769 39.089 37.8502 33.2952 31.3316 31.2501 77.4243 47.3501 37.983 33.9331 45.6749 30.2227 30.0321 29.1952 46.377 34.0347 26.6114 24.6344
threshold=887175.50000000012 534890.00000000012 1.2422715000000002 205.50000000000003 3.0541039506122973e-05 1.3582302500000003 1.3597811470036849 0.00017559055149740001 514821.50000000006 0.00049815981130295003 0.050237037618996803 15.061319815225099 -0.12829489856805246 1.3644554787363739 -6.5601490956940994e-06 0.00018643917706720001 0.026250654179824202 0.00024559500163965009 1.2555190500000004 1.4349150000000002 -0.00011245392986055 222.50000000000003 0.00031830756110900007 0.00014312158996915002 1.3837506000000002 1.3600877499999999 0.00034694258312495006 1.3569056255891025 34.500000000000007 0.043144279676826956 72.500000000000014 -0.00014995123738189997 0.00060939276190100013
decision_type=2 2 2 2 2 2 2 2 2 2 2 2 2 2 2 2 2 2 2 2 2 2 2 2 2 2 2 2 2 2 2 2 2
left_child=1 4 32 11 20 8 -7 -8 10 -10 -6 18 28 16 26 17 27 -16 -4 -5 21 22 -1 -23 25 -22 -15 -14 -2 30 -30 -18 -3
right_child=12 2 3 19 5 6 7 -9 9 -11 -12 -13 13 14 15 -17 31 -19 -20 -21 24 23 -24 -25 -26 -27 -28 -29 29 -31 -32 -33 -34
leaf_value=-0.068230278576060982 0.053742476872571075 -0.11590033799335629 -0.058618795909099436 -0.17259173741957154 -0.0039826814227971229 -0.20223734579219466 0.16666736383841627 -0.0485551326326569 -0.16695736300682987 0.15033440609348178 -0.22220370063522851 -0.14940120826996758 0.28548008631130117 -0.10252112085513294 0.061280288409809223 -0.12931740898986469 -0.16330520445827368 -0.20606680511825526 0.022621021911647429 0.32025097760473364 0.0060938157901013305 0.025543036479539444 -0.0044156783884546271 0.20521181271987163 -0.14826997334240288 0.055699545253218921 -0.27343658828276179 -0.32015119543577392 -0.29503140765749597 0.16969272446079942 0.067399383900127161 0.26788164838819983 0.16868612516620243
leaf_weight=653.75087769329548 219.5020437836647 12.221064090728758 189.06297832727432 82.099521942436695 3889.9092342704535 156.7115059569478 56.435495488345623 653.16996578127146 112.84369058161974 19.886750124394894 34.690203674137592 53.695224732160568 3.9538709223270407 193.99385263770819 167.66367585211992 97.694043532013893 6.210754767060279 21.49015287309885 4514.7932493872941 4.9178392812609664 4583.456524014473 94.468955747783184 1160.9957753866911 76.677916742861271 47.156614154577255 781.50847174227238 46.048671074211597 11.544632583856581 32.946562476456165 17.582671970129013 12.996547043323515 30.102204114198685 104.46034567058086
leaf_count=2883 955 53 825 363 16919 681 245 2836 486 88 151 237 19 847 741 424 26 98 19963 23 20114 419 5110 347 207 3428 200 49 144 77 57 131 472
internal_value=-0.000131334 0.00153135 0.0174622 0.0145379 -0.00488312 -0.0188991 -0.0623348 -0.0314383 -0.0096248 -0.119418 -0.00591158 0.0174511 -0.0334782 -0.0601088 -0.0745266 -0.0236623 0.0865118 0.0309064 0.0193557 -0.144738 0.00444505 -0.0159041 -0.0274045 0.106039 0.0119119 0.0133198 -0.135309 -0.165646 0.0209729 -0.0922563 -0.192506 0.194134 0.138879
internal_weight=18144.6 17282.9 4961.25 4844.57 12321.7 4923.65 866.317 709.605 4057.33 132.73 3924.6 4757.55 861.73 578.702 526.89 286.848 51.8115 189.154 4703.86 87.0174 7398.02 1985.89 1814.75 171.147 5412.12 5364.96 240.043 15.4985 283.028 63.5258 45.9431 36.313 116.681
internal_count=79618 75850 21936 21411 53914 21406 3762 3081 17644 574 17070 21025 3768 2535 2310 1263 225 839 20788 386 32508 8759 7993 766 23749 23542 1047 68 1233 278 201 157 525
is_linear=0
shrinkage=0.189659


Tree=19
num_leaves=34
num_cat=0
split_feature=177 159 89 162 44 44 8 35 160 5 55 54 54 86 55 157 160 26 66 83 120 191 275 89 152 159 1 35 275 191 85 251 172
split_gain=25.9717 26.9271 53.1281 48.1988 43.1111 39.4903 37.6718 45.1052 36.1455 32.854 26.7611 27.1414 26.7348 23.798 20.5061 20.1709 18.3811 17.5547 15.5191 19.1486 15.4363 14.6979 14.6531 13.7167 13.8992 18.4574 12.626 12.0559 11.8766 13.4888 11.3421 11.1564 11.0662
threshold=0.00036500000000000004 0.00016594451727165003 14.445627264560732 1.2199588077539476 1.4085936750000003 1.2249604250000004 1.3365372222222225 1.3278639000000003 10.944113359011036 -0.9829629131445341 3.8679997892501157 1.756243267112261 7.92133408618787 -2.3017215933007759e-05 -0.82670271857764444 -3.7172528285758934e-06 10.07015107537786 1.4301638000000001 16.24548048956893 5.6549239789065709e-05 -4.9653947191411717e-05 0.0031717676516022507 0.0014555358028118502 16.10478324733371 42.031816548696646 -2.9439151599572333e-05 1.2733950000000003 1.3820616500000003 0.0011099239652908003 0.0016936794324544002 1.4159375196401989e-05 1.0000000180025095e-35 0.0032782940038687505
decision_type=2 2 2 2 2 2 2 2 2 2 2 2 2 2 2 2 2 2 2 2 2 2 2 2 2 2 2 2 2 2 2 2 2
left_child=1 10 6 -4 5 -5 7 8 -3 -8 11 14 18 -13 21 -6 -16 -15 27 -20 -11 -1 -2 26 25 30 -24 -12 29 -14 -25 32 -26
right_child=22 2 3 4 15 -7 9 -9 -10 20 12 13 28 17 16 -17 -18 -19 19 -21 -22 -23 23 24 31 -27 -28 -29 -30 -31 -32 -33 -34
leaf_value=0.00082989212540213414 -0.049658885021013996 0.016654232412231431 -0.33799235467876021 0.22142682996029778 0.38160862547729119 -0.00028958566180356179 0.29604265277762765 0.27389133045858644 -0.20018375905542479 -0.018172222073152663 -0.028523034749375262 -0.04674342228278653 -0.015806201770619331 -0.0078950431082360044 -0.0028278381763997915 -0.15015406506775228 0.023720051288605135 0.037681801618075939 0.041628956976047723 0.13562350629141615 -0.26694820113531703 -0.041541450752003252 0.09646328551877642 -0.22736603318696813 0.11482881381063291 -0.26563009383988928 -0.19847684479667382 0.099786295374031123 -0.0550732517297556 0.046919997508016585 0.048746442601014885 -0.087406139905750538 0.013573667647553028
leaf_weight=3004.3162393271923 574.53024664521217 58.687034614384174 15.756353527307509 29.648420870304108 2.6473209410905829 1138.9508425295353 4.4101147353649131 14.163249731063841 52.290471404790878 10.270698994398115 169.42901430279016 544.73631091415882 345.30467353016138 4994.878773920238 1308.9771593809128 83.368780545890331 3311.2018203735352 323.68326923251152 1035.6135266795754 84.307979870587587 70.935095705091953 326.48231403529644 7.0472318604588535 6.5037614405155173 75.520499706268311 12.675804376602171 20.145465575158596 31.189927212893963 142.04228398948908 191.8214048743248 30.201336920261383 20.093083299696445 79.902359195053577
leaf_count=12781 2593 254 67 127 13 4968 19 61 227 47 900 2320 1586 21245 5641 380 14269 1396 5625 514 312 1426 31 28 331 57 89 167 668 895 135 93 353
internal_value=-9.01527e-05 0.00147954 -0.0229734 -0.00834269 -0.0042027 0.00533557 -0.111162 -0.0448384 -0.0855157 -0.208104 0.00376978 0.00080137 0.024276 -0.00898823 0.00802052 -0.133788 0.0161986 -0.00512127 0.0400028 0.0487049 -0.235484 -0.00332331 -0.0329323 0.00518866 0.0205722 -0.0683182 -0.12204 -0.00857495 -0.00630245 0.00659492 -0.000177947 0.0455813 0.0627739
internal_weight=18121.7 17295.1 1481.13 1270.37 1254.62 1168.6 210.757 125.141 110.978 85.6159 15814 13814.3 1999.71 5863.3 7950.98 86.0161 4620.18 5318.56 1320.54 1119.92 81.2058 3330.8 826.62 252.09 224.897 49.3809 27.1927 200.619 679.168 537.126 36.7051 175.516 155.423
internal_count=79618 75908 6475 5555 5488 5095 920 542 481 378 69433 59078 10355 24961 34117 393 19910 22641 7206 6139 359 14207 3710 1117 997 220 120 1067 3149 2481 163 777 684
is_linear=0
shrinkage=0.189659


Tree=20
num_leaves=34
num_cat=0
split_feature=177 93 37 93 146 39 37 161 93 274 38 93 201 67 159 159 6 159 191 89 274 158 54 83 127 84 161 202 2 135 206 151 55
split_gain=28.2369 25.032 31.9713 31.1231 26.3733 32.8255 24.8304 25.7783 24.1642 49.1192 37.2269 24.0454 33.812 36.4877 31.0076 49.2882 28.8323 21.0259 19.8146 19.699 19.3506 18.0847 16.5597 15.9987 17.4716 15.1375 24.1834 14.8285 15.4599 17.497 14.3693 14.2721 13.0519
threshold=2.5000000000052761e-05 887175.50000000012 -0.00016740000000009999 891813.00000000012 65.553742353302297 -4.6499999999949351e-06 7.9700000000015883e-05 0.00022338458220840004 3876.0000000000005 1.269110739966586 1.75569861863719e-05 562331.50000000012 0.00044327048009520003 15.730390137636629 0.00014868992110105003 0.00030739458432045005 0.1294095225512604 0.00018099274895260004 0.0011196740566803002 18.725420734871545 1.2703072952107006 46.974417176395534 1.0765531290932844 3.5862828271743573e-05 5.8202983053726946e-05 3.8758425216317898e-06 0.00023285140307490002 -0.044415508640551098 1.2354850000000002 7.5792423351284208 3.8652788555906596e-05 -7.930162313739736e-07 -1.724155688025524
decision_type=2 2 2 2 2 2 2 2 2 2 2 2 2 2 2 2 2 2 2 2 2 2 2 2 2 2 2 2 2 2 2 2 2
left_child=22 8 -3 6 5 -5 7 -4 9 10 -2 14 13 -13 16 -16 -10 -8 -11 -14 -20 -6 25 27 -25 26 -1 -24 31 -30 -28 -29 -27
right_child=1 2 3 4 21 -7 17 -9 11 18 -12 12 19 -15 15 -17 -18 -19 20 -21 -22 -23 23 24 -26 32 30 28 29 -31 -32 -33 -34
leaf_value=0.12650386073924086 0.29760832362354267 -0.19397926632219761 -0.18733411614768669 -0.06220810304460507 0.16356279516142203 0.054485394738245742 -0.25922765948482301 -0.0044150837586310211 0.0012716926901174428 -0.35731910452663612 -0.23560677925816284 -0.035328077618399865 -0.15139537668517086 0.022416501335387744 -0.051048158850379485 0.12589914494106227 -0.026892836396731314 0.030599482016294536 0.15388301472665181 -0.027457720488575508 -0.20978970678355302 -0.2685828818656037 0.016275597420658771 0.079650806669444477 -0.010722792466358714 0.0087466256076102443 -0.33947681044319866 -0.001923099429318753 0.006475842679601179 -0.04787699368127641 -0.070559327403806327 -0.19540827992565044 0.051582764505245696
leaf_weight=14.635136678814886 38.804580569267273 44.969523839652538 36.620205871760845 132.60262685269117 4.2378079891204861 250.53157693147659 42.948991827666759 113.93543811887503 7217.622301928699 7.2112804949283626 5.3603080660104743 449.45452806353569 57.668234884738922 3168.1770430058241 893.23173967003822 60.456629693508148 1596.6647052243352 11.391864061355589 12.888820171356203 230.55956748127937 8.8947639316320402 19.565411128103733 1029.184106849134 202.08867915719748 124.26231129094958 380.01875126361847 11.325066044926645 23.958593621850014 690.86275797337294 308.02982117980719 19.374978914856911 32.067915678024292 783.11241266131401
leaf_count=62 170 198 159 585 18 1104 187 503 31752 32 24 1951 258 14143 3882 265 6924 50 59 1028 39 85 4559 985 609 1587 47 105 3053 1337 82 138 3432
internal_value=0.000300443 -0.00346246 -0.0396342 -0.0282898 0.00206312 0.0140978 -0.0885727 -0.0489072 -0.00173425 0.106975 0.232892 -0.00231588 0.0102614 0.0152423 -0.00734509 -0.039831 -0.00383017 -0.198469 -0.0848219 -0.052255 0.00538646 -0.191646 0.0152773 0.00619328 0.0452399 0.0333966 -0.074121 7.89499e-05 -0.0157226 -0.010285 -0.169762 -0.112668 0.0375873
internal_weight=18022.7 14403.8 656.803 611.834 406.937 383.134 204.896 150.556 13747 73.1598 44.1649 13673.8 3905.86 3617.63 9767.98 953.688 8814.29 54.3409 28.9949 288.228 21.7836 23.8032 3618.92 2410.45 326.351 1208.47 45.3352 2084.1 1054.92 998.893 30.7 56.0265 1163.13
internal_count=79412 63416 2889 2691 1792 1689 899 662 60527 324 194 60203 17380 16094 42823 4147 38676 237 130 1286 98 103 15996 10786 1594 5210 191 9192 4633 4390 129 243 5019
is_linear=0
shrinkage=0.189659


Tree=21
num_leaves=34
num_cat=0
split_feature=160 93 214 160 35 276 46 276 149 155 93 93 93 161 205 46 152 93 37 46 161 161 161 4 93 185 46 118 93 26 61 161 152
split_gain=31.7164 50.2774 90.6739 52.9549 48.6304 46.6267 45.5851 54.1099 40.346 37.6154 35.1275 78.3198 74.8033 56.0486 67.8151 55.0308 50.771 49.7754 48.6845 46.6837 34.6609 32.8187 31.0586 32.7264 30.58 81.2848 45.5258 43.0672 41.4153 45.4358 39.525 30.5793 29.8314
threshold=10.145207988159443 75300.500000000015 -0.0027308541544993994 14.157421053772039 1.2199828000000001 0.0010929495588419501 0.00014380000000010002 0.00056711958229105016 0.00011551863517575001 5.8009777943037395e-05 794959.50000000012 480485.00000000006 455433.50000000006 0.00036189692806515007 0.00021755604991815003 -4.0799999999951979e-05 60.306829737607153 804148.50000000012 -0.00019699999999984996 5.6649999999991436e-05 0.00016571188179355002 0.00018110647331530001 0.00021765045929585003 107.50000000000001 127021.50000000001 0.0010407535789617502 0.00017382499999995003 1.9192814990825577e-05 144546.50000000003 1.3517627000000001 55.500000000000007 0.00033774428394130006 44.778854696008857
decision_type=2 2 2 2 2 2 2 2 2 2 2 2 2 2 2 2 2 2 2 2 2 2 2 2 2 2 2 2 2 2 2 2 2
left_child=9 2 4 6 5 32 7 -4 -6 21 11 12 16 14 -13 -14 -11 -12 -19 -20 -3 -1 -23 -24 25 27 -27 -22 29 -26 -30 -10 -2
right_child=1 20 3 -5 8 -7 -8 -9 31 10 17 13 15 -15 -16 -17 -18 18 19 -21 24 22 23 -25 28 26 -28 -29 30 -31 -32 -33 -34
leaf_value=0.058533581646908223 0.010266799161302432 0.095368410044619711 0.069727814518268802 0.20026518209537905 0.17028138173531235 0.21521607198346043 -0.13889841305833078 -0.037032255196070375 -0.084807657553390869 -0.0028737473896911551 -0.24731638376806897 0.047173305526070367 -0.19706837154380799 0.15394691796371196 -0.087437393217933604 -0.033687385642998245 -0.13343729477863711 -0.23671910510845193 0.011417030499185337 -0.11304245841033782 -0.22530828332898861 -0.19484824458749572 0.11504927201046011 -0.097942849645666102 0.090515061565048918 -0.01452898548420966 0.20435727595389311 -0.046171057378614405 -0.0064742834740323827 -0.21306656106212193 0.020014525752921768 0.12133992118497733 -0.27514871147122016
leaf_weight=53.480972066521645 27.156508907675743 139.41853919625282 293.45929268747568 46.346965052187443 289.84717140346766 19.476115882396698 85.730018071830273 408.44958205521107 45.115583419799805 2875.025128915906 42.668161816895008 827.64686641842127 134.72048297524452 138.88831176608801 160.77163548767567 164.95600835978985 111.27836232632399 40.305122345685959 416.8737087957561 146.50439734756947 104.03275934606791 89.451647244393826 32.335064858198166 131.38444745540619 287.2406330704689 618.15430524945259 36.180072315037251 90.071053050458431 7220.5616275593638 18.900294318795204 2816.6707481741905 60.717055402696133 25.580187603831291
leaf_count=235 125 619 1291 203 1285 86 367 1797 199 12636 189 3644 598 622 717 728 481 181 1845 654 453 384 140 577 1257 2717 158 391 31814 82 12553 274 110
internal_value=0.000253132 0.00544195 0.0407406 0.00324992 0.107565 -0.0355611 -0.00834304 0.00760279 0.133686 -0.0119622 -0.00805302 -0.00200532 -0.0168038 0.0411306 0.0252781 -0.107136 -0.00773893 -0.0493467 -0.0353542 -0.0209482 0.00138639 -0.0764616 -0.104979 -0.0558763 0.000215633 -0.0343992 -0.00242611 -0.142182 0.00305499 0.0717727 0.000959066 0.0334609 -0.128175
internal_weight=17999.4 12633.1 1301.88 833.986 467.893 72.2128 787.639 701.909 395.68 5366.29 5059.64 4413.29 3285.98 1127.31 988.419 299.676 2986.3 646.351 603.683 563.378 11331.2 306.652 253.171 163.72 11191.8 848.438 654.334 194.104 10343.4 306.141 10037.2 105.833 52.7367
internal_count=79412 55781 5737 3658 2079 321 3455 3088 1758 23631 22295 19426 14443 4983 4361 1326 13117 2869 2680 2499 50044 1336 1101 717 49425 3719 2875 844 45706 1339 44367 473 235
is_linear=0
shrinkage=0.189659


Tree=22
num_leaves=34
num_cat=0
split_feature=8 155 151 161 204 124 1 185 161 47 161 274 163 93 93 155 159 61 206 156 159 4 74 38 4 184 37 54 126 163 93 135 2
split_gain=26.4539 65.7531 31.9667 47.8269 25.2792 32.3938 28.1736 43.7951 47.7028 30.3749 27.0946 26.6366 55.4794 56.558 44.9475 41.1793 34.9172 28.836 21.7964 14.573 13.2041 12.8768 12.7274 11.9973 13.9713 11.9488 21.3124 11.8299 11.7534 10.972 13.3644 12.7916 9.71044
threshold=1.2133716666666667 8.6850756367601699e-05 3.1867910359334455e-06 0.00031390049531055005 -0.00011912191880474999 -2.316137305587171e-05 1.2233800000000004 0.00069010000888585009 0.0004263419693680001 2.1845456127033118e-05 0.00029950962121585008 1.2620466280574634 1.2646437953751364 242057.00000000003 511242.50000000006 0.00012981976967520005 0.00016285997116065003 133.50000000000003 0.0002519410087951 0.052106165878731805 0.00014606482309940003 252.50000000000003 0.00053967018553485009 -3.6579882581803725e-05 174.50000000000003 -2.9113527416818159 -1.2350000000105331e-05 6.752179245893406 -0.00035313460631114995 1.3716499060267564 486583.50000000006 6.9745880126700834 1.2131950000000002
decision_type=2 2 2 2 2 2 2 2 2 2 2 2 2 2 2 2 2 2 2 2 2 2 2 2 2 2 2 2 2 2 2 2 2
left_child=1 21 -3 18 5 22 7 19 10 -10 -9 14 13 -13 17 -16 -14 -8 -4 20 -6 -1 23 27 -25 26 28 -2 -7 30 -27 -31 -5
right_child=4 2 3 32 6 25 11 8 9 -11 -12 12 16 -15 15 -17 -18 -19 -20 -21 -22 -23 -24 24 -26 29 -28 -29 -30 31 -32 -33 -34
leaf_value=-0.30838162251508933 0.11125264755232053 0.21104040782281794 -0.28121203950222662 0.30745150713526592 -0.3530366058353599 0.23915135925076889 0.051762787288189421 -0.076042295034659813 -0.18372217729747267 0.15296981638243495 0.056463522044711466 -0.15238587528287467 0.0061183881078748555 0.098802946953501586 0.057056597827719643 -0.059447795659086394 -0.030348791455817592 -0.028408369868060095 0.082420846279883012 0.088669891771001721 -0.051571868511728715 0.077803990608289048 0.036763704726203744 0.029433735680705415 -0.10894099060282376 -0.013166742202491265 0.24824907122346382 -0.19258173204061935 -0.10311896349308595 -0.057528476696967368 0.016924525373104782 -0.0058304664893955045 0.0039870882996063464
